0.219279021025
-0.130061045289
-0.433832705021
-0.0295409709215
-0.284283936024
-0.300666362047
-0.0135830612853
-0.34356829524
-0.0223109032959
-0.255020827055
-0.752281427383
-0.513037979603
-0.135130703449
-0.354194045067
0.182268589735
-0.0642380565405
-0.571287155151
-0.874963521957
-0.125026449561
-0.0855392739177
-0.419295489788
-0.283518403769
-0.16092197597
0.282391250134
0.289279699326
0.0453032143414
-0.292629241943
-0.517760813236
-0.337619423866
0.00200594961643
0.23505063355
0.42477825284
0.540954828262
0.220829889178
0.0198891051114
0.625338852406
0.278683543205
0.481638997793
0.608607113361
0.271391451359
-0.0567356422544
-0.535712957382
0.0351217240095
-0.699714660645
-0.50606149435
-0.402939319611
-0.363801807165
-0.016038576141
0.0141121968627
-0.88228648901
-0.180222183466
0.202714890242
0.450823634863
0.17669056356
0.612863838673
0.0742161795497
0.730979382992
0.213489130139
0.0606532990932
-0.106463655829
-0.194168388844
0.0278526898474
-0.543218374252
-0.449267268181
-0.363983005285
-0.134803280234
-0.955361604691
-0.521928012371
0.806462645531
-0.109448499978
0.231991440058
0.688554048538
0.372400730848
0.267371952534
0.10464283824
0.058277476579
0.00333548616618
-0.551512658596
0.377594143152
0.0349490381777
-0.394685566425
0.559323847294
-0.138468310237
0.445478886366
0.608170807362
0.374684751034
-0.185510963202
0.393696844578
0.236039146781
-0.114303611219
0.220203876495
0.0934409499168
0.882449448109
0.318577319384
1.07788610458
0.652589440346
0.203754141927
0.338167607784
0.425259768963
0.194143265486
-0.439336419106
0.691100239754
0.483555555344
0.588814020157
0.845475912094
0.522970855236
0.194766566157
0.717133283615
0.0524743497372
0.0232944171876
0.11069367826
0.210691839457
-0.192832767963
0.196823880076
0.280276060104
0.205340370536
0.110770478845
-0.149981632829
-0.269938647747
-0.223956421018
0.448951154947
1.12014245987
0.727951049805
-0.139707073569
1.24728524685
0.959500432014
0.277125895023
0.915364384651
0.016562461853
0.310910105705
-0.156501248479
-0.469385564327
-0.508561611176
-0.779422581196
-0.586839497089
-0.46910572052
-0.0397796183825
-0.279049366713
-0.132905676961
-0.404035955667
-0.507307887077
0.33781221509
0.919111728668
0.357746094465
0.20101352036
-0.0751116499305
0.755303859711
0.318655371666
-0.135139971972
0.0963978841901
0.086440294981
-0.344152927399
-0.195375427604
-0.339795589447
0.0162126664072
0.3083345294
-0.17877176404
-0.356940627098
-0.855796217918
-0.196117594838
0.364478647709
0.739084601402
0.465146303177
0.362478226423
0.538860619068
0.519404828548
-0.285131782293
0.326883554459
0.0697034522891
0.453910917044
-0.661731123924
-0.544321119785
-0.724320590496
-0.748011171818
-0.654010951519
-0.492578238249
-0.89683765173
-0.198221445084
-0.609099924564
-0.189107716084
-0.298989742994
-0.687062144279
-1.10390782356
-0.796698749065
-0.642258286476
-0.84332126379
-1.35014724731
-1.33954632282
-0.132770165801
-0.63107419014
0.209107324481
0.332544475794
-0.163189902902
0.229310795665
-0.202098622918
-0.158118247986
0.140684023499
-0.0428916700184
0.12912325561
0.171462982893
-0.404412209988
0.0142953190953
0.0610347241163
0.32840654254
-0.0239969082177
-0.0605828799307
-0.0379078388214
-0.331325232983
0.19982726872
-0.0756106972694
0.54357945919
-0.102338112891
0.287946790457
0.425146281719
0.438485980034
0.692458093166
0.162676200271
-0.397924125195
1.0113465786
0.478015631437
0.38440272212
0.55757689476
0.260865569115
-0.429427921772
0.447439551353
-0.385029435158
-0.661675214767
-0.231910914183
-0.978216290474
-0.293008208275
-0.200825497508
-0.366939038038
-0.80213612318
-0.629481434822
-0.338812589645
-0.0876416414976
-0.663101911545
-0.266105592251
-0.429463267326
0.0319780856371
0.25250005722
0.492992520332
0.425931125879
0.899204492569
0.244085043669
0.370262533426
0.316124230623
-0.200714454055
0.454955637455
0.52775490284
-0.0982023030519
0.284199178219
0.222149342299
0.368664443493
-0.0393997579813
-0.0192438382655
0.145879149437
-0.331362217665
0.125644937158
-0.0202353745699
0.769840955734
0.494983375072
0.282073438168
0.736518621445
0.474835962057
0.398001760244
0.205484449863
0.266250401735
-0.12940864265
0.575892686844
-0.38562810421
-0.460312157869
0.08644528687
-0.123277060688
-0.508436024189
-0.374312281609
-0.0391726382077
-0.618815004826
-0.101114951074
-0.296066641808
0.0399723164737
-0.0488992854953
-0.0640709251165
-0.343124836683
-0.256423562765
0.0661052390933
0.0944866016507
-0.134997472167
0.344721794128
0.168988481164
0.361714035273
0.402062833309
0.363772749901
0.0916006937623
0.247387960553
0.380857616663
0.619900941849
0.293673366308
0.493078559637
0.0928466841578
-0.228905707598
0.108819752932
-0.0194953363389
-0.306320011616
-0.374110758305
0.382967829704
0.0695320442319
-0.58406829834
0.119645908475
0.102768078446
-0.24425548315
-0.160685554147
-0.476348340511
-0.0335482768714
-0.543690085411
0.153059691191
-0.438527911901
-0.0384479649365
0.352402031422
-0.161597549915
0.125744357705
-0.120813630521
-0.938995242119
-0.666758537292
-0.0303719900548
-0.30226880312
0.00111522711813
0.348046839237
0.547925889492
-0.317780345678
0.347452312708
0.755751848221
-0.191656559706
-0.113527752459
0.0154575966299
0.237140983343
-0.115276418626
-0.209054514766
-0.079951800406
0.422813564539
0.17976090312
0.23899692297
-0.551467239857
0.0278111416847
0.430877000093
0.435855418444
-0.636840641499
0.46609133482
0.211800009012
0.0963519439101
0.142468348145
0.316260010004
0.0747012346983
0.533802568913
0.257839918137
0.113669201732
-0.102509699762
-0.48590028286
-0.0212013218552
-0.21419891715
-0.129700481892
-0.363845258951
-0.344876617193
-0.201854139566
-0.157860428095
-0.376917511225
-0.194090843201
-0.722795367241
-0.0716856196523
0.0120734572411
-0.160290002823
-0.207980424166
-0.0295741260052
-0.643151521683
0.1410266608
-0.480637460947
0.345120102167
-0.00437487987801
-0.0581351704895
-0.382584244013
0.321430444717
0.649802803993
-0.00498781260103
-0.113903976977
0.0847951471806
0.41910302639
-0.0406675264239
0.0843939930201
0.0275539848953
0.333061754704
-0.384104043245
-0.261565029621
-0.104089953005
0.266777515411
0.0525817722082
-0.349135637283
-0.0882859528065
0.144663080573
-0.402183234692
-0.131463035941
0.420226275921
0.498513817787
-0.046124368906
0.361353844404
-0.256614625454
0.217209324241
-0.467030525208
-0.0200421214104
0.00892125908285
0.343352198601
-0.0764982402325
0.483024805784
-0.119157612324
-0.138197928667
-0.0238270647824
0.385931819677
-0.143106579781
0.150168776512
0.190820664167
-0.00619461387396
-0.710939586163
-0.134574890137
-0.268356710672
-0.699483394623
0.083116941154
0.0473915562034
-0.280996352434
-0.30027833581
-0.511898815632
-0.113415971398
-0.10141146183
-0.224331825972
-0.460122436285
-0.0943891108036
-0.726513981819
-0.0199302434921
-0.52464222908
-0.224039494991
-0.641592979431
-0.305274873972
0.608602881432
0.242225661874
-0.0143478373066
0.552577495575
0.712558865547
0.112025678158
0.451715499163
0.836452364922
0.275081783533
0.586642682552
-0.576781690121
-0.887936592102
-0.505261957645
-0.354528725147
-0.831449985504
-0.721439659595
-0.294706791639
-0.260868489742
-0.237870961428
-0.114567637444
0.27386957407
0.0507872216403
0.405148774385
0.54179006815
0.504694104195
0.361308932304
0.177647262812
-0.40822416544
0.182465583086
-0.0803464278579
-0.189637616277
0.146937638521
-0.081051684916
-0.296580642462
-0.0430797152221
-0.4390206635
-0.376543551683
-0.25396412611
0.640298724174
0.297873497009
0.298095047474
-0.104557879269
-0.0520810596645
0.630824446678
-0.1587164253
-0.0160444173962
-0.404704332352
-0.0182228013873
-0.0585602037609
0.0404070168734
-0.27423864603
0.475774288177
-0.202679947019
0.26645898819
0.78069883585
0.413982480764
0.395515590906
0.452031165361
0.30921831727
-0.459853351116
0.365144073963
0.252873301506
-0.407355487347
0.832379221916
0.0321810618043
-1.12117242813
0.31976890564
0.517280638218
0.0408813692629
0.152208298445
-0.422347247601
-0.740342736244
-0.560554802418
-0.596559941769
-0.153774440289
-0.228265851736
-0.643148422241
0.308501303196
-0.596863389015
-0.736604750156
0.228286400437
0.402247607708
0.209837198257
-0.0493227951229
0.281189918518
0.288895398378
0.260179013014
0.136475250125
0.483733415604
1.03862679005
0.387975633144
0.439427226782
0.101634167135
0.436906188726
0.0620803758502
0.493198990822
0.40267971158
0.671441853046
0.379603475332
0.126682206988
-0.422553926706
0.381128162146
-0.113538183272
-0.148913398385
0.116704747081
-0.272509843111
-0.139222130179
0.0211478620768
-0.150133609772
-0.1186600402
0.145040720701
-0.0387157946825
0.128425881267
0.120106875896
0.408637851477
-0.318300783634
-0.153548121452
0.106757424772
0.248583480716
0.246704280376
0.497766137123
0.280858337879
-0.0392861552536
-0.225517705083
-0.218892902136
0.34413510561
-0.0738307386637
-0.0159502085298
0.303280472755
0.387525081635
-0.488249063492
-0.103005260229
-0.200257465243
-0.140952780843
-0.213421791792
0.0215793587267
-0.367235064507
0.372006237507
-0.316875398159
0.0291663575917
-0.429827511311
-0.201773509383
-0.314631015062
0.00917611084878
-0.25779145956
0.129132017493
-0.666224420071
-0.734726190567
0.0286137480289
0.116108596325
0.475133031607
0.311026871204
0.621943235397
-0.16670383513
-0.640494465828
0.290008068085
0.733267664909
0.283302158117
-0.387642979622
-0.111811630428
-0.348559051752
0.148522883654
-0.365475416183
0.406869262457
-0.483480781317
0.124819606543
0.136266931891
0.808462381363
-0.00747104827315
-0.086658462882
0.313673734665
0.232545375824
0.209254488349
-0.173351570964
0.685455799103
-0.0984385833144
0.0122988577932
-0.136126756668
0.0208092965186
-0.41068226099
-0.630207836628
-0.128010571003
-0.489885449409
-0.0286695528775
0.0341691896319
-0.795331954956
-0.000623548636213
-0.740338981152
0.13943952322
-0.187931761146
0.352315366268
-0.055244076997
-0.0804274454713
-0.449848383665
0.159733846784
0.0504778884351
0.583372712135
-0.347082436085
0.315908372402
0.233507066965
-0.182374700904
0.486252695322
-0.0673329234123
0.519916951656
0.33279812336
-0.100022241473
0.293177634478
0.0388135462999
-0.508589506149
-0.551941871643
0.567020893097
0.182238131762
0.057774104178
0.0833190232515
0.0812387317419
0.139601647854
-0.1298160851
-0.0864231660962
0.236467570066
-0.238984286785
-0.150823280215
-0.0529025346041
0.593973755836
0.248898565769
0.358498215675
0.402640432119
0.59007781744
-0.0448843948543
0.3804448843
-0.561982929707
0.383547514677
-0.225400626659
-0.540675103664
-0.253898203373
-0.419059723616
-0.0937185287476
0.0325808860362
0.175152167678
0.00345490127802
0.105079762638
0.0502977184951
-0.216577172279
0.485744208097
-0.633056521416
0.338245272636
0.157995283604
0.434397727251
-0.511127591133
-0.0490368194878
-0.216003924608
-0.725307583809
0.198845624924
-0.0762626826763
0.609202027321
0.217478141189
0.0277486424893
-0.0727362856269
0.454614430666
0.303196042776
0.137280642986
-0.177668094635
0.13262848556
-0.332136064768
-0.261627703905
0.179653853178
0.124183736742
0.137922540307
-0.505899190903
-0.322580486536
-0.139682173729
-0.167224481702
0.143235042691
-0.450587838888
-0.022937618196
0.375675708055
-0.044668994844
-0.425640106201
-0.085509441793
-0.479988694191
-0.268107354641
-0.534286499023
0.345032453537
-0.334683209658
0.342486709356
-0.237514331937
-0.324905663729
-0.326106905937
0.052572209388
-0.0494502186775
-0.180567041039
-0.383038043976
0.550537765026
-0.913098752499
-0.504527032375
-0.0227005127817
-0.390165656805
-0.408959001303
-1.46170186996
-0.37767598033
-0.716024398804
0.550127327442
0.249900430441
0.365176707506
-0.0969634130597
0.307883113623
0.55349200964
0.167616561055
0.714354276657
0.157602906227
-0.0502717196941
-0.172955781221
-0.390499889851
-0.156276777387
0.0161883439869
-0.0697304084897
0.199800923467
-0.155417382717
-0.121163025498
-0.396665930748
0.167289912701
-0.8006259799
-0.828896462917
-0.239673763514
-0.819221735001
-0.494819492102
-0.628143489361
-0.891569316387
-0.751791059971
-0.69629830122
-0.511927247047
-0.0691832751036
-0.372363805771
-0.105674870312
-0.158098131418
-0.200241312385
0.064946949482
0.617864370346
-0.536556363106
0.511335790157
0.739777207375
0.233445212245
0.446757853031
-0.414549648762
0.137383073568
0.166448295116
0.252551913261
0.192305669188
0.0713472366333
0.0699400603771
-0.268407136202
-0.436760365963
-0.0197799112648
-0.205896362662
-0.887359857559
-0.0552200376987
-0.452555686235
-0.0699174851179
-0.696976304054
-0.383604586124
-0.178794652224
0.429767459631
0.51258212328
0.256356596947
0.745273470879
0.247273802757
0.256797939539
-0.0150129115209
-0.172449782491
0.135142877698
0.31684628129
-0.92902135849
-0.276175737381
0.319043844938
-0.154812306166
-0.216777965426
-0.685239195824
-0.479121446609
0.194812148809
-0.550267219543
-0.486437261105
-0.0685014873743
0.402547895908
0.0789391770959
0.0115067902952
0.361886978149
-0.00811476353556
-0.169542655349
0.409898042679
0.111887581646
0.0730869397521
0.40252161026
0.63502407074
0.208366289735
0.593724191189
0.389997214079
0.684689223766
0.286407351494
1.25028502941
0.0763611271977
0.00560229551047
-0.341386198997
0.526948869228
-0.132576301694
0.514765262604
-0.605841815472
0.211256802082
0.293425917625
0.0620911605656
0.0519506186247
0.227626264095
-0.716506540775
-0.0792386829853
-0.252503871918
0.46001714468
-0.0740430355072
-0.414004534483
-0.173636078835
0.0159852784127
0.233233779669
-0.0107296220958
0.415921807289
0.368144840002
-0.240734800696
-0.0191319156438
-0.140029773116
-0.204676911235
-0.107468359172
0.324203342199
0.277259200811
0.610581219196
-0.133701309562
-0.0862976312637
0.170192763209
-0.0501419976354
-0.220986023545
0.523031353951
0.0691937431693
-0.052486397326
0.263482928276
-0.290467172861
-0.314713776112
-0.120881378651
-0.281891554594
0.281157582998
-0.19162119925
-0.114782936871
0.279303908348
-0.395749390125
0.107703730464
0.15895730257
-1.17437565327
-0.289576411247
0.0887579768896
-0.623853862286
-0.247185215354
-0.10062687099
-0.344909191132
-1.11761975288
-1.35090112686
-0.533039689064
0.134743228555
-0.0592638589442
0.312436074018
0.0214023590088
0.337407588959
0.124156326056
0.184691175818
0.395982921124
0.463689625263
0.0260888691992
-0.347251564264
-0.712260961533
-1.28013896942
-1.01503419876
-1.07324957848
-0.211557939649
-0.659951388836
-0.349301308393
-0.644273638725
-0.91589140892
-0.491462767124
-0.676562190056
-0.825261592865
-0.289006203413
-0.863701701164
-0.403384894133
-0.723435938358
-0.236644148827
-0.0401664748788
-0.206222817302
0.509712696075
0.292946338654
0.0511756390333
-0.272301614285
0.225537985563
-0.635757088661
0.319779187441
0.626859128475
0.279946357012
-0.527845323086
0.0477862507105
0.611156702042
0.424537569284
0.260149002075
0.963722765446
0.139597252011
0.242380037904
-0.372743546963
0.436446398497
0.0555739961565
-0.204560741782
-0.955363988876
-0.577663183212
-0.69759619236
-0.426404714584
-0.431776881218
-1.01606094837
-0.679337382317
0.0453993938863
-1.4228541851
-0.002830109559
0.510234236717
0.191461861134
0.0424021109939
0.283649384975
0.65211212635
0.143101155758
-0.0471548996866
-0.148169010878
0.00467638671398
-0.155331805348
0.371554791927
0.844398140907
0.620768845081
0.0117984972894
-0.122016243637
0.26725050807
0.646947979927
0.377450078726
0.243482574821
0.601029455662
0.0896735191345
-0.22130651772
-0.12117972225
0.796215415001
-0.091138087213
-0.343162864447
0.230407744646
0.257838726044
-0.479001879692
0.272335886955
0.253112882376
0.7124106884
0.259675711393
0.701510965824
0.536122441292
0.457137227058
0.986314713955
0.203210294247
0.0194724686444
0.166111946106
0.296423763037
-0.637421905994
-0.176341712475
0.297299861908
0.201981514692
0.0739599689841
0.284226715565
-0.772754788399
-0.0990649759769
-0.339757204056
-0.0694838166237
-0.785424828529
-0.427308738232
-0.22067886591
0.00782749522477
-0.385374963284
-0.778256654739
-0.0994614735246
-0.123598478734
-0.151179149747
-0.321064949036
-0.240942716599
-0.495013356209
0.209560289979
0.197353124619
-0.0741609856486
0.115445956588
-0.929104626179
-0.454414010048
-0.584749758244
0.424933254719
-0.252834707499
-0.574417412281
0.0376706533134
-0.611195623875
-0.3231947124
0.39503505826
0.0767314806581
-0.502293944359
0.227560907602
0.412688612938
0.305091887712
0.282982975245
-0.0507547929883
-0.508309304714
0.164584800601
0.296452343464
-0.19519533217
0.201284229755
0.0575880222023
0.257585197687
0.204421117902
-0.141103059053
0.0363991782069
-0.160722643137
-0.0343050658703
-0.277201861143
-0.0937492996454
0.516539752483
0.0471374727786
0.388289600611
-0.303468585014
-0.185607150197
-0.455868721008
-0.447915047407
0.209202617407
0.29968559742
-0.356901407242
0.33304938674
0.140182286501
-0.161916062236
0.1151586622
0.213987484574
-0.0593939349055
-0.072593010962
0.00626435130835
-0.094053722918
-0.302760660648
-0.834129035473
-0.483849704266
0.597400307655
0.0249855201691
-0.47224894166
0.0593414530158
-0.329441219568
0.00877049192786
-0.404213488102
-0.21555621922
-0.284167379141
-0.218602120876
-0.849363803864
-0.194251805544
-0.634729087353
-0.549507498741
-0.610689163208
-0.597552955151
-0.575207710266
-0.475991666317
-0.186357498169
-0.466784566641
-0.475085437298
-0.473470300436
-0.472356796265
-0.579366207123
-0.542560040951
-0.257784634829
-0.34480586648
-0.573099374771
-0.821892738342
0.207363381982
0.0806109085679
-0.362983375788
-0.266221255064
0.186174750328
-0.485682606697
0.0747081935406
0.190483734012
0.0951423048973
0.111182525754
0.664151191711
-0.136068597436
1.22146701813
0.181802913547
0.615358948708
0.387138754129
0.74779176712
0.575408399105
0.171390756965
0.0947895050049
0.244353324175
0.120139732957
-0.551334857941
0.103146076202
0.184364438057
0.0891749858856
0.109525829554
0.298190832138
0.357040524483
0.0392635799944
-0.605149567127
0.233763664961
-0.0668746158481
0.219301879406
-0.0250232927501
-0.145443692803
-0.0271047465503
-0.344191133976
-0.220536217093
-0.597286760807
0.581537723541
-0.171367615461
-0.155399858952
0.241284489632
-0.0790015757084
0.058811634779
0.11842096597
0.575927257538
-0.00258353538811
0.38541918993
0.0288910586387
0.133422344923
0.28552287817
-0.505962669849
0.261993616819
-0.164195403457
-0.493476390839
0.743584275246
-0.17856015265
-0.218292042613
-0.516961634159
0.164815187454
0.532042264938
-0.176819741726
0.732563555241
0.507612764835
0.19560085237
0.732255160809
-0.0381092950702
-0.50944262743
-0.20106600225
0.477759957314
0.0612317323685
0.0914037823677
0.617596387863
0.543240249157
0.101994141936
1.06161105633
0.313900589943
-0.256115823984
0.389614909887
-0.568531930447
0.668629586697
0.148582965136
0.0345211178064
-0.130717635155
-0.0785276070237
0.557424366474
0.319238722324
0.118659965694
0.154942169785
-0.133996978402
-0.0756543055177
-0.0532552227378
-0.148167535663
0.295518279076
0.240547806025
-0.132007166743
-0.112939201295
0.0631334409118
-0.261372953653
0.0102621465921
0.46294900775
-0.0928822830319
-0.0116151506081
-0.611494600773
-0.179871335626
0.0147848501801
-0.691457033157
-0.516187489033
-0.0897039324045
-0.436628103256
-0.291694104671
-0.674500763416
-0.31771299243
-0.379200428724
-0.669523060322
-0.717292904854
-0.341926306486
-0.109010688961
0.392518460751
0.409019589424
0.16339713335
-0.258824408054
0.143374040723
0.0941377058625
0.603131055832
0.502677619457
-0.125388339162
0.0113868229091
0.453736692667
0.379524201155
0.135517150164
-0.149190813303
0.169719204307
0.231393381953
-0.229835554957
-0.361283987761
-0.0333614200354
0.159488141537
0.551786661148
0.40698581934
0.373716175556
0.0181150417775
0.443171977997
0.0746768191457
0.243980914354
0.181817814708
-0.299440920353
0.294676035643
-0.375190079212
0.0868728980422
-0.218426853418
0.235867023468
0.0451198741794
-0.0909756943583
-0.0983136892319
-0.0948945060372
-0.396146923304
-0.457357078791
-0.703166484833
-0.684822022915
-0.650205731392
-0.0759574994445
-0.329598546028
-0.444254547358
-0.201640591025
-0.518230974674
-0.283609807491
-0.215728700161
0.0316562950611
0.0132527537644
-0.105208858848
-0.155871063471
-0.329149097204
0.323922514915
0.407686978579
-0.295546323061
-0.169706583023
0.49813914299
0.0998882725835
-0.410433799028
-0.376680642366
-0.0111622288823
-0.217147514224
-0.451116770506
-0.128513991833
0.501228034496
0.29159617424
-0.0125399921089
0.309703320265
0.580038249493
0.0210217274725
0.369844913483
0.215537056327
-0.159068211913
0.294416517019
-0.159759089351
0.352322399616
0.162439316511
0.195442736149
0.247912570834
-0.0842352807522
0.204512685537
0.131654202938
-0.232290804386
-0.136676922441
0.208141714334
-0.158445984125
0.269897311926
0.890854120255
-0.13164627552
0.819574117661
0.273234158754
0.28501522541
0.210279986262
0.270063132048
0.655985116959
0.0889237374067
-0.26467192173
-0.0876897349954
-0.724435389042
0.800508916378
-0.207133039832
-0.154955118895
-0.670224666595
-0.0584877803922
0.0636800378561
0.366777896881
0.114348441362
-0.621888399124
-0.29851385951
-0.0207936950028
0.331256836653
0.0612530224025
0.380563318729
-0.356803655624
-0.167497113347
0.212390258908
0.00717157265171
0.116906449199
-0.0363849326968
-0.189797967672
-0.127236157656
0.295413166285
0.225813746452
0.0808600112796
0.704344213009
-0.452107578516
0.0107827810571
-0.511744916439
-0.676198482513
0.288603037596
-0.522441446781
0.0112561639398
0.255336612463
-0.118211567402
0.108482576907
-0.00517879240215
-0.0222200360149
-0.0240814648569
0.271321058273
0.547201097012
-0.120461650193
0.180618152022
-0.0408717803657
0.453445196152
0.81954395771
0.0922760143876
0.364645957947
0.404916763306
0.141145825386
0.0549579709768
-0.0476446226239
0.371997773647
0.264742583036
0.0869058519602
0.531250715256
0.292943537235
-0.19186013937
0.101851016283
0.220388099551
-0.0388213098049
0.520641982555
0.130400061607
0.241481095552
0.212334722281
-0.180521756411
0.72718334198
0.417065054178
-0.244465276599
-0.00564876943827
-0.0821564272046
-0.139069229364
-0.0169254504144
-0.420933544636
-0.132094651461
-0.525694310665
-0.194568380713
-0.528311014175
0.583276748657
-0.268878817558
0.35683336854
1.02077746391
-0.0465508811176
0.267243504524
0.16096034646
0.853381216526
0.0288846064359
0.114863947034
1.02451741695
0.206900402904
0.643773972988
0.187086954713
0.173660129309
-0.127308562398
-0.352133095264
0.51420289278
0.555538952351
0.618822753429
-0.543665230274
0.237574696541
0.372424274683
-0.0978711694479
-0.451222389936
-0.303381115198
-0.329679936171
-0.110138878226
-0.455971419811
0.00387090072036
0.010969934985
-0.328274875879
-0.50783354044
-0.475728780031
-0.454804003239
-0.527140915394
-0.347972780466
0.212468624115
-0.372085094452
-0.0856532976031
0.201327681541
-0.144768878818
-0.0272407792509
-0.238482192159
0.646856188774
0.514899671078
0.734043478966
-0.0188085511327
-0.495713174343
-0.228333488107
-0.419807344675
0.0325663350523
-1.19328689575
0.364886730909
-0.316625535488
0.158314734697
-0.35658672452
-0.0792622938752
-0.507505834103
-0.18020683527
-0.106105394661
0.136847838759
-0.161053627729
-0.343607753515
-0.042730666697
0.275390535593
-0.318795800209
-0.0047456510365
0.0926238074899
-0.374782145023
-0.202567979693
-0.218311280012
0.112693287432
-0.0920787900686
-0.37470421195
-0.152674511075
-0.158766388893
0.213068395853
-0.290844738483
-0.124972365797
-0.214364111423
-0.563296377659
-0.871708512306
-0.558662414551
-0.990450024605
-0.743380308151
-1.05962193012
0.0138681251556
0.370535820723
-0.0193375349045
0.90045529604
0.867458641529
0.544471085072
0.343927443027
-0.00698527041823
0.726440191269
0.422570228577
0.327640533447
0.087196610868
0.493105620146
0.0519284307957
0.193210944533
-0.0149769578129
0.402264893055
0.390395969152
0.176565796137
0.387347519398
-0.211151719093
0.521687865257
0.380984932184
0.628252983093
0.173973068595
-0.149629861116
-0.373244643211
-0.327651709318
-0.0222936663777
-0.4733504951
-0.663226485252
-0.385348856449
-0.000434670597315
0.0403792522848
0.064755782485
-0.0264331623912
0.250619828701
-0.120625682175
-0.114266730845
-0.0596127063036
0.315958917141
0.212976768613
0.336483865976
0.282838374376
0.284755319357
0.450487554073
0.386281102896
0.396410256624
0.467902123928
0.201341569424
0.773919224739
0.119839243591
0.377684861422
0.0913185477257
-0.553190231323
-0.329190582037
0.349030345678
-0.00438449531794
-0.0498757474124
-0.408194035292
0.114814028144
0.658347785473
0.933702588081
-0.38356795907
0.223433449864
-0.163128465414
0.229151830077
0.313589930534
0.37373405695
0.11939625442
0.633495151997
0.0627408772707
0.290895164013
-0.0119309965521
0.223457738757
0.365854233503
0.119977228343
0.0922292619944
-0.455986768007
0.555502653122
-0.241050735116
-0.270619004965
0.00405535055324
0.448891162872
0.502067565918
0.488575994968
0.359449595213
0.461231231689
0.149998739362
0.5616787076
0.0634639561176
0.357585698366
0.442092359066
-0.447902202606
-1.13593411446
-0.586520075798
-0.380147635937
-0.345101982355
-0.352758407593
-0.632854759693
-0.522809445858
-0.512773394585
-0.760693192482
-0.313164830208
-0.278321474791
-0.582612454891
-0.367828726768
-0.108899869025
-0.741154372692
-0.270870357752
-0.189528346062
-0.102201387286
-0.305490374565
-0.0958127453923
0.0142977274954
-0.12161681056
0.665891051292
-0.220797657967
0.170447811484
-0.322682142258
0.0847181528807
-0.684582412243
0.278190135956
-0.390785932541
-0.229878246784
-0.335769474506
-0.583332777023
-0.322972774506
-0.624118506908
-1.22309577465
-0.0150554291904
-1.48236656189
-0.731925070286
-0.311349958181
0.124900653958
0.118334166706
0.141026258469
-0.30509570241
0.353449702263
0.0671005770564
-0.00695080496371
0.13270790875
0.271448343992
-0.133523613214
-0.629126012325
-0.106148451567
-0.320524722338
-0.121430486441
-0.46529057622
-0.0140845775604
-0.38250631094
-0.0737011656165
-0.0468268804252
-0.350975602865
-0.0150209628046
0.00784981064498
0.0926599651575
-0.136896833777
-0.135872244835
-0.495314121246
-0.239147350192
-0.0356665253639
-0.111085109413
-0.60133177042
-0.267489224672
-0.0407894775271
0.199824020267
-0.657178640366
-0.7030813694
-0.240316435695
-0.617270588875
-0.414128780365
-0.385615825653
-0.0178298018873
0.219859719276
-0.278847008944
0.39817109704
0.119149401784
-0.550757348537
-0.490300387144
-0.471715301275
0.0726455673575
-0.197148293257
-0.431422561407
-0.17765827477
0.153169602156
-0.0306286159903
0.0308037567884
-0.424775898457
0.150626853108
0.00485923560336
-0.415588974953
-0.0426172912121
0.294306069613
-0.27758461237
-0.214606374502
-0.359935224056
-0.844080150127
-0.532276928425
0.485376626253
0.0232751704752
0.0986848250031
0.0167085006833
0.309727787971
0.253898084164
-0.369815975428
0.186700358987
-0.0612615719438
-0.0912368893623
-0.387318879366
0.346363425255
0.303974419832
0.290530979633
0.198298513889
0.208782553673
0.621139407158
0.588738560677
0.136886268854
-0.257046848536
0.267235696316
0.954702377319
-0.441964179277
-0.102336019278
0.316178143024
-0.964155137539
-0.434780538082
0.0907494798303
-0.376620471478
0.0377388037741
-0.278451681137
0.296906977892
-0.0417101718485
-0.299394845963
-0.217267900705
-0.32400110364
-0.177330061793
0.549476921558
0.0840982124209
0.49195343256
0.584143221378
0.278628855944
-0.119325876236
-0.010001571849
-0.14858533442
0.299243301153
0.0944979712367
-0.0371327996254
-0.0419816747308
-0.110380619764
0.113087750971
0.18101760745
-0.465401738882
-0.00356457475573
0.090052805841
0.596503615379
-0.0373363867402
0.786164522171
-0.348462641239
0.114048704505
0.132221788168
0.718449771404
0.154816120863
0.550731420517
-0.735644102097
-0.694867968559
-0.300160765648
0.227720379829
-0.0354275293648
-0.538411319256
-0.361063569784
-1.11687958241
-0.366495043039
-0.344672113657
0.588616967201
-0.542992353439
-0.509362220764
-0.189729824662
-0.103418290615
-0.309448957443
-0.276554733515
0.0389305651188
-0.539757490158
-0.74416655302
-0.794020354748
-0.378097862005
-0.22177298367
-0.685442268848
-0.109441041946
0.184050023556
-0.206415012479
0.411064147949
-0.0632006824017
-0.271764189005
-0.607165455818
0.26765075326
0.37256705761
0.192286804318
0.0318299457431
-0.485811918974
0.192826449871
-0.316004544497
-0.0440207757056
-0.318609982729
0.0443837530911
0.244700193405
0.565805017948
-0.108380764723
-0.0168478824198
-0.244618371129
-0.0733177438378
0.522707045078
-0.158252194524
-0.110733143985
0.452136874199
0.431560069323
0.388257622719
0.000758322887123
0.0622627139091
0.262699365616
0.0200172886252
0.29009115696
0.424618721008
0.352238327265
-0.0316044315696
0.134246230125
-0.0929819643497
0.378427952528
0.389720529318
-0.538981020451
-0.383055895567
-0.300753355026
0.0874115228653
-0.25586438179
0.362893879414
-0.745745956898
-0.01542814821
-0.323812931776
-0.165294960141
-0.222597524524
-1.0288040638
-0.292252928019
-0.389074921608
-0.242882966995
0.0416277423501
-0.397600620985
-0.0833925753832
-0.495093166828
0.295766472816
0.230099931359
-0.118230909109
0.340446591377
0.18320286274
0.384645372629
0.560096263885
0.879090487957
0.825111985207
0.27689832449
1.06805491447
0.583728015423
0.0721834599972
0.421027690172
0.184879258275
0.438138872385
-0.00832927599549
0.244658917189
-0.189453154802
0.566890776157
0.0314504615963
0.0376994907856
-0.149370968342
-0.593247532845
-0.355102956295
-0.197858572006
-0.373472541571
0.104872837663
-0.385590940714
-0.802571892738
-0.404986321926
-0.456577211618
-0.515508890152
-0.357285916805
-0.677136182785
-0.42939338088
0.340623497963
-0.181176677346
0.39787042141
-0.0391375534236
0.583816170692
0.0516019724309
-0.0869478806853
0.0733130946755
0.185600996017
0.0933301821351
1.02642679214
0.377308130264
0.433300971985
0.303714841604
0.124641120434
0.101548962295
-0.203850388527
0.208156123757
0.632467985153
0.227204203606
-0.00684730429202
-0.293280333281
-0.0208652410656
-0.272731482983
0.0817541629076
-0.407098174095
0.255893170834
-0.527301609516
-0.0697839930654
0.447117894888
0.53155118227
0.0493467599154
0.367938309908
0.371656268835
0.538608253002
0.315983861685
0.339984506369
0.356801152229
0.0205196365714
-0.041405364871
-0.0282362513244
0.102755732834
-0.236705735326
0.385884344578
-0.264863073826
0.0671647489071
-0.119771890342
-0.0832654833794
-0.0666131451726
-0.383242845535
-0.161867782474
0.121708117425
-0.0321651995182
-0.152039527893
-0.317115902901
-0.364821493626
0.464378386736
-0.477047622204
-0.14207907021
-0.0880205184221
0.765815496445
0.395477324724
0.67903649807
0.0693294629455
-0.118054904044
-0.101652003825
-0.138272851706
0.17509368062
-1.24806809425
0.517793595791
0.250435978174
0.242969453335
-0.037706233561
0.424424290657
0.219668164849
0.841093063354
-0.25113850832
0.439401477575
-0.208288505673
0.12935565412
0.519903182983
0.776287674904
0.931747615337
0.479104369879
0.77685970068
0.704875946045
0.625171244144
0.0970319211483
0.31163173914
0.329038858414
-0.542931079865
-0.385623276234
-0.179741293192
-0.0917192324996
0.012715484947
-0.180454209447
-0.0940472781658
-0.251857429743
-0.557056427002
-0.406230032444
0.0319704972208
-0.690502047539
-0.871288597584
-0.896122038364
-0.608023285866
-0.853257060051
0.099966019392
0.189280465245
-0.215517774224
-0.42019572854
-0.187567815185
0.541712522507
-0.0952470451593
-0.0977260097861
0.0511955954134
-0.106111623347
0.211279958487
-0.511525571346
0.0238069966435
-0.140833869576
0.326130032539
-0.0892170071602
-0.210810497403
0.138517722487
-0.0350931808352
0.150197476149
0.0707202032208
-0.30736541748
0.0114057641476
-0.178777620196
-0.399138003588
-0.298375725746
-0.303530752659
-0.0503054484725
-0.602687656879
0.223741203547
-0.21401847899
0.174174711108
-0.104798570275
0.133180588484
0.550222814083
0.200866669416
0.0502232722938
-0.326588690281
0.134349703789
0.619540095329
0.438374876976
0.485834300518
0.464800775051
0.601172089577
-0.156380608678
-0.29739522934
-0.146665096283
0.100776940584
-0.150506749749
-0.411698639393
-0.0899035260081
0.0449309200048
-0.0474226586521
0.0423101633787
-0.204838261008
-0.740519106388
0.0692984312773
0.0662794113159
0.31393763423
0.0817962214351
0.176488474011
-0.129832550883
0.230630278587
-0.13649392128
-0.553959667683
-0.233569413424
0.116608478129
0.656176447868
-0.595236182213
-0.308483392
0.434556335211
0.120647378266
0.108721345663
0.419110506773
0.508944511414
-0.514562726021
0.032449465245
0.188208341599
-0.153293550014
-0.324549943209
0.112585656345
0.0869373753667
-0.000600301253144
-0.381967574358
0.258894383907
0.0648766979575
0.0933965519071
-0.214053466916
0.477442800999
-0.0727971568704
0.124158903956
0.0449802726507
0.127682745457
-0.680458247662
-0.474500179291
0.0176445543766
0.543594002724
0.352502286434
0.430238068104
0.366932600737
0.396062046289
-0.300586491823
-0.483766019344
0.0139192417264
-0.838947296143
-0.254230707884
-0.290624827147
0.11332179606
-0.496217310429
-0.766820251942
-0.109937995672
-0.487428188324
-0.600748896599
-0.394554018974
1.05642008781
0.532678425312
0.842459917068
-0.0597949251533
0.731186330318
0.588793218136
1.46840572357
0.276156514883
0.645502686501
0.454617589712
0.563248693943
-0.137133002281
0.515081703663
0.600761950016
0.249984428287
0.335605859756
0.0366774648428
0.95131623745
0.0449668727815
0.652392923832
0.245047479868
0.290131419897
0.175845324993
-0.385849505663
0.0823203772306
0.456045538187
0.785743117332
0.665960252285
0.145784959197
0.0524954907596
0.437028378248
-0.0703791752458
0.0642217323184
-0.342250168324
-0.133628413081
0.0784349963069
-0.302524238825
0.179054453969
-0.209793910384
-0.44247558713
-0.00918837077916
-0.523868203163
-0.750681221485
-0.686890602112
-0.0805444046855
-0.146597400308
-1.0475615263
0.000330092094373
-0.521587729454
-0.275626003742
-0.238734155893
0.123852595687
-0.387410610914
0.0878352224827
-0.322074979544
0.412510067225
-0.393892586231
-0.407588392496
-0.55185431242
0.27361497283
-0.246513262391
0.362280398607
-0.420190304518
0.550212264061
-0.301697105169
-0.28730815649
0.135927855968
0.200533986092
0.0637052804232
0.478765308857
0.0640576258302
-0.490960121155
-0.225566372275
-0.253935158253
-0.313189029694
0.0502827167511
-0.549773454666
-1.26308345795
-1.3492487669
-0.923301637173
0.0388480983675
-0.296306908131
0.10581690073
0.0495687276125
-0.0462920479476
-0.373022764921
0.543734073639
0.169476374984
-0.152976453304
-0.0115189729258
-0.0330021716654
0.870870769024
0.31406250596
0.667683959007
0.672245204449
0.717970371246
0.396530717611
0.439902275801
0.0685777813196
0.219785615802
-0.256360530853
0.27153646946
0.461552560329
-0.306161284447
-0.268611580133
0.822053730488
-0.308862775564
0.186964079738
0.0550304949284
-0.121168345213
-0.111764922738
-0.309487760067
-0.422973453999
0.203179880977
-0.555558502674
-0.180109709501
-1.01447081566
-0.34376502037
0.130949646235
-0.197246327996
0.0379680804908
0.147344872355
-0.0337593778968
0.214017346501
0.0578914545476
0.235026896
0.119311124086
-0.802408456802
0.078090749681
0.627694904804
0.388774245977
0.236163258553
0.310446381569
0.295382976532
0.144877314568
-0.0443410165608
0.302391380072
0.158035337925
0.00314550101757
0.111484788358
0.338592678308
-0.0931536853313
-0.108495138586
0.0203728955239
-0.233701899648
-0.132205337286
-0.269295632839
0.457466810942
-0.317822724581
0.140015617013
0.0588247850537
0.205273330212
0.445236861706
-0.101638101041
-0.327547043562
0.240874707699
0.0596577897668
0.402383744717
0.095315977931
0.378748327494
-0.349458217621
0.255049198866
0.320632874966
0.406900018454
0.209307178855
0.207394421101
0.444336742163
0.548809230328
0.59431964159
0.214321777225
0.560943603516
-0.187072023749
0.233449995518
-0.13980191946
-0.332007110119
0.447863817215
0.176477193832
0.0775228664279
0.213012516499
-0.0809839963913
0.0864779427648
-0.0870982035995
0.218541234732
0.387145638466
-0.512924253941
-0.0847741216421
-0.032787527889
0.240770250559
0.0199675112963
-0.368902087212
0.357950478792
0.0964924544096
0.177687048912
0.298470675945
0.523728311062
0.223855108023
0.0329586043954
0.855252504349
0.672592818737
0.173387095332
-0.122912943363
0.317945629358
-0.613718211651
-0.18392623961
-0.727526545525
-0.435812860727
-0.366187870502
-0.309422314167
-0.0694552436471
-0.0744564980268
-0.0605633854866
-0.108394168317
-0.265665024519
-0.149241730571
0.095240354538
0.474804401398
0.521453917027
-0.596373975277
0.23995859921
0.314546763897
-0.0313402749598
0.339787632227
-0.033449139446
-0.176267266273
0.457633852959
0.173582211137
0.167065650225
0.638554811478
0.00887760333717
-0.187185421586
-0.686097085476
-0.307395040989
-0.25514087081
-0.0697279796004
-0.663037538528
-0.318850308657
-0.510946631432
-0.7972022295
-0.17709800601
-0.360558569431
-0.11180857569
-0.420664727688
-0.243524909019
0.744336545467
0.464629799128
0.0322697162628
-0.522077322006
-0.103401780128
0.365014433861
0.215676739812
-0.103821948171
0.437010884285
-0.18988840282
0.403960943222
0.537562012672
-0.244463294744
-0.002602790948
0.503813326359
0.148054093122
-0.391218364239
0.483477801085
0.469974786043
0.358789026737
0.718508780003
0.227497205138
0.0163184888661
0.369302332401
0.482048541307
-0.177444130182
0.109368920326
0.477197468281
0.388835370541
0.694978713989
-0.356582641602
0.378627806902
0.766704142094
0.563338756561
0.0985016822815
0.156312033534
0.207403793931
-0.0022584607359
-0.183909654617
0.187446847558
-0.180558025837
-0.132235899568
0.132908180356
-0.316063523293
-0.692889809608
-0.804612219334
-0.17225843668
0.0324090272188
-0.108797863126
0.438866794109
-0.120540812612
0.0368315987289
0.729860246181
0.158945158124
0.0702951475978
0.253101885319
0.177646920085
0.0893390253186
-0.326942175627
-0.20846092701
0.456120669842
-0.118606880307
-0.158488884568
-0.528531908989
0.534763276577
0.254084974527
0.559621334076
-0.218032076955
0.365660041571
-0.139753818512
0.179339781404
0.525251090527
-0.0393590666354
0.0265953987837
0.930824637413
-0.0566837452352
-0.363270938396
-0.119155958295
-0.463370114565
-0.532038748264
-0.289166152477
-1.02248227596
0.175061315298
-0.302045166492
-0.176655873656
-0.303273946047
0.344888955355
-0.0796578153968
-0.28430467844
0.0221695676446
-0.0206128340214
-0.354160487652
-0.309031605721
-0.452068090439
-0.171192929149
-0.585995197296
-0.484669089317
0.360486745834
0.124447375536
0.409398376942
0.127299502492
0.628629922867
-0.00577758532017
0.573545694351
0.490849673748
0.717430591583
0.609931647778
-0.38662904501
0.703526496887
0.163130253553
0.244415313005
0.300684452057
0.299778550863
0.246099203825
-0.362602889538
-0.27007946372
-0.677930235863
0.0682600215077
-0.538403511047
-0.659532248974
0.063146494329
-0.310616314411
-0.0997307375073
-0.465805709362
0.147242367268
0.0291207842529
-0.059646435082
-0.164728373289
-0.660023808479
-0.0492434874177
-0.611573040485
-0.529378592968
-0.780221402645
-0.596708714962
-0.129012838006
-0.793680906296
-0.074272416532
-0.635458052158
0.20402944088
-0.294941842556
0.0644560307264
-0.637813568115
-0.27941557765
-0.385129928589
0.26609647274
-0.280613720417
0.396896779537
-0.131365641952
0.172157749534
-0.682762682438
0.107892073691
-0.0504144616425
-0.259522348642
0.133899122477
0.211208298802
-0.15161588788
-0.177565723658
0.294349223375
-0.112529180944
-0.136995986104
0.56905901432
-0.16016562283
-0.0910885035992
-0.0617254413664
-0.0380614846945
-0.372387886047
-0.248520597816
0.14275418222
0.0727800875902
0.0940251201391
0.0212145764381
0.159017324448
0.593532025814
0.181477710605
-0.0409493669868
0.321333289146
-0.0118094775826
0.614815354347
0.678744256496
0.506832897663
0.385604202747
0.333473324776
0.19003418088
0.849329710007
0.569643497467
0.129807680845
-0.0581871122122
0.221269667149
0.3410987854
0.46604269743
-0.423206210136
0.583807885647
0.514927208424
-0.00580465327948
0.231079757214
0.0601274892688
0.213788092136
-0.336713522673
-0.157952934504
-0.0500094257295
0.410642445087
-1.1361219883
-0.281755775213
-0.689363062382
-0.531624853611
-0.259847044945
0.360425829887
0.39350810647
0.550162136555
0.484210014343
0.81362503767
0.587579727173
-0.273830085993
0.481985598803
0.643796980381
0.494631052017
0.395284891129
-0.0688517168164
0.201882153749
-0.5323548913
-0.457511633635
0.405449956656
0.119611285627
-0.380371242762
0.163244321942
-0.260001003742
-0.804469883442
-0.19971370697
-0.686239182949
-0.692104458809
-0.177625089884
0.0687320977449
0.110543064773
-0.449049413204
-0.4185590446
-0.135777130723
-0.379828393459
0.340455234051
-0.53194463253
0.430610328913
0.179269149899
0.187352657318
-0.582674562931
0.601355910301
0.315336883068
-0.00630120560527
-0.0776858851314
0.19283862412
0.035078573972
0.45674854517
0.0595853440464
-0.0429680384696
-0.0848893076181
-0.545957922935
-0.382369756699
0.027989923954
-0.240750536323
-0.293201506138
-0.0716072842479
-0.0913675650954
0.320141166449
-0.08635122329
-0.108833931386
-0.0122002866119
-0.774050593376
-0.450396955013
-0.0239433124661
0.285547077656
0.106035716832
0.0637905150652
0.00186404737178
-0.329252541065
-0.646327197552
0.490841507912
-0.262260705233
0.353361427784
0.104650050402
-0.0823955833912
0.173359557986
-0.417006194592
-1.03666400909
-0.769665956497
-0.0128419212997
0.0221993774176
-0.140953913331
-0.374320715666
-0.104135908186
0.644401311874
0.66902166605
0.77140468359
0.990814507008
0.742886900902
0.413636118174
0.679222285748
-0.180996477604
0.701136171818
0.593275845051
-0.949108541012
-0.431923091412
0.303374171257
-0.360962241888
-0.295866191387
-0.201740086079
-0.0552754178643
0.0371147468686
0.270892351866
-0.279945373535
0.649723052979
0.509592890739
0.644095242023
0.579875230789
1.03782784939
0.566628873348
0.456881165504
1.21680247784
0.111187063158
0.157156378031
0.322019070387
0.234509184957
-0.941695451736
0.41051441431
-0.40320572257
-0.232644513249
-0.613719642162
-0.181618615985
0.228994697332
-0.135322451591
0.17078474164
0.0423036143184
0.270949572325
0.460458517075
-0.176026284695
0.353121340275
-0.47000220418
0.972982943058
0.0176988169551
-0.0183801390231
0.0869221016765
-0.530574679375
-0.409723162651
-0.455290704966
-0.634691476822
-0.399418145418
-1.08915162086
-0.91772788763
0.176783382893
-0.350564420223
-0.363758951426
0.821248650551
0.167609542608
0.691295206547
-0.0966600850224
0.630890488625
0.048716135323
0.47482714057
-0.298381507397
-0.305681347847
0.457102954388
0.704492390156
0.318110287189
-0.0243253540248
-0.28176048398
0.0908279418945
0.205153524876
0.786781907082
0.644990324974
-0.169670298696
-0.556073665619
-0.372647017241
-0.972912788391
0.112747982144
-0.471996128559
0.389611363411
-0.761303544044
-0.154469311237
-0.278027564287
-0.375055879354
-0.0367819815874
0.105856731534
-0.179558008909
0.29894092679
-0.14247584343
-0.490527421236
-0.26629281044
-0.698643684387
-0.47697660327
-0.0820696800947
-0.107765592635
-0.250889480114
-0.13292644918
-0.179606348276
-0.385392308235
-0.452699095011
-0.449884057045
-0.558308422565
-0.380221068859
-0.213349506259
-0.713757097721
-0.0263569541276
0.0714322775602
-0.16402040422
-0.0824602767825
-0.578713715076
0.00255296891555
-0.889993488789
0.0918191820383
-0.45557692647
0.440989494324
-0.309172332287
-0.0992802008986
0.0390451997519
-0.493694245815
-0.55174434185
-0.358666270971
-0.236120656133
-0.354344308376
-0.0658922046423
-0.356752842665
0.139992207289
0.104137986898
0.29402461648
0.210915669799
-0.415365278721
0.0496285706758
-0.259464025497
0.144894406199
-0.057071570307
0.49802672863
-0.210356548429
-0.264014184475
-0.611789047718
-0.429167717695
0.16841724515
-0.216303989291
0.333358228207
-0.327645480633
-0.0626867637038
0.359557360411
-0.0678583532572
0.670434236526
0.579101502895
0.346332758665
0.381475299597
0.455494314432
-0.374471575022
0.500989079475
0.0448744297028
0.385288476944
0.355729877949
-0.448661923409
0.0223582368344
0.364866882563
0.677648842335
0.299885869026
0.6911714077
0.495943784714
0.769533395767
0.378356516361
0.525397181511
0.494295716286
0.1808334589
-0.219608798623
-0.100785695016
0.141659036279
-0.0631128251553
-0.246062204242
-0.185538858175
0.653253495693
0.146100759506
0.0942000076175
0.798543453217
0.124111220241
0.223493397236
0.124978601933
-0.0633709058166
0.79308795929
0.708280146122
0.524438500404
0.733041405678
0.368857353926
0.114223919809
0.0351083949208
0.533791303635
0.674570143223
0.491165310144
0.315575391054
-0.0292350109667
-0.250042289495
0.170628473163
-0.53007119894
-0.451936602592
-0.294353425503
-0.743013262749
-0.460717558861
0.0265511907637
0.0839529260993
-0.258890211582
-0.00675865216181
0.160650536418
0.205155462027
0.361415922642
0.317227244377
0.700080752373
0.68440580368
0.12664295733
0.23664727807
-0.226165339351
0.167772784829
-0.223229274154
0.338075637817
-0.17585209012
-0.0315970107913
-0.162625163794
0.0162774138153
0.195046216249
-0.0538021251559
-0.334319531918
0.158955290914
0.426877945662
0.174591943622
0.900278329849
-0.0642172247171
0.0471432507038
0.0131445396692
0.910307168961
0.341629713774
0.460544675589
-0.129104077816
-0.44154509902
-0.172882169485
-0.549129426479
-0.614665150642
-0.57915776968
-0.692128777504
-0.215100109577
-0.412939548492
-0.348738998175
-0.239089772105
0.0343776680529
0.0481269992888
0.340954571962
-0.0933114439249
-0.445619165897
0.107352934778
0.0595530346036
-0.255935072899
-0.0941461026669
-0.17037563026
0.753234803677
0.311280697584
0.00869880616665
0.09389577806
-0.0101646073163
-0.15251943469
-0.0512831658125
0.470156490803
0.00862656347454
0.112525679171
0.260150015354
0.0155941108242
0.320638388395
0.0414464399219
0.133045852184
-0.2577239573
-0.120935678482
-0.695607244968
0.440924346447
0.463136911392
-0.0025258869864
0.0301596913487
0.399982392788
-0.614151358604
-0.241161391139
-0.325966030359
0.100947536528
0.217389076948
-0.171833157539
0.492330402136
-0.106633968651
-0.260030567646
-0.14008833468
0.184828966856
0.261287719011
0.184522777796
0.452912062407
0.00380822946317
0.196102321148
0.231716707349
0.416864782572
0.160867035389
0.777322351933
-0.0831038802862
0.0782522261143
-0.0754251033068
0.416564911604
0.557197511196
0.237985476851
0.156920284033
-0.111612103879
-0.0457086861134
-0.00310898711905
-0.0936257392168
-0.426337808371
-0.331814885139
0.0770157426596
-0.0747663974762
-0.00984847825021
-0.350716382265
-0.711129844189
-0.164409846067
0.205453276634
-0.090336561203
-0.547361016273
-0.0331402011216
0.142298281193
-0.371302306652
-0.110123701394
-0.416654288769
-0.0415100306273
-0.00498189684004
-0.0692375525832
-0.260250002146
-0.788751900196
-0.435161560774
-0.652161836624
-0.908714175224
-0.0630734860897
-0.647643685341
-0.676776826382
-0.194292649627
-0.142799139023
0.233189508319
-0.228076472878
-0.0674973428249
-0.5173432827
-0.385503083467
-0.0341826751828
0.458534926176
0.00774201843888
0.0396053865552
0.0199694819748
-0.700623512268
0.0467495843768
-0.018998708576
-0.230227306485
0.127964109182
0.0421408712864
-0.754254341125
-1.04253709316
-1.12482094765
-0.680894434452
-0.946159422398
-0.996544599533
-1.08265864849
-0.681398868561
-0.900964200497
-0.688671886921
0.533899009228
0.220828324556
0.160068482161
0.0788744539022
0.0255948137492
0.683385431767
0.207546502352
0.619338154793
-0.499798357487
0.182237565517
0.253033608198
0.366185367107
0.15540844202
0.279273539782
0.105813577771
-0.363601863384
-0.233230099082
-0.213205739856
-0.12549084425
0.13799148798
0.546054303646
0.334277838469
0.292182385921
0.233493611217
0.62533134222
0.313981115818
0.741821169853
0.544712901115
-0.0418244637549
0.139546722174
-0.399626523256
0.0858057662845
0.0529264882207
-0.0770669877529
-0.234028995037
-0.0854291245341
0.105422414839
0.165611624718
0.0299283079803
-0.417837142944
0.0310618653893
0.0466648861766
-0.628692030907
0.25672519207
-0.313224703074
0.244724914432
-0.0827220752835
0.0218311604112
-0.259031325579
-0.318354815245
0.534575402737
0.295020133257
0.475036740303
0.417900323868
-0.032581243664
0.136690407991
0.599537193775
-0.527731060982
0.472880989313
0.983619868755
0.306897521019
0.381534427404
-0.16984307766
0.368815690279
-0.384177416563
0.313037544489
0.00634115561843
0.602503120899
0.731757879257
0.0325980149209
-0.0138820763677
-0.485019385815
0.123452521861
-0.294945716858
0.0115199787542
0.513899624348
-0.198087245226
0.204593256116
0.332041412592
-0.187697842717
0.220653861761
0.0134172253311
0.727029979229
0.68747484684
-0.0972556993365
0.278515517712
0.227263763547
0.769078791142
0.141415044665
0.259709507227
-0.232985541224
0.236715823412
-0.381513059139
0.181142047048
-0.593882083893
-0.389407426119
-0.216589272022
-0.012329400517
0.0886666625738
0.223831161857
0.0851137861609
0.169565066695
-0.723000049591
0.482035130262
-0.143757626414
-0.608989059925
0.379058092833
-0.199841246009
-0.0974984914064
0.109295919538
1.01001763344
0.0835498124361
-0.994349181652
0.331122070551
0.312596082687
-0.0366637483239
-0.413324952126
0.272770047188
0.145419448614
0.436038374901
-0.735908448696
0.114138118923
-0.086005397141
-0.254056870937
-0.2524484694
-0.183122381568
-0.395952045918
-0.444546699524
-0.679291725159
-1.15466284752
-0.300324082375
0.190977886319
0.0555625855923
-0.427801191807
-0.205806925893
-0.449188560247
-0.438670665026
-0.574990153313
-0.196877330542
-0.161862030625
-0.0543765686452
0.31663647294
-0.346136212349
-0.105198264122
-0.272605776787
-0.964063107967
-0.87847507
0.49976465106
0.167991176248
-0.197752013803
0.0960034281015
-0.734456717968
-0.425848603249
0.0118348756805
-0.300575911999
0.143455371261
-0.364840596914
-0.369015485048
-0.517813444138
-0.218404322863
0.0287601649761
-0.272784620523
0.406573086977
0.34452521801
0.404345035553
0.275622576475
0.358558267355
0.116320155561
0.587801098824
0.394543081522
-0.426511734724
-0.779979944229
-0.0552240759134
-0.277864605188
0.459482640028
0.220174714923
-0.368762612343
-1.05560934544
-0.2590752244
-0.349155962467
-0.774546742439
-0.400942534208
-0.611032307148
-0.19515787065
-1.08036530018
-0.137436464429
-0.459358781576
-0.749949336052
-0.563522875309
-0.124851860106
0.493766874075
0.154078423977
-0.494944930077
0.628963112831
0.223292559385
-0.451347738504
-0.4131962955
0.167733579874
0.298066556454
0.164812982082
-0.597103178501
-0.508188247681
0.206083282828
-0.387945652008
0.140117019415
-0.0315920487046
0.0124648399651
-0.463433176279
-0.968984603882
-0.477411985397
0.410059124231
-0.455454528332
0.420811772346
0.28419560194
0.0944047272205
0.167799159884
-0.0355590172112
0.737740933895
-0.116009578109
0.723238646984
-0.179198250175
-0.306178182364
-0.325315058231
-0.172664806247
-0.230934768915
-0.0880729630589
-0.165372774005
0.381759256124
-0.253899633884
-0.169002175331
0.0925492569804
-0.448603242636
-0.319541066885
-0.547422230244
-0.643425881863
-0.404961019754
-0.551745176315
-0.00741259008646
-0.199180364609
-0.898312151432
-0.0262167397887
0.357863217592
0.276568233967
0.0463120751083
-0.0856677591801
-0.617417871952
-0.185936957598
1.44659364223
0.289054304361
0.0809206366539
-0.381450414658
0.0798643603921
0.0943464264274
-0.394579559565
0.677030086517
0.647021651268
0.282120466232
-0.137674808502
-0.0197474062443
-0.0210336968303
-0.0862282142043
0.410464793444
0.299741744995
-0.400025129318
0.448421508074
0.0621527768672
0.113560684025
-0.187209576368
-0.0266361273825
0.109289981425
0.480916798115
0.18404327333
-0.0725031420588
0.901637434959
-0.0744014009833
-0.115164361894
0.348686873913
0.039292268455
0.251343011856
0.253134191036
-0.301265358925
-0.247592896223
-0.642677724361
-0.112471237779
-0.489290446043
-0.654736042023
-0.458315640688
-0.225862279534
-0.907600045204
-0.215251728892
-0.415191024542
-0.502407312393
0.0619763284922
-0.138718232512
-0.773634552956
-0.174082070589
-0.384667128325
-0.461016207933
-0.347625404596
-0.250834912062
0.321042925119
-0.44017714262
-0.458436310291
-0.0945098176599
-0.00983147136867
0.00492554111406
0.0611428022385
0.311109930277
-0.0639117136598
-0.460196077824
1.2225767374
0.911599695683
0.483836531639
1.06452429295
0.530033171177
0.573624670506
0.417090237141
0.588069021702
0.0823470652103
0.49864205718
0.395713031292
0.226148590446
0.634184241295
0.458369463682
0.197923824191
0.168619453907
0.40208119154
0.455686181784
0.841087579727
0.471894204617
0.0240477938205
0.486700028181
0.067092910409
-0.00909602362663
0.147531479597
0.664137244225
0.633962869644
0.734018683434
-0.0402683764696
0.147940084338
-0.0443244241178
-0.546075880527
-0.385997116566
0.0838049203157
-0.267677932978
-0.245274037123
-0.294072061777
-0.255296975374
-0.250910937786
-0.25755533576
-0.29294615984
-0.476936906576
-0.596470057964
-0.177655935287
-0.913998842239
-0.481787204742
-0.414017289877
0.412849962711
-0.435657680035
-0.491967260838
0.368510037661
0.155549407005
0.37164068222
0.791856706142
0.463168650866
-0.543015360832
0.433507114649
0.248466700315
0.333185791969
0.299105495214
-0.102640420198
-0.450237125158
0.00515875592828
-0.402660667896
0.203416436911
0.304779291153
0.236695572734
0.495935678482
0.205792248249
-0.0311839263886
-0.158818274736
-0.0782741457224
0.24093875289
0.248547911644
0.0481781437993
0.247064396739
-0.47438159585
0.649924814701
0.162998437881
0.385694116354
-0.372541189194
0.219886302948
0.804547190666
-0.320612937212
0.294132143259
0.145098134875
0.139314219356
0.302184969187
0.320676416159
0.224352538586
0.12300632149
0.280276447535
0.820847511292
-0.233950689435
0.661080002785
0.514640688896
0.38487559557
-0.161674663424
0.212794065475
-0.249077156186
0.199785843492
0.0142689868808
-0.511888086796
-0.015802135691
-0.529053688049
-0.462591826916
-0.186719343066
-0.513849079609
0.0296314563602
0.236359268427
0.00740121863782
-0.281488388777
0.0708006992936
-0.322385311127
-0.0142289875075
-0.15481634438
-0.514059901237
0.0470819212496
-0.195922210813
-0.12287196517
-0.313789576292
-0.276197135448
-0.0782673433423
-1.13152039051
-0.762860774994
-0.329046279192
-0.569782137871
-0.283122569323
-0.525095164776
-0.317441999912
-0.147673428059
-0.0132120326161
0.223396077752
-0.626853764057
-0.103637449443
0.0806702747941
0.329908847809
-0.722493112087
0.232930719852
-0.038609597832
0.2374009341
-0.422823280096
-0.34755563736
-0.105834245682
0.197306066751
0.445745050907
0.236003547907
0.569245040417
-0.254807800055
-0.294130593538
0.243518784642
0.403036028147
-0.347634583712
0.436676174402
0.332535594702
0.285809218884
0.284949064255
0.20830360055
0.56360411644
0.653630793095
0.120561875403
0.255989342928
0.742011964321
0.0767048373818
0.489310324192
-0.0687330663204
0.669172465801
0.119801908731
0.17709620297
-0.013409646228
-0.263102531433
-0.0460982099175
-0.369538128376
0.286069750786
-0.0356360822916
-0.337248027325
-0.632866322994
-0.768788337708
-0.664736449718
-0.339435279369
0.160615593195
0.39910697937
0.199837103486
-0.236914753914
0.218670204282
0.0956361219287
0.402972757816
-0.14511552453
-0.406820416451
0.350755572319
0.352487504482
0.451536357403
0.259317368269
0.374739438295
0.432450354099
0.212250739336
0.10144431144
0.58190870285
0.391868829727
0.63701158762
-1.06335318089
-0.395699799061
-0.585702419281
-0.449933558702
-0.148271903396
-0.0657992959023
-0.800541639328
-0.120638266206
-0.283240824938
-0.168046608567
0.187704026699
-0.155286937952
-0.357988864183
-0.342461109161
-0.316831827164
-0.371555477381
-0.870246350765
0.169585838914
-0.561308681965
-0.258610635996
-0.708063423634
-0.919912159443
-0.382721990347
-0.515385627747
-0.666545391083
-0.670931458473
-0.553317725658
-1.24255037308
-0.216222837567
-0.20618018508
-0.961710453033
0.7123234272
0.00680487789214
-0.033219691366
0.26378518343
0.71613997221
0.273712366819
0.169347345829
0.92651450634
0.002909546718
-0.0115212313831
0.0505422726274
-0.497032105923
-0.0425548516214
-0.102964892983
0.422648847103
-0.245566278696
-0.102844163775
0.163945943117
0.589527666569
0.0120020657778
-0.0887045636773
-0.4026055336
-0.602501273155
0.279788374901
-0.0122556043789
-0.673536241055
0.00934960413724
-0.254550218582
-0.294266432524
0.342629671097
-0.0334871076047
-0.502901017666
-0.913544356823
0.135933920741
0.333834528923
-0.348567903042
0.494889199734
-1.17369878292
-0.386496901512
0.478416025639
0.32642686367
0.424318820238
0.622900009155
0.298776894808
0.173461645842
0.274271339178
0.694454967976
0.405867367983
0.699189484119
-0.850093245506
-1.05072391033
-0.100068934262
-0.642675042152
-0.709315538406
-0.906747281551
-1.34053063393
0.135564640164
-0.542509019375
-0.550525605679
0.454189956188
0.0530266836286
-0.228623256087
0.113044813275
-0.131095930934
0.157817512751
-0.200596675277
-0.0855780094862
-0.0579448789358
-0.133873730898
0.0366548672318
-0.261676877737
-0.378423452377
0.39578962326
-0.152066156268
-0.76952958107
-0.384292662144
0.164912343025
-0.111288532615
0.0296197216958
-0.546161353588
0.740519702435
0.530879735947
0.39059779048
0.660649180412
1.37317824364
0.117579005659
0.303142756224
0.644421756268
0.623101890087
0.195697769523
0.161801993847
0.387022823095
0.0623121075332
-0.372232586145
0.146408945322
0.245187297463
-0.618457973003
-0.0308737438172
0.400561600924
0.0640056580305
-0.335874021053
0.351078301668
0.214233189821
0.0668203532696
-0.192137956619
0.0816754177213
-0.757590711117
0.0554236881435
-0.16448508203
-0.247382208705
0.0178295392543
0.219012722373
0.0101113412529
0.283297777176
0.185620605946
0.353719502687
-0.179765194654
0.310463160276
0.438557177782
-0.426078170538
-1.00155472755
-0.818558871746
-0.85183942318
-0.392136335373
-0.62885850668
-0.748182892799
-0.36975941062
-0.335922807455
-0.421782821417
-0.162054464221
-0.154522627592
-0.159265503287
-0.399614602327
-0.439109921455
-0.15094615519
-0.284019708633
0.191866263747
0.00119261443615
-0.727142632008
0.232038721442
-0.515467882156
-0.378432333469
-0.32247236371
-0.0737132504582
0.371225982904
0.0484989657998
0.202997386456
0.157226383686
0.184137612581
-0.510874807835
-0.048278350383
-0.0254393927753
-0.0162113811821
0.00702357059345
0.407901138067
0.204561248422
0.605266213417
0.111578404903
-0.0241726338863
0.00302708172239
0.727850615978
0.198465421796
0.56749099493
-0.169544622302
-0.5155839324
0.0656936913729
1.42666387558
0.610689818859
0.647579371929
0.316118508577
0.336658328772
0.378951877356
0.255288243294
0.342633277178
-0.353458940983
-0.155021205544
-0.0792893543839
0.201911881566
0.08018309623
0.575563192368
-0.0264418981969
-0.339364737272
-0.112321302295
-0.442088872194
-0.475007683039
-0.0412788167596
-0.455378234386
-0.46327444911
-0.0845314413309
-0.266529500484
-0.266316026449
-0.293389678001
0.243541404605
-0.147906303406
-0.266213357449
-0.371122598648
-0.154041364789
-2.29968357086
-0.303900271654
0.158494010568
-0.923574745655
0.258801281452
-1.00554203987
0.0728969275951
-0.100340805948
-0.115969412029
-0.710776269436
0.156572490931
0.0155549105257
0.0850316658616
0.407178640366
-0.445527613163
0.396557837725
-0.00459311436862
0.262045323849
0.217386066914
0.110787406564
0.30809879303
0.406104683876
-0.13338008523
-0.104223363101
0.414681255817
-0.291474342346
0.221275568008
0.40435898304
-0.0770296677947
0.0558483488858
0.432207494974
0.172402620316
-0.0273209754378
-0.526974380016
-0.265725284815
-0.324156492949
-0.298506706953
0.297997266054
-0.0591312870383
-0.291051089764
-0.361691266298
0.116731390357
0.405036509037
0.409051328897
-0.132390648127
0.225146844983
-0.00387805164792
0.269528746605
0.0338365137577
-0.172699719667
0.0433114171028
-0.123864777386
-0.600639939308
-0.13645260036
-0.464615732431
0.264967918396
-0.384755730629
-0.0895503386855
-0.109268210828
0.113211080432
-0.155367806554
0.349881708622
-0.730509102345
-0.296728849411
0.144448116422
-0.694485127926
0.28218755126
-0.102271653712
0.35790514946
-0.451457351446
-0.79571801424
-0.0503014810383
0.190027520061
0.599242389202
-0.205507457256
0.416894495487
0.0587654858828
0.445659339428
0.521692454815
0.305932641029
0.500584363937
0.0675536766648
-0.143216282129
1.02735996246
-0.365417718887
-0.980055987835
0.684108912945
0.576728641987
0.542382895947
1.08889961243
-0.730238258839
-0.535833120346
-0.818028628826
-0.20859785378
0.284062713385
0.24533598125
0.0352408103645
-0.554158806801
-0.0571269467473
0.642222583294
-0.206481769681
-0.628503739834
-0.479250848293
-0.0544651970267
-0.978955864906
-0.059027466923
-0.791146159172
-0.499420017004
-0.603022992611
-0.00207577832043
-0.717144191265
-0.109183810651
-0.65653270483
-0.0730495750904
-0.272852659225
-0.666741847992
-0.1415938586
0.153697147965
-0.0411378443241
-0.964473307133
-0.446421295404
-1.01385700703
0.100141555071
-0.761352598667
-0.105580560863
-0.285902440548
-0.0905393585563
0.224797576666
0.0362848863006
-0.144645631313
-0.299896419048
-0.0874112769961
0.25700673461
0.196956127882
0.186080947518
0.109369620681
0.0980272442102
-0.29767921567
0.0173936430365
0.0175970364362
0.0568955093622
0.124097816646
-0.216409370303
0.107238054276
-0.298283457756
-0.083132609725
-0.227840185165
-0.599684655666
-0.150424897671
-0.193351387978
-0.392160058022
0.114642389119
0.0721998140216
-0.253621220589
0.15712685883
-0.446511954069
-0.139495968819
-0.32891780138
0.224387079477
-0.314223706722
-0.117559760809
-0.0426981337368
-0.51313585043
-0.584266841412
-0.374071329832
-0.521228671074
-0.185209542513
-0.100093990564
-0.981914043427
-0.278493106365
-0.116486079991
-0.556752502918
-0.112001672387
-0.898972213268
-0.142885610461
-0.116210661829
-0.181999951601
-0.360805928707
-0.172859638929
0.00315765477717
-0.31478741765
-0.651510357857
0.19885212183
0.0393137894571
0.323515534401
-0.275980830193
-0.187919124961
0.504207372665
-0.128734081984
0.345445930958
0.632134377956
-0.120420455933
-0.142896071076
-0.27185100317
-0.234756305814
0.0522540211678
-0.321938097477
-0.366382390261
-0.30011382699
-1.11573803425
-0.471627414227
-0.169199332595
-0.0768152400851
0.00721308775246
-0.0639232546091
0.764369666576
-0.243632763624
0.834498047829
0.0373770073056
-0.310754686594
0.372913360596
0.217049986124
-0.188825413585
0.227077662945
0.426931262016
-0.201235115528
0.525234758854
0.0458893440664
0.681900024414
0.261581301689
0.159676849842
0.287740141153
-0.561130046844
-0.50737786293
0.201499685645
-0.547434568405
-0.181778997183
0.0587645433843
0.550173819065
-0.353119373322
0.249697953463
-0.00283485278487
-0.0952799022198
-0.420274555683
0.127564832568
-0.0155012924224
0.10278454423
0.0974146947265
0.168546900153
0.0913427993655
-0.147064134479
-0.644999027252
0.179732233286
0.542842626572
0.287480920553
-0.069681674242
0.397552371025
0.19333101809
0.586351275444
0.597233235836
0.569414377213
0.271399110556
-0.457944452763
-0.272312521935
-0.295563071966
-0.600877523422
0.172481998801
-0.246050879359
-0.655246019363
0.00457499176264
-0.266591727734
-0.481167703867
1.01264798641
0.291632682085
0.189198195934
0.325714111328
0.576954782009
0.476946085691
0.586991906166
0.508941233158
0.511362373829
0.0776498168707
0.279196590185
0.0414111837745
0.0297079179436
-0.677164256573
0.166489720345
0.287348121405
0.0785961821675
0.207463949919
0.129744812846
0.532105743885
-0.0899725481868
0.170813128352
0.205421090126
0.254849612713
-0.00113036599942
-0.0613399967551
-0.0135443303734
-0.029153380543
0.00648693740368
-0.166851222515
0.225410595536
-0.198785841465
0.362659811974
0.308006852865
0.166065037251
0.120469130576
0.1133858338
-0.300976902246
-0.110380485654
-0.142905011773
0.273961484432
0.341478198767
0.190394982696
0.761038064957
0.56901550293
0.452804327011
0.16052184999
0.202180251479
-0.324142873287
0.603575885296
0.0873207002878
-0.560922503471
-0.300413161516
-0.378083318472
-0.404511332512
0.0672149583697
-0.218327611685
1.0388739109
0.0867177024484
0.227384477854
0.328314483166
0.249265834689
0.174456492066
0.580352604389
-0.216212615371
0.246946319938
0.140005961061
0.233504191041
0.512850940228
0.529661655426
0.174313694239
-0.198745414615
-0.237768352032
0.0954969897866
0.646912753582
0.250054240227
-0.160145550966
0.523430526257
0.570045888424
0.578590214252
-0.0631945803761
0.590352773666
-0.356698900461
0.153990387917
-0.511445522308
-0.335734039545
-0.32384377718
-0.202738136053
-0.542270720005
-0.369550287724
0.576983988285
-0.717749655247
-0.248531728983
-0.0311478879303
-0.215154692531
-0.350987583399
-0.133853018284
0.00329712056555
0.113413497806
0.322683185339
0.372897237539
0.021068520844
0.140534952283
-0.0598196424544
0.0444955229759
-0.0228478834033
-0.0482350960374
-0.0521867200732
0.351776331663
-0.0397479124367
-0.0224738046527
0.266764521599
-0.21982370317
-0.144089952111
-0.288874208927
0.146460533142
-0.232715308666
-0.184129118919
-0.0691258460283
0.149312421679
1.2617726326
-0.460094690323
0.562049388885
-0.454724252224
0.469582438469
0.150622621179
0.585687696934
-0.249115020037
0.218109637499
-0.698113560677
-0.178232654929
-0.66677314043
-0.115564912558
-0.453327953815
-0.164010509849
0.18881508708
0.334196150303
0.297926545143
-1.07106494904
-0.122468337417
-0.166109964252
0.285195946693
0.00305132381618
0.516630589962
-0.454839348793
0.634951412678
0.00912834238261
0.0787233859301
-0.0775344073772
0.300523579121
-0.317306101322
-0.154208004475
-1.10649359226
-0.327402800322
-0.975876331329
-0.313448637724
-1.20601391792
-0.524938881397
-0.504357635975
-0.627533257008
0.0734784454107
0.860494732857
0.297641932964
0.369888216257
0.98314422369
0.486151307821
0.182200059295
0.448625445366
0.29217004776
0.0163864716887
0.320455938578
-0.00961458962411
-0.0287710633129
-0.169282242656
0.788339853287
0.439367324114
0.0341338217258
0.302949011326
-0.283392071724
-0.064078643918
0.181870296597
-0.18466873467
-0.165824592113
0.216891810298
0.18457339704
-0.140443518758
0.088013343513
0.397398650646
0.163067653775
-0.118463508785
-0.732736229897
-0.174544647336
0.202458918095
-0.116611763835
0.265560239553
0.402312517166
-0.453095793724
0.49374550581
-0.0504619032145
0.525434195995
0.379674613476
-0.131355687976
0.133990585804
-0.205750480294
-0.217415928841
0.686580896378
0.58967423439
0.58241635561
0.477073013783
-0.363163650036
-0.532963871956
-0.213271468878
0.376471370459
-0.094348654151
-0.651424467564
-0.804717063904
-0.0150080770254
0.626870036125
0.386910974979
0.270350515842
-0.0152933774516
0.160351037979
-0.0422859564424
0.172178402543
-0.204225599766
0.168417915702
0.153042152524
-0.122835963964
-0.0022739500273
-0.141439408064
0.229840740561
0.0581703111529
-0.309630185366
0.289091259241
0.349682241678
0.385860413313
0.123005717993
0.231536746025
0.576420426369
0.226612433791
0.0509250797331
0.277549117804
-0.197185382247
0.130126446486
-0.11711101234
-0.132822036743
0.228569701314
0.278548836708
-0.375018179417
0.15162076056
-0.70867317915
0.418303728104
-0.172316744924
0.42599773407
-0.747507512569
-0.521992564201
0.425645083189
0.409917056561
0.0840273499489
0.712380111217
-0.491417735815
0.0726119950414
-0.307994276285
-0.652339994907
-0.0841896682978
0.163392215967
-0.199737742543
-0.385264843702
-0.776920199394
-0.255168020725
-0.0570263750851
-0.770680606365
-0.822499036789
-0.306980282068
-0.752360641956
-0.638327777386
-0.51580965519
-0.853517770767
-0.403280794621
-0.615931749344
0.300877928734
0.330364704132
0.264889895916
0.476271867752
0.413833707571
0.0426120571792
0.290540009737
0.192488074303
0.63341486454
0.90593200922
0.0470676161349
-0.548102140427
0.600127756596
0.313506454229
0.401816397905
-0.241515770555
-0.398910939693
0.0825773924589
-0.658839225769
-0.0574401021004
-0.119395762682
0.0933575332165
-0.181171342731
-0.182067245245
-0.192307561636
-0.447994202375
-0.0653178095818
-0.321884810925
-1.1583596468
-0.0493739433587
0.452667564154
-0.303279995918
-0.849652826786
-0.641681194305
-0.706796169281
-0.350571006536
-0.3058167696
-0.167194515467
-0.345204919577
-0.184764027596
0.404346704483
-0.403332740068
-0.552731513977
-0.152664572001
-0.168449297547
-0.550406396389
-0.476541638374
0.268219262362
0.358352392912
0.029823962599
0.777386188507
0.683835864067
0.586684346199
0.138986036181
0.270601719618
0.65174728632
1.17224097252
-0.318847298622
0.273163825274
0.201603159308
-0.0696235969663
0.312854617834
0.279872626066
-0.0348224528134
-0.435104966164
-0.132314294577
0.0287392474711
-0.160997375846
-0.208007067442
0.0731413140893
-1.04700517654
0.0658956319094
-0.20851251483
0.0670794174075
0.258690357208
0.502393007278
0.461096346378
-0.882813751698
-0.331449329853
-0.616833209991
0.102015510201
0.0889599099755
-0.221385002136
-0.147316455841
0.269516736269
-0.114909380674
-0.125679939985
-0.04596093297
0.288200438023
-0.628307878971
-0.808339655399
-0.633016169071
-0.834220349789
-0.458146512508
-0.363392531872
-0.39246186614
0.0486109592021
-0.480342030525
-0.793276369572
-0.915759503841
0.257934212685
0.487866401672
0.327737867832
0.608062565327
0.452889919281
0.430406838655
0.634712338448
-0.362238973379
0.226691558957
-0.0900475084782
-0.670297384262
0.223895579576
-0.169859558344
0.176387056708
-0.347063183784
-0.0890344455838
0.167956382036
-0.279808789492
-0.481714367867
0.191823348403
-0.0684982016683
-0.0549174956977
0.238467469811
0.325372993946
-0.146042332053
-0.0643872916698
-0.259605884552
-0.427750915289
-0.265695810318
0.299662739038
-0.126791149378
0.239861562848
-0.78642976284
-0.233634471893
-0.492447972298
-0.806853532791
-0.629023134708
0.104005306959
0.214998483658
-0.0714442804456
-0.00717069581151
-0.648147344589
-0.704506576061
-0.446322590113
-0.207039430737
-0.936645746231
-0.658538103104
-0.826927304268
-0.0747517794371
-0.558000445366
-0.0543384850025
-0.621191442013
0.245778381824
-0.306535571814
-0.725731253624
-0.50959277153
-0.109345406294
1.06668508053
0.70429110527
-0.359538376331
0.646893203259
0.493797272444
0.144932121038
0.287739396095
0.426123023033
0.392566472292
0.377637594938
1.01177239418
0.791236877441
0.455698043108
0.0347752869129
-0.508893787861
0.116160660982
-0.118617482483
-0.13347838819
-0.569205462933
-0.068405367434
0.445369631052
0.299175828695
-0.278421461582
-0.354712426662
-0.416219085455
0.163744151592
-0.839571416378
0.373809546232
0.0530463829637
0.428736120462
0.529950499535
-0.341211646795
-0.393674850464
0.511715173721
0.201621562243
0.338228553534
-0.131652787328
0.302958011627
0.0241929348558
0.302237302065
0.0157705768943
0.403250843287
0.062788978219
0.237150862813
-0.188589036465
-0.176009550691
-0.338859468699
0.038461856544
-0.00956454314291
0.153111085296
-0.103039883077
0.221398159862
0.0628743097186
0.231035560369
-0.150454357266
-0.0935941115022
0.143093496561
-0.0765259712934
-0.0205086935312
-0.233769536018
-0.301437139511
-0.247434481978
0.0623640343547
-0.363891452551
0.364935278893
0.0722485855222
0.0226324349642
0.29030033946
0.139870345592
-0.117566198111
0.00323732639663
0.504186213017
-0.0413885973394
0.0320930108428
0.208600759506
0.447802990675
0.317266851664
0.0384209863842
-0.27173435688
0.522963523865
0.420358777046
0.243356272578
0.223999798298
0.268085807562
0.229033321142
0.514949262142
0.255760610104
0.545850038528
0.187227189541
0.258549004793
0.322413951159
0.240035712719
0.119681492448
0.24271979928
-0.22038769722
-0.178996026516
-0.332665801048
-0.0437123812735
-0.137382119894
-0.172728255391
0.159666821361
-0.0351704508066
-0.378302067518
-0.369976490736
-0.731203854084
-0.360865831375
-0.495624125004
-0.386900156736
-0.249381229281
-0.253219246864
-0.637435019016
-0.67654800415
-0.501992881298
0.0810244679451
0.694833219051
-0.414945691824
0.55369335413
0.414567351341
0.683078885078
-0.187810316682
0.931371867657
-0.26321336627
-0.0460349880159
-0.118360303342
0.750990450382
0.199819669127
0.833807826042
-0.00906064268202
0.598345518112
0.707454025745
0.357067853212
-0.176231011748
0.768111109734
0.450817018747
-0.20171880722
-0.316704362631
0.00491163600236
-0.276385217905
-0.0148122785613
0.0767977163196
0.25686827302
0.0987964048982
0.475796848536
-0.031201550737
-0.574151515961
-1.17549216747
-0.428563296795
-0.802605807781
-1.04336118698
-0.453309416771
-0.83618491888
-0.26755464077
-0.679068803787
0.0887966901064
0.37493622303
-0.159322217107
-0.0701227560639
-0.267230242491
-0.1243962273
0.564413607121
-0.279429167509
-0.279960513115
-0.299286812544
0.0913897678256
0.195155933499
0.513512969017
-0.346428781748
0.201468363404
0.0803652107716
-0.109470315278
0.17062202096
0.125883817673
-0.382574677467
-0.388887465
0.299267560244
0.17270450294
0.0411392338574
-0.0937595516443
0.528477728367
-0.262904763222
0.198605179787
0.215250790119
-0.047994479537
0.137643828988
0.348011374474
-0.159328341484
0.0832048356533
0.492806196213
-0.000286566995783
0.243408158422
-0.368986129761
0.15758278966
0.158117666841
0.295630693436
0.761982679367
0.258958756924
0.764696955681
0.110306344926
0.177770733833
-0.189419597387
-0.579780459404
0.363272160292
0.352760046721
0.302132964134
0.120583124459
-0.602576375008
-0.187045991421
0.0935180783272
0.00347540341318
0.0594603642821
0.314666420221
0.209004148841
-0.0351249277592
0.0516517013311
0.120802685618
-0.0714813768864
0.463242679834
-0.550888717175
-0.216960608959
-0.367376744747
-0.38437384367
-0.228970989585
-0.327069759369
-0.21633683145
-0.212867751718
0.031210437417
0.545954942703
-0.323341935873
0.409681916237
-0.21426615119
0.775056123734
-0.19292780757
-0.360246658325
0.0538939237595
-0.459614664316
-0.199826478958
-0.297476828098
0.0944067537785
-0.239244908094
0.355680733919
0.413316696882
-1.19555306435
-0.0368327386677
-0.0441350378096
0.503240525723
-0.26817959547
0.258342295885
0.0654008984566
0.38632786274
0.241324782372
0.0250274743885
0.571255803108
0.315869212151
0.181483253837
0.0511849448085
0.126221686602
0.215568065643
0.137733489275
0.250438094139
0.133270859718
0.0904898196459
-0.0131244668737
0.166821718216
-0.5070489645
-0.0861101895571
0.770980298519
0.103792928159
0.300942093134
-0.497160434723
0.0919637978077
-0.604228436947
0.40139400959
0.163176432252
0.667646348476
0.0973824560642
0.629905939102
0.146500408649
0.518076062202
-0.143655538559
-0.307029336691
0.698664546013
0.0898781716824
-0.444260179996
-0.0960118025541
-0.241555124521
-0.0803809762001
-0.415371507406
0.0770122110844
-0.108611911535
-0.256676346064
0.488135784864
0.0192333757877
-0.909661829472
-0.1440679878
-0.354301691055
0.0616778209805
0.168988958001
-0.0403136573732
-0.738898277283
-0.401921570301
0.0631234794855
0.252644121647
-0.0363565385342
0.012437870726
0.66645616293
0.467545092106
0.841287314892
0.270212054253
0.39336296916
0.243063032627
0.346657216549
0.714108467102
0.0821087658405
-0.65786075592
0.0204194169492
-0.225545227528
-0.453884333372
-0.412150323391
-0.257954597473
-0.11585213989
0.105651147664
-1.02241456509
0.015282811597
-0.355820566416
-1.05519390106
-0.105951264501
-0.139580771327
0.0747657343745
-0.496557146311
0.407908767462
0.229735046625
0.340451270342
-0.101649165154
-0.0250936001539
0.222364380956
-0.166817113757
-0.397216200829
-0.954817116261
-0.203053489327
0.0190489925444
0.50824546814
-0.330123513937
0.329639434814
0.90054666996
0.831741392612
-0.107656851411
0.0416682958603
0.0876296758652
0.653186500072
-0.316455036402
-0.263136565685
0.057956751436
0.0840036198497
-0.133757919073
-1.42317473888
-0.785588860512
-0.577118456364
-0.805962026119
-0.866143703461
-0.794013559818
-0.702642261982
-0.50285422802
-0.437047719955
0.235918134451
0.446790456772
0.0497433878481
-0.0242851544172
-0.341472744942
0.31758877635
0.151601061225
-0.354037821293
0.487750977278
0.142963975668
0.175681918859
0.0501727759838
-0.172912180424
-0.393641024828
0.458615124226
0.00352137675509
-0.182807460427
-0.0741693302989
-0.100556395948
-0.442302167416
-0.724188148975
-0.192790463567
0.0926445126534
-0.0645605921745
-0.186634168029
0.109400957823
0.482849061489
-0.0126773435622
-0.206709757447
0.137365326285
0.0867944806814
0.215048491955
0.885706305504
0.0173981674016
0.530038297176
0.0781871527433
0.331211388111
0.192705750465
0.694616675377
0.154812946916
0.414117783308
0.304825365543
-0.0299198105931
0.52695286274
0.0818678885698
-0.174521490932
0.178735807538
-0.100071787834
0.389912098646
0.463764071465
0.18034414947
-0.0434834174812
-0.170772403479
-0.828469395638
-0.138024717569
-0.400930315256
0.242436930537
0.0192138534039
0.0169128738344
-0.301312953234
-0.579590678215
-0.470886588097
0.151916712523
-1.11019396782
-0.636033773422
-0.182397529483
-0.201485857368
-0.152370840311
-0.517044126987
-0.55044734478
0.33051738143
0.119151182473
-0.0656171068549
0.364033311605
-0.242866009474
-0.865176200867
0.0158551409841
0.339391946793
-0.504631876945
-0.00357572478242
0.0544788688421
-0.0616324804723
0.551472485065
0.512641966343
0.186783999205
0.315797865391
0.36221319437
-0.0108547070995
0.352058082819
0.953410506248
0.527450323105
0.227917909622
-0.254032313824
0.300001174212
-0.126690268517
-0.00192720105406
-0.380793780088
0.185207292438
-0.0587967932224
-0.573870003223
0.565529346466
0.869391739368
0.422984063625
0.5518887043
0.756409347057
0.29314109683
0.642393052578
0.309959799051
0.74191480875
0.221384242177
0.335227459669
-0.0587154254317
0.352897286415
0.330288171768
0.626440048218
0.759318649769
0.62174654007
0.550682127476
0.24163839221
-0.115762926638
-0.696168363094
-0.152293905616
-0.0378503724933
-0.214924246073
-0.323208540678
-0.738449454308
-0.555454194546
-0.226402536035
-0.50903570652
-0.383742034435
-0.602975904942
-0.662820696831
0.596868932247
-0.995935022831
0.667004883289
0.542884230614
-0.219472914934
-0.898498654366
-0.141977101564
-0.660020411015
-0.290405452251
0.270370066166
0.267730146646
0.0728088319302
0.840034782887
0.853342473507
0.359789043665
0.0779950469732
0.0917093679309
-0.0452870503068
-0.128023937345
0.0910611152649
0.0426087528467
-0.222652122378
0.340548634529
0.079745747149
0.242626264691
-0.109185799956
-0.0680913031101
-0.308480173349
0.428440123796
0.500386476517
0.577799201012
0.434978067875
0.163608342409
0.233206197619
0.422659397125
-0.0565622746944
0.531130731106
0.781098484993
0.283504843712
0.183821618557
0.618905067444
-0.0188192129135
0.180156424642
-0.171240746975
0.381506621838
-0.370773255825
0.585228383541
0.400174081326
0.254416972399
0.32325771451
-0.01675016433
0.0333684310317
-0.231009677052
0.185059383512
-0.240276008844
-0.168261215091
0.124880664051
0.172385826707
-0.304553985596
0.57049793005
0.102824673057
0.229178398848
0.266242414713
0.615616798401
0.582327604294
0.809965491295
-0.448012143373
0.0239239875227
0.0965136736631
-0.537389874458
0.0101238321513
-0.00880938302726
-0.235535487533
-0.46501198411
-0.476984232664
-0.367843955755
0.00364383775741
-0.414580732584
0.40172368288
0.494328856468
0.354248613119
0.668604135513
0.212402492762
0.205653443933
0.147464871407
0.144344985485
0.0770874321461
0.145345285535
-0.261188030243
-0.467103302479
-0.365376085043
-0.554032027721
-0.428150892258
-0.349230736494
-0.467746675014
-0.43063262105
-0.0172110963613
0.0921228080988
0.696532964706
0.253051817417
0.0901833847165
-0.117723882198
0.310482740402
0.61633169651
-0.254540205002
-0.0865548029542
0.146546572447
0.315149962902
-0.240150824189
0.422939658165
-0.129643246531
-0.0999586954713
0.214572742581
0.108598925173
-0.0843770056963
-0.142578795552
-0.248058229685
-0.140424773097
-0.193146958947
0.3810326159
0.0925598293543
-0.240941762924
0.340493112803
0.00743909506127
0.0261973384768
-0.221391797066
0.374956548214
-0.025160562247
-0.329504162073
0.175268024206
0.0823950394988
-0.421112537384
0.435884177685
0.541077613831
0.418455034494
0.17309807241
0.660938262939
0.196518316865
0.0517935566604
0.0477169640362
-0.0355772785842
-0.342585742474
0.042630571872
0.00208428734913
-0.00853668991476
-0.343656092882
-0.410460531712
-0.317433685064
-0.353658437729
0.287489116192
-0.687084376812
0.0448468141258
-0.329236596823
-0.238302990794
-0.0113942781463
-0.0992063358426
-0.0638897866011
0.163338854909
-0.604598164558
0.194329544902
0.102401517332
-0.671344995499
-0.0167216230184
0.386556386948
-0.86118221283
-0.0680164769292
0.15221196413
0.133326902986
0.412136852741
0.0366813838482
-0.35773307085
0.0573433376849
-0.128090754151
-0.245111420751
0.398823589087
-0.261025309563
-0.0990317761898
-0.0714011564851
0.59569299221
0.480178385973
0.265616565943
0.0486399643123
0.719155788422
0.221297964454
0.281244307756
1.16558170319
-0.516075193882
0.553494870663
0.0471165552735
-0.470160335302
-0.376384109259
-0.245250701904
0.220049545169
0.348196744919
-0.405629903078
-0.180145800114
-0.597610473633
-0.286264032125
0.427586257458
0.264081597328
-0.294779151678
-0.0529773943126
-0.539261758327
-0.175456896424
0.119768582284
0.231196537614
0.520356178284
-0.0379176028073
1.04537963867
0.419763624668
-0.542214751244
0.33528637886
0.366947054863
0.444888591766
0.180095240474
1.16364955902
0.339634716511
0.289597004652
0.00980806536973
-0.666757285595
-0.0869095101953
0.31755527854
-0.177568018436
-0.556264400482
-0.843840360641
-0.292237877846
-0.611051499844
-0.330916434526
0.306986898184
-0.300464689732
-0.151048392057
-0.21123534441
-0.417945504189
0.39451533556
0.144675642252
0.45893573761
0.0774110034108
-0.309527784586
0.267815679312
-1.01104366779
0.0475725159049
-1.00260984898
0.272313117981
0.413424372673
-0.242499798536
-1.03381955624
0.10564661026
-0.425771296024
-0.24194277823
0.0683545693755
0.0588501915336
-0.128942087293
0.651872694492
0.58096331358
0.541435778141
0.0729793682694
-0.0154826967046
0.224227190018
0.231147155166
-0.0217012651265
0.141849324107
-0.802885949612
-0.656916737556
-0.202891990542
-0.0689577162266
0.656022906303
-0.0382592380047
-0.132709309459
-0.389586418867
-0.204579547048
-0.287703961134
-0.58609354496
-0.20283152163
0.00410347664729
0.269518315792
-0.194872379303
-0.44827580452
0.0636447072029
0.0886310786009
-0.124245241284
-0.343001753092
0.601864695549
-0.13180424273
-0.183910340071
0.495753258467
0.449768602848
0.302910864353
0.126012846828
-0.0301451049745
-0.261642485857
-0.0677109956741
-0.212846979499
-0.264756560326
-0.583384633064
-0.38101965189
-0.450597643852
-0.668953299522
-0.208914905787
-0.444559335709
-0.599348902702
-0.380565553904
0.37200909853
-0.778752863407
-0.282878130674
-0.780405342579
-0.242698177695
-0.804773628712
-0.654367268085
0.291879892349
-0.094714216888
0.724487960339
0.232509672642
0.547477066517
-0.113168090582
0.804083168507
0.779888808727
0.575918078423
0.508831083775
0.0010418073507
-0.333538711071
0.404102236032
0.580998659134
-0.160287648439
-0.261721014977
0.769662499428
0.208383709192
0.230204433203
0.249525368214
-0.50409501791
-0.639118075371
-0.292825311422
-0.283497303724
-0.71293759346
-0.123808577657
-0.177468568087
0.04284825176
-0.230006456375
-0.627493977547
0.547202348709
0.56650775671
0.815577983856
0.582625389099
-0.175841748714
0.252474457026
0.0464497059584
0.558234333992
-0.721220612526
0.0258150119334
-0.512506723404
-0.657858431339
0.333669871092
-0.843155622482
-0.229336068034
-0.415946155787
-0.190384939313
-1.01022553444
-0.604893743992
-0.487962812185
0.0150236878544
-0.21612688899
-0.0820287317038
0.116060942411
-0.313278734684
-0.00662290351465
-0.316214025021
-0.350566923618
0.123124010861
0.050145290792
0.726724624634
-0.133536785841
0.920253098011
0.810785591602
0.136029183865
0.471898198128
0.830972492695
-1.3575719595
0.356227695942
0.516448140144
0.0958899706602
0.163633614779
-0.619678854942
0.634852409363
0.147631883621
-0.0546422712505
0.0569007024169
0.776068866253
0.00360672641546
0.360655605793
-0.223205626011
0.129987955093
0.197733536363
-0.225361153483
0.540650427341
-0.187480255961
-0.00672660814598
-0.0167848616838
-0.738888442516
-0.270508855581
-0.0560824647546
0.677363574505
0.541613817215
0.210830792785
0.548971116543
0.541732132435
0.503820419312
0.469700485468
0.140526816249
0.230914860964
-0.665019094944
-0.879692614079
-0.707060039043
-0.164346173406
-0.728222131729
-0.503779411316
-0.147112697363
-0.359287261963
-0.455721288919
-0.156542554498
0.430728971958
0.31391403079
-0.185143858194
-0.129035875201
0.231109902263
0.109477564692
0.559028327465
0.439087718725
-0.704592049122
-0.178011834621
0.116126596928
-0.193169012666
-0.1766795367
0.00492992252111
0.492687702179
-0.135307580233
-0.710888385773
-0.588412284851
0.124698653817
-0.335915058851
0.0963786691427
-0.059278588742
0.0938645154238
0.473956823349
0.229427143931
0.0572375804186
-0.029789250344
0.0915138274431
0.560244619846
-0.0134875588119
-0.297286987305
-0.312874495983
-0.153338834643
-0.772771060467
-0.172517925501
-0.378568708897
-0.518256127834
-0.317410826683
-0.139767110348
-0.227876618505
-0.115344569087
-0.565721750259
-0.217007353902
-0.764678895473
-0.805169165134
-0.292659074068
-0.516165554523
-0.843274414539
-0.258110404015
0.0615484192967
-0.415781795979
-0.347501546144
-0.803222894669
-0.0248024538159
-0.702976465225
-0.126428321004
-0.367549180984
-1.05732989311
-0.24940739572
-0.431864857674
0.33270958066
0.189530402422
0.143987968564
-0.351133823395
0.620335400105
0.100432902575
-0.354095578194
0.452891170979
-0.586623907089
0.318416416645
0.0487010329962
0.156920060515
0.0659499913454
-0.410522550344
0.183811828494
0.306364566088
-0.0348628126085
0.142903074622
0.248741582036
-0.370671212673
0.315578848124
0.189069569111
-0.340798527002
0.586015999317
0.180984377861
-0.237915605307
0.23941861093
0.0704447627068
-0.0933349058032
-0.164129123092
-0.712391674519
-0.297509104013
0.368341654539
0.0721600949764
-0.543923676014
-0.341913729906
-0.378608614206
-0.31517547369
0.433087408543
-0.66069060564
0.0471167378128
0.456952095032
-0.190913721919
0.180498063564
0.126763686538
-0.319527536631
-0.604362785816
-0.00645959563553
-0.135562047362
0.387757301331
0.315172880888
0.125519707799
0.141844809055
0.2387085706
0.349356889725
0.0887387618423
0.666010916233
-0.155286177993
-0.0486717633903
0.0589327476919
-0.117332704365
0.0879647359252
-0.162921115756
-0.771179080009
-0.297035723925
0.0828718021512
0.84286159277
0.0158093385398
-0.314868211746
0.423584103584
0.0149966701865
-0.141934290528
0.81948953867
0.131609842181
-0.486226499081
0.180796056986
0.278658598661
0.352792292833
0.177808016539
0.125528171659
0.24863190949
-0.956708908081
-0.602142930031
-0.089656457305
-1.34234058857
-0.765376091003
-0.672271549702
-0.374543637037
-0.342023134232
-0.582435667515
-0.965361177921
-0.328802347183
0.0793502032757
0.849214553833
-0.13544011116
-0.274371117353
0.256292521954
-0.380135804415
0.230278104544
-0.0150588583201
-0.44266730547
-0.452263265848
-0.394173055887
-0.493887573481
-0.481003403664
0.0879352688789
-0.268463820219
0.182836800814
-0.553880751133
0.0700900703669
-0.011699963361
-0.402346849442
0.22386687994
0.329813122749
-0.0473235547543
-0.0233126245439
-0.241364747286
-0.463395088911
0.0568971000612
-0.011354223825
0.814840078354
0.699868261814
0.51440346241
0.479685306549
0.52438133955
0.188605755568
0.680639266968
-0.266384452581
1.11854803562
0.471962690353
-0.63365405798
0.342482984066
0.198896184564
0.555112361908
0.0335924439132
-0.178780645132
0.145599484444
0.589401423931
0.145820200443
-0.183242067695
-0.577885210514
0.1459133178
-0.19190569222
-0.437126398087
0.131964594126
0.183830231428
0.322772175074
-0.0868057534099
-0.0592201203108
-0.19729629159
0.424155473709
-0.346934765577
-0.221613690257
0.332533836365
0.111028037965
0.386362075806
0.0512672513723
-0.49584788084
0.174208000302
0.19666184485
0.20314823091
0.491444915533
0.0653928592801
0.108910635114
-0.160297960043
0.18006375432
0.361830055714
0.320171773434
0.238780677319
0.182856664062
0.871536910534
0.315816730261
0.494997948408
0.540304005146
0.395176559687
0.775564432144
0.422823488712
0.92438685894
0.430231958628
0.815829157829
-0.417136996984
-0.412724763155
0.223473235965
-0.763771533966
-0.495063483715
-0.143511340022
0.132319137454
-0.52118653059
-0.464596837759
-0.170417353511
-0.34131783247
-0.334159433842
-0.185638010502
-0.178954735398
-0.0635819360614
0.292365014553
-0.477415829897
-0.197130605578
0.380236506462
0.237251520157
0.0711364373565
0.71187800169
0.682876646519
0.0996555015445
0.760018825531
0.441885203123
-0.0814884528518
-0.260086447001
-0.0361333340406
0.290797710419
-0.348484486341
0.86502301693
0.405521631241
0.492951720953
0.535519003868
-0.301493167877
-0.0634922534227
0.239087864757
0.333309322596
0.423642545938
0.284820139408
0.126064985991
0.0491560362279
0.414478480816
0.544330716133
0.198646515608
0.416861057281
0.00730563607067
-0.472726106644
0.566005647182
0.933578670025
0.292554706335
0.599088788033
0.388974249363
0.795376420021
-0.00504444725811
0.846377134323
-0.139095649123
0.0107048181817
0.507457137108
-0.24494639039
0.0675939843059
-0.158166766167
-0.156632035971
-0.163078323007
-0.0568248741329
-0.211045742035
0.188471347094
-0.215943530202
-0.485402852297
-0.288257539272
0.0270477291197
0.179017603397
0.302223443985
0.119842454791
0.328884035349
-0.259705513716
-0.0659383535385
-0.432671993971
-0.538430452347
0.219892576337
-0.469132035971
-0.126739487052
-0.0952983573079
0.363761454821
-0.123075477779
-0.018520437181
0.193350121379
0.569764137268
0.100080907345
0.719353795052
0.689887464046
0.19886252284
0.571768939495
0.486824929714
0.148165732622
0.288009107113
0.0653639957309
-0.281053870916
0.217733383179
0.00792278628796
-0.168964833021
0.0784374624491
-0.0823347568512
0.14005997777
-0.409749358892
-0.172361418605
-0.244555130601
-0.468552291393
-0.366207957268
0.109433077276
0.161255136132
-0.821132361889
-0.108925417066
0.118508026004
0.175052344799
-0.0705358013511
0.484779298306
-0.428519576788
-0.0836163461208
-0.331601977348
-0.076022028923
-0.325633794069
0.0903636962175
0.0750704780221
0.0899053514004
-0.361959159374
-0.217240959406
-0.0107935201377
-0.5708091259
0.289880603552
0.0520982146263
-0.060286603868
0.268822342157
-0.0804161056876
0.115897975862
-0.13788767159
0.159402102232
-0.596191585064
-0.112894833088
0.0558676198125
-0.00791380926967
-0.0346072614193
-0.756992578506
0.00166383199394
-0.0301647633314
0.486414313316
0.158329084516
0.338860154152
0.0984637737274
-0.752546906471
0.0660931393504
0.240872576833
-0.368444561958
-0.0726443305612
-0.370928555727
-0.405883580446
-1.52976644039
-0.389827340841
-0.154329240322
0.303651303053
0.150412008166
0.549540042877
0.48839867115
-0.121037535369
-0.155813038349
0.887873113155
0.225761547685
-0.0800250843167
0.10431522131
0.859722197056
0.328195005655
0.0191990733147
0.117318153381
0.0250735152513
0.107482977211
0.143034666777
0.533704936504
-0.208723992109
0.198882117867
-0.72785204649
0.374776542187
-0.335881233215
0.025758376345
-0.519876539707
-0.178595244884
-0.519387066364
-0.627257585526
-0.634800195694
0.258922696114
-0.355559021235
-0.269212245941
-0.00667043123394
-0.41581851244
0.0223318766803
-0.00692471209913
-0.231250807643
-0.230559408665
-0.798472106457
-0.577810287476
-0.248223021626
0.326326370239
-0.297228723764
-0.437793731689
-0.3830935359
-0.370114266872
0.601604580879
-0.116830721498
0.283852219582
0.172393649817
0.072458229959
0.680242061615
-0.0630774274468
0.493229389191
0.0243241060525
0.309437781572
0.34734877944
0.0638470351696
0.0988018661737
-0.0865654274821
0.741088867188
0.828858077526
0.0528622828424
0.466820567846
0.0870117023587
0.496414601803
0.240602195263
-0.040732011199
0.494149804115
0.363590657711
0.0771514996886
-0.0760903656483
-0.0235796738416
0.21243929863
0.206887960434
0.100985899568
0.503180086613
-0.625893354416
1.08817088604
1.08317232132
-0.759334146976
-0.588036835194
-0.108863145113
-0.677225828171
0.0437547825277
-0.54063731432
-0.658945441246
-0.877632319927
-0.278516113758
-0.7429677248
-0.16036067903
0.41364595294
0.404418855906
0.409327328205
0.139789223671
0.0355006456375
0.898182272911
0.17663128674
0.25554394722
-0.273672997952
0.272380441427
0.159999012947
-0.247892677784
0.568532824516
0.437498778105
0.42773810029
0.374908000231
-0.0467721223831
0.525358319283
-0.448413461447
0.399267405272
-0.264329582453
-0.178073823452
0.610739409924
-0.512690901756
-0.596139132977
-0.0896311849356
-0.145748227835
0.456114590168
-0.379599839449
0.139583453536
0.425241708755
0.533121824265
-0.309605628252
0.125493466854
0.506386697292
0.579229474068
0.487696111202
0.203800588846
0.115562640131
-0.567155599594
-0.411350309849
-0.291220098734
-0.0598436482251
-0.135726362467
-0.25767159462
0.0381898209453
0.092429690063
0.101738154888
0.0196972191334
-0.41860255599
-0.190858826041
-0.35819464922
-0.765692055225
-0.154702827334
-0.180677354336
-0.307094663382
-0.525782763958
-0.255628228188
-0.144101426005
-0.696097373962
0.0362225100398
-0.101998642087
0.517180323601
-0.183273091912
-0.234774529934
0.0328558683395
-0.06068283692
-0.135940551758
0.215480223298
-0.245329409838
-0.459796011448
-0.138755008578
-0.36073616147
0.174343407154
0.0765658989549
-0.0453711748123
0.275161087513
0.114771910012
-0.554716050625
0.65163564682
0.215815141797
0.0483132079244
0.581158876419
0.634313941002
0.441330641508
0.479194939137
0.692325532436
0.388217628002
0.384400635958
0.0674142241478
-0.519384264946
-0.492943406105
0.13168682158
0.206884309649
0.196612671018
-0.711444675922
-0.54850924015
-0.0433298945427
0.0638370290399
-0.285423219204
-0.950652301311
-0.221980080009
-1.06153571606
0.272380828857
-0.030245821923
0.0211872067302
-0.532578885555
0.10374686867
-0.717831492424
0.0527603290975
0.148239955306
-0.207875132561
0.142272487283
-0.279247403145
0.190960556269
0.15714071691
0.0961741358042
0.168137177825
0.327375084162
0.480218797922
0.871575891972
0.811160027981
0.271823048592
0.309814780951
0.741719961166
-0.0282905437052
0.279272049665
0.615289747715
0.375389367342
0.571790993214
-0.0102935768664
-0.264031231403
0.559402525425
-0.116273343563
0.353586018085
0.810079097748
0.440680831671
0.626884460449
0.522179841995
0.645073771477
0.163776502013
0.323029220104
0.456815749407
0.252704769373
0.104522615671
0.74388885498
0.82914763689
0.479372829199
0.388702571392
-0.256470918655
-0.19454780221
-0.34256824851
-0.192532762885
-0.572380661964
-0.380657404661
-0.388709664345
-0.147031068802
-0.0603223219514
-0.230157613754
-0.270219564438
-0.613489329815
0.432399332523
-0.425045877695
0.0392285846174
-0.127471625805
-0.235102370381
-0.167293667793
-0.238518774509
0.0666533708572
-0.630463421345
-0.661346316338
-0.114611417055
-1.06065320969
-0.346676826477
-0.321031421423
-0.269703358412
-1.30935776234
-0.741130828857
-1.00342929363
-0.677735865116
-0.110515102744
0.188654690981
0.0487435907125
0.0500442273915
-0.960767447948
-0.64706993103
0.0652279406786
0.0557906292379
-0.0721714794636
-0.120737455785
0.165116995573
0.608641266823
0.0492747575045
0.473147213459
0.191907569766
-0.00336761772633
0.558630526066
0.244386777282
0.234771966934
-0.295773983002
-0.052794393152
-0.496878266335
-0.313797265291
-0.100738681853
-0.360931575298
-0.131976619363
-0.0480046421289
-0.85917454958
0.642965376377
-0.445800065994
-0.516312539577
-0.260979324579
-0.370053291321
-0.132846534252
-0.614129185677
-0.44516402483
-0.396468520164
-0.210797443986
-0.437857419252
0.0903303474188
-0.554183363914
0.389872521162
0.469747066498
-0.334672302008
0.286579281092
0.0545547567308
0.106267012656
-0.392111033201
0.200863689184
-0.484487563372
0.0229624249041
-0.150186136365
0.0314551368356
0.293754577637
-0.388547986746
-0.177322417498
-0.782868981361
-0.0413491614163
-0.47135707736
0.418810993433
0.0935419499874
0.486371576786
0.490123659372
0.0277366172522
-0.430118113756
0.266696423292
0.44384765625
-0.505374848843
0.718345940113
1.09456086159
0.425292998552
0.171902954578
1.01152193546
-0.0938472002745
0.109655216336
-0.130291745067
1.1559112072
0.215618833899
0.294652879238
-0.126146778464
0.915491402149
0.479455143213
0.54208791256
0.0535711236298
0.23291490972
-0.0604351609945
0.486907452345
0.853908836842
0.175106585026
-0.281442523003
0.170633733273
-0.379703760147
0.111723214388
-0.186061993241
0.25289195776
0.180435791612
0.476467758417
-0.356245189905
0.0439554192126
-0.162894427776
0.0165577512234
-0.868282198906
0.481473505497
-0.326928138733
-0.179107651114
-0.382907092571
-0.3473046422
0.397493630648
0.16074411571
-0.57502579689
-0.448907107115
-0.682306468487
-0.404552042484
0.0779378339648
0.052161000669
-0.630603313446
-0.467981815338
-0.364882290363
-0.283988088369
0.179936155677
0.0592261143029
-0.100318111479
0.092154584825
0.60280585289
0.148937404156
0.21692623198
0.271731138229
0.517161726952
0.901083052158
-0.46560421586
-0.671312093735
-0.169498220086
-0.696539878845
-0.608110368252
-0.171997398138
0.0285704825073
0.152678072453
-0.487049341202
-0.671335220337
-0.193763554096
-0.223398670554
0.272093713284
0.134899422526
-0.215623155236
-0.323116242886
-0.321373194456
0.38235142827
0.206687703729
-0.120098598301
-0.0763235986233
0.144983768463
-0.2873005867
-0.164330869913
0.0585583113134
-0.341108500957
0.0407997965813
-0.772645175457
-0.0430988110602
-0.667986571789
0.328362971544
-0.0697218105197
-0.86834692955
0.261969536543
0.306467682123
-0.477294951677
-0.227333799005
-0.169102624059
0.41535371542
-0.0418558232486
0.0277643315494
-0.44620859623
-0.524588227272
-0.590556383133
-0.531370222569
-0.654895365238
-0.215072959661
-0.430047720671
-0.163702830672
-0.541414320469
-0.683194935322
-0.144456595182
-0.166959524155
-0.37464132905
0.447044491768
-0.468312621117
-0.463194668293
-0.48570728302
0.0277872607112
0.211055144668
0.490635693073
-0.200059488416
0.520508527756
-0.554302215576
0.422243356705
0.47248262167
0.0402317009866
0.46406519413
0.927294015884
0.375196874142
-0.572726905346
-0.0823164582253
-0.395548671484
0.072255730629
-0.378968775272
-0.325303912163
-0.208769872785
-0.284993469715
-0.354754537344
-0.316487282515
-0.271010190248
-0.0867479741573
-0.178904235363
-0.238939628005
-0.162648335099
-0.285279601812
-0.0146950781345
-0.228183269501
-0.301785618067
-0.424551725388
0.266327649355
0.49947938323
0.772992968559
0.160108551383
0.422599941492
1.26208972931
0.941730320454
0.585845351219
0.447024583817
-0.25459343195
-0.477728337049
0.525635123253
0.26936095953
0.0974061638117
0.595444858074
-0.130664378405
0.0197535343468
0.049653571099
-0.0762409344316
0.0679991394281
0.345593094826
0.386398762465
-0.0251613594592
0.17776581645
-0.213032841682
0.143002927303
0.0629701092839
0.967853188515
0.0449740998447
-0.117045156658
0.1992149055
0.508592188358
0.53220564127
0.370013296604
0.493374586105
0.518735527992
0.762916147709
-0.0500931292772
0.337366074324
0.659235954285
-0.248701408505
0.672950983047
0.541315615177
0.975335657597
0.299936085939
0.0303240679204
0.178966701031
0.206789135933
0.102103948593
0.399251818657
-0.385478138924
-0.520915925503
-0.783689260483
-0.937407374382
-0.525816082954
-0.214742571115
-0.665384292603
-0.506945133209
-0.718349218369
-0.574663281441
-0.0793014019728
0.231157436967
0.538427829742
0.0538782216609
0.294370681047
-0.20622561872
0.0503481067717
0.0464647263288
0.401101827621
0.00444457028061
-0.155450582504
0.000825834460557
-0.366088926792
-0.152294561267
-0.462563544512
-0.314239382744
0.295574247837
-0.000507904216647
0.0274183321744
0.0346416980028
-0.0804353356361
0.0696102157235
0.183600604534
0.0295469015837
0.616107821465
-0.336527436972
-0.30526098609
-0.260331988335
-0.323804676533
-0.711886286736
0.515621066093
-0.503974914551
0.729264199734
0.171239256859
-0.517811954021
-1.3990881443
-0.78134059906
0.370691299438
0.660715162754
-0.356857687235
-0.373124063015
-0.284153133631
-0.17854192853
-0.0340760797262
-0.47520172596
-0.601070702076
0.491984426975
0.616851210594
-0.0156392529607
0.288050621748
0.0875694155693
0.191694274545
0.157338052988
0.0902490913868
0.393755227327
0.131050050259
-0.124981224537
-0.0801974236965
0.261799275875
-0.690692007542
-0.380692154169
0.0592908933759
0.13777346909
-0.341003537178
0.698831617832
0.164068087935
0.453775376081
-0.0116318259388
0.138748303056
-0.547078311443
0.235826551914
-0.242232039571
-0.46954780817
-0.160183310509
0.39825874567
0.190168425441
0.0689479857683
-0.0482773929834
0.0383193828166
-0.229001358151
0.762016654015
0.833982944489
0.20102673769
0.22502578795
0.552812814713
0.54823756218
0.504688620567
0.462064743042
-0.71096009016
0.316715329885
-1.20881104469
-1.22960543633
-0.666640281677
-0.576592504978
-0.918743789196
-0.55330991745
-0.528103232384
-0.784903526306
-0.523944735527
-0.546066761017
0.385133653879
0.426189810038
0.327924668789
0.181219518185
-0.655884444714
0.14271967113
-0.0249133557081
0.042460296303
-0.566672861576
-0.535270810127
-0.49152225256
-0.266861379147
-0.623449921608
0.1519228369
-0.288366287947
-0.573400557041
-0.73755389452
-0.561096131802
