-1.38105261326
-0.328795135021
0.0566938370466
0.754420638084
0.0614529177547
0.466902911663
-0.934795200825
-0.03008726798
-0.425629258156
1.79105091095
0.336320877075
-0.0676135644317
-0.813891351223
0.218254953623
-0.669012010098
-0.0877811312675
-1.14749336243
0.307064503431
-0.462892174721
-0.618029892445
-1.15996313095
1.09499573708
-0.339038461447
1.5966335535
0.30820953846
-0.413084775209
1.00565183163
0.533003628254
0.730285823345
-0.504724979401
-0.508229196072
0.385247290134
-0.122942894697
-1.11657750607
1.329403162
1.48791623116
0.0564432255924
0.224526211619
0.150685027242
1.82950687408
0.666637599468
0.518150091171
0.134208187461
0.773842692375
-0.67664951086
0.839002072811
0.17577162385
0.175602883101
0.315677493811
-0.134493544698
0.352325677872
-0.435979068279
1.27296257019
0.71660131216
-0.994007468224
-0.279265016317
-0.836652755737
0.636434435844
-0.396705925465
0.701991796494
0.7684674263
-0.119183331728
-1.1118786335
-0.293174594641
1.23897528648
0.401348888874
0.635666847229
-0.0992669388652
0.52228718996
-0.18633055687
-0.61856752634
1.04670488834
-0.629527330399
0.328817278147
0.0154212899506
0.389922529459
-0.0692316070199
1.29922986031
0.00166212616023
-0.0116839464754
-0.664706110954
-0.0251369811594
0.0650426745415
-0.868410944939
0.194609999657
-0.501795172691
0.166663661599
-0.371335089207
0.853649735451
0.554835855961
1.41466414928
0.235081911087
0.50498855114
1.71740543842
-0.676113784313
0.731932640076
0.254252612591
-0.408483594656
-0.915305137634
0.642021536827
-0.0262063965201
-0.0651138573885
-0.92311501503
-1.07717227936
0.781003236771
0.090188100934
-0.739519476891
0.855916798115
0.586266636848
-0.846070230007
0.0942890942097
1.25793731213
0.574054896832
0.907044649124
0.0620802566409
1.01742625237
0.823727786541
0.359002649784
-0.745801627636
0.120970822871
0.187890976667
-0.578616321087
-0.407779157162
0.47241422534
-0.431575775146
-0.188041448593
-0.00904033891857
0.700574874878
0.876875400543
0.465000599623
0.602992594242
-0.727304637432
-0.363410383463
-0.380597352982
-0.293019711971
-0.943548202515
0.391516715288
-0.19265383482
0.562875151634
0.281391441822
0.214249104261
0.85641258955
1.97877633572
-0.405793815851
0.443086802959
0.780111372471
-0.237916886806
-0.719402909279
-0.502416849136
0.663165211678
0.645104527473
-0.399642020464
-1.60344946384
0.381944864988
0.256173849106
0.409898728132
-0.443777799606
-0.28114515543
-0.855655431747
-1.63836467266
0.75395488739
-0.492820709944
-0.147535443306
-0.638035774231
-0.57244259119
0.0221205167472
0.233636587858
-1.66679871082
0.436328440905
-0.686937630177
-0.55873644352
0.143201693892
0.61619758606
-0.420906037092
0.465499818325
0.680422961712
1.19514405727
-0.298001676798
0.214574739337
0.907832741737
-0.593881249428
1.03833079338
1.32763969898
-0.104841768742
-0.126111939549
-0.564986228943
-0.624493837357
-0.622289955616
-0.0450342223048
0.881826639175
0.0302372016013
-0.612151682377
-1.22353243828
0.230455964804
0.217585399747
-0.410676240921
-0.817578971386
-0.333453208208
-0.686144948006
-0.512063026428
-0.378360629082
-0.71511131525
0.404762864113
0.66610211134
-0.0381223000586
0.785263955593
0.433582931757
0.186974465847
0.206195771694
-0.668394804001
0.289904862642
0.647037982941
0.207839757204
-0.0252230670303
-0.421498388052
-0.372192114592
1.31913995743
0.575325548649
0.524453639984
-0.174658104777
-0.840382397175
-0.412798464298
0.0175525769591
-0.446463614702
0.745309710503
-0.547523319721
0.140731289983
-0.0984518304467
-0.285858541727
-0.30371811986
-1.39435815811
-0.160854935646
-0.0121225975454
-0.0375401377678
0.520649075508
0.154129579663
0.092733182013
-1.0814050436
0.283328473568
1.83754432201
1.2770704031
-0.537266135216
0.0146709224209
-0.799279987812
-0.189318984747
-0.816904842854
-0.902634859085
-0.0961192697287
-0.891214728355
-0.612839400768
-1.56972491741
-1.05198800564
-0.229358121753
-0.599088251591
-0.527836382389
-0.152499064803
-0.859359920025
1.15994632244
-0.736153066158
0.928679585457
0.162912666798
-1.87533795834
0.192149654031
-0.243388310075
-0.0640061572194
0.726551413536
0.802589595318
-0.195197731256
1.07694542408
0.977326452732
-0.5814037323
0.224034950137
-0.534907698631
-1.24645256996
0.205418914557
0.568962574005
0.567467153072
0.910156786442
0.265146315098
1.02507805824
0.374931633472
0.975870788097
0.988110244274
-0.227730259299
1.51877629757
1.0381937027
0.870782911777
-0.0197601374239
0.433558106422
-1.26667547226
-1.47233819962
-0.299695432186
0.017990430817
-0.527373075485
-0.594341754913
-1.07193958759
-0.119249485433
-0.309265971184
-0.757317781448
-0.749855339527
0.84897172451
0.237757176161
0.639202415943
0.497243970633
0.184545740485
-0.478373110294
-1.41005325317
0.382806539536
1.0812202692
-0.978786408901
-0.218334436417
-0.613692224026
0.191356748343
-0.517424046993
-0.0708745270967
0.493481367826
1.11954247952
0.533689677715
0.651119947433
0.723576486111
0.282965868711
0.588598072529
-0.855402588844
1.43655741215
0.0813438519835
-0.0416299365461
0.200787454844
-0.834137380123
-1.56282520294
-0.374894887209
0.749946892262
-0.225815400481
-0.13116119802
-1.10987901688
-0.106836631894
-0.360973358154
-0.794386148453
-0.0840543881059
1.19166660309
0.409672647715
-0.632336854935
0.625419557095
0.612063288689
1.03488683701
0.0204575862736
0.373871296644
-0.214768052101
0.739047646523
-0.326281219721
-0.723205924034
0.0630125850439
-0.669933259487
0.371606141329
-0.437065005302
0.307689636946
0.343381166458
-0.247532010078
-0.606033205986
-0.414299726486
0.374893754721
-0.79966878891
-0.0837379023433
-0.00465158419684
-0.109339803457
-0.477817982435
-0.472606569529
-0.635143756866
0.205028489232
-0.297061294317
-0.883952975273
0.0164827480912
-0.614124178886
-0.231821402907
0.0633836090565
0.136146605015
0.0688411220908
-0.0627586916089
-0.549549758434
1.17645061016
0.968657314777
0.00878273136914
0.0258981175721
0.472880601883
0.561357557774
0.849002540112
0.681533694267
0.420936882496
0.215745270252
-0.227116748691
-0.134749993682
-1.26535999775
-0.0925451889634
-0.68955975771
-0.385360330343
-0.343413859606
-1.55155348778
-0.743890523911
0.692214846611
-0.453243225813
-0.926801860332
1.00340211391
-0.438200294971
0.641323626041
-0.788452148438
-0.421405673027
1.18821787834
0.214052692056
-0.944087922573
0.478473991156
-0.21662889421
-0.42075368762
0.235666200519
-0.418712347746
1.09914731979
0.448928683996
-0.45762938261
0.773775756359
-0.92773014307
-0.469489902258
-0.33449408412
0.479748517275
1.14537751675
-0.0089945551008
0.179823473096
-0.483976393938
1.45622801781
-0.896415531635
0.623163461685
0.797616958618
0.621591508389
-0.154831886292
0.12116291374
-0.583087742329
0.150127962232
-0.632086217403
-0.15540497005
0.987046718597
0.73388427496
-0.597018122673
0.715039491653
-1.01268768311
-1.02486228943
-0.346489518881
-0.167919874191
0.94646692276
-1.84694564342
-0.875113248825
-0.695695400238
0.187211558223
0.125498637557
0.644849359989
1.03468430042
0.799607872963
0.168180242181
-0.363429576159
0.892264246941
0.0990990549326
-1.17110550404
-0.916271388531
-0.752545118332
0.764177441597
-0.686881482601
-0.346410810947
-1.02661907673
-0.286664009094
0.886288166046
0.323813289404
1.80185186863
0.285769045353
0.332395881414
-0.156581491232
-0.32554808259
-0.303367286921
0.469538092613
0.162432029843
-0.230653256178
-0.755330979824
-0.160767018795
-0.00263401027769
-0.693617105484
-0.518555402756
0.291450768709
0.138558462262
-0.141810014844
-0.0823881849647
-0.27428072691
0.80302631855
-0.876213431358
0.254314363003
1.44708192348
0.981876194477
0.329151272774
0.30626732111
-0.0501900427043
0.674113869667
0.522717237473
0.261735290289
0.648534595966
0.898405313492
-0.0790601894259
0.0462630800903
0.570039868355
0.0538600869477
-0.437047183514
-0.157779216766
0.561274707317
-0.979326725006
0.336147546768
-0.931814193726
-0.228773698211
-0.114253297448
-0.241957068443
-0.0381607115269
0.0161800440401
-0.277021765709
-0.152529478073
0.136349856853
-0.897700190544
0.854801177979
0.102390281856
0.593108355999
0.389815539122
-0.267914354801
0.0329946167767
0.362476438284
0.845968127251
0.875141680241
0.374073624611
-0.253896325827
0.820687353611
-0.407574743032
-0.694395184517
-0.0540542080998
-0.350934535265
-0.387115478516
-0.0320012569427
-0.133187547326
-1.47932970524
1.46544325352
-0.442496627569
1.00183475018
0.640058100224
-0.598784327507
0.120929308236
0.49293550849
-0.204568460584
-0.949352383614
1.48961639404
-0.449040055275
-0.782322466373
-1.27947330475
-1.61813378334
0.670189499855
-1.39613687992
-0.297729969025
0.369066625834
0.734754741192
-0.686204850674
-0.762148141861
0.471107691526
0.682860434055
-0.512256383896
-0.927630901337
0.491176277399
-0.60356515646
0.0156668834388
-0.0109821967781
0.339866518974
1.23218691349
-0.342944443226
-0.356896102428
-1.00973773003
-0.634630143642
-0.533147096634
-0.872700810432
1.05754899979
0.562107741833
-0.729778766632
-0.930421113968
0.659672558308
-0.500595331192
1.02340424061
0.346981108189
1.07560956478
-0.0966217517853
1.15050268173
-0.0271085519344
-0.448158144951
-0.101436160505
0.342308431864
0.322437137365
0.264485299587
0.0692419335246
0.0594103112817
0.963618040085
-0.304198890924
-0.245645210147
-0.554454147816
0.155907928944
-0.113736249506
-1.07941222191
0.0376417189837
0.896409511566
0.199428841472
0.199366644025
0.0407514087856
-0.231705769897
0.203995734453
0.817266225815
-0.327856719494
-0.57995390892
0.18092943728
-0.0034192353487
-0.175867602229
-0.720354795456
-0.350876450539
0.588071584702
0.792218625546
-0.951202750206
-0.0118034640327
0.654727756977
-0.375222444534
-1.59664511681
-0.554460525513
-0.36096996069
0.309224963188
-0.119565039873
-0.884767889977
0.34783282876
-0.182406142354
0.480578780174
-0.0991053432226
1.33785736561
1.07747292519
-0.551781773567
-0.482440292835
-0.269355893135
0.310926556587
-0.0756543725729
-0.624452710152
-0.411348372698
0.312098890543
-1.63766658306
-0.895768582821
-0.0792870596051
-0.306979477406
0.702872514725
-0.464953005314
0.369330048561
0.249153971672
1.1092120409
0.812181591988
0.506182134151
0.798174738884
-0.134711936116
0.347303152084
-0.186899006367
1.01493310928
-1.09773039818
-0.297270774841
0.329717576504
-0.612708806992
-0.562043070793
-0.688827812672
-0.399514913559
0.278061121702
1.15210127831
-0.108747154474
0.664834320545
0.276644974947
-0.163914754987
0.84051245451
1.0470688343
-0.231394484639
0.0280934609473
-0.784044384956
-0.464264899492
-0.314071983099
-0.865479111671
0.401939362288
-0.505581498146
-0.74326646328
0.235604122281
0.148681804538
0.54889780283
-0.272739857435
-0.997688174248
0.250433921814
-0.022193826735
0.2843760252
0.983721673489
-0.846350193024
-0.349445343018
-0.490929663181
0.0141694657505
0.862022638321
-0.830066204071
0.0957531630993
0.357513576746
-0.645327985287
-0.30885592103
0.484388142824
0.189269185066
0.0446514338255
-0.0924723446369
-1.59733450413
0.82228153944
-1.38470709324
-1.10311233997
-1.07454800606
-0.0443653799593
0.119319133461
0.434247672558
-0.35875660181
0.23736526072
1.34009444714
0.433652222157
0.781524002552
0.976591467857
-0.235853374004
0.0595696270466
0.103221155703
-0.583104491234
1.02646398544
-0.194313824177
0.199335679412
-0.323493868113
-0.220990255475
0.178249552846
1.13227272034
-0.373776197433
-0.897635519505
-0.237972691655
-1.09688007832
-0.677078902721
0.856488704681
-0.179558396339
-0.476187050343
0.262291103601
0.0200119744986
0.206828221679
0.388291537762
0.350881099701
-0.0121723487973
0.663780748844
-1.17556416988
0.589301168919
-0.477478295565
-0.224007055163
-1.14647018909
-0.753690183163
0.157138943672
0.296332746744
0.354718029499
0.187350869179
-0.490245193243
-0.120366707444
-0.479127407074
0.446210414171
0.888953387737
0.130941703916
-0.563267111778
0.217679783702
0.83688223362
0.0262774135917
-0.298910826445
0.199504807591
0.358745157719
0.33685952425
-0.492654532194
-0.905100941658
0.0143655249849
-0.583209514618
0.415671944618
-1.50914859772
0.489413410425
-0.211050540209
-0.422435432673
-0.695050179958
0.0387310162187
0.243626445532
0.0150604816154
1.38001406193
-0.828286767006
1.17779195309
-0.223650127649
0.725262820721
-0.129634052515
0.172568142414
0.24966840446
-0.390461474657
-0.197176501155
-0.658436477184
1.51682639122
-0.0671987086535
-0.147242978215
0.540367662907
0.24951133132
0.0341153219342
0.14386998117
0.040357530117
-0.750603020191
-0.259986370802
-0.43381562829
0.450702607632
0.26630756259
0.147911280394
0.810278356075
0.14912520349
-0.0869570598006
-0.730538010597
-0.353330761194
0.928928792477
-0.697016835213
-0.324683010578
-0.106354378164
-1.131072402
0.364416241646
-0.748870551586
0.0658057630062
0.71689671278
0.344209939241
0.0987690761685
-0.827737271786
0.626490414143
1.2863843441
0.885741472244
-0.310047984123
0.397934019566
0.468795210123
-0.03250195086
-0.0647171512246
0.626197695732
0.447322487831
0.144018471241
-0.891397595406
-0.120164521039
0.143133342266
-0.0242808293551
-0.147418960929
0.0393433608115
2.14745092392
0.0529680624604
1.35866725445
0.61231225729
-0.491410404444
-0.825740635395
0.516279876232
0.521080434322
0.0483248718083
-0.447854965925
-1.38379311562
0.121691830456
-0.748607337475
0.222159415483
-1.75167155266
-0.265746295452
1.14722716808
-0.500867545605
-0.840742528439
0.538266718388
-0.0258285906166
-0.241102874279
-1.42541408539
-0.133528292179
0.878697216511
-1.14892745018
0.498597323895
-0.222782075405
0.374867260456
-0.379235714674
-0.892104029655
-1.6466729641
0.143576219678
-0.528293251991
-0.130303695798
-0.203260421753
-0.786258995533
-0.773031771183
-0.0394944064319
0.345695644617
0.112279683352
-0.292875021696
-0.509901344776
-0.191255658865
-0.230754822493
1.20415854454
0.00370973092504
0.520140111446
0.191413223743
-0.0898827910423
-0.132841989398
-0.210939824581
0.525515139103
0.291117995977
0.0182717200369
-1.07985854149
-0.121063053608
-0.517855226994
0.358330219984
-1.35689723492
-0.0164251923561
-0.0308910608292
-0.775056779385
-0.0166273992509
0.184364110231
-0.228685826063
-0.619249582291
0.346938788891
-0.868109643459
0.343007981777
-0.434560000896
-0.983065187931
0.301975220442
0.257994383574
-0.0314558967948
-0.871272563934
1.23477447033
-0.769694507122
0.719294011593
0.33849182725
0.469917297363
1.83708548546
0.128782346845
0.209848433733
1.02569150925
-0.0570124015212
0.237625733018
0.169826731086
-0.0688383355737
-0.807403743267
-0.1573998034
-0.74698060751
-0.631307721138
0.460123032331
-1.20031630993
0.106830611825
-0.0826051905751
0.604786872864
-0.781688392162
-0.459959924221
-0.424967229366
-0.975473344326
0.506622552872
-0.458556294441
1.10178864002
0.00393193680793
0.80155390501
-0.435961961746
1.14443898201
1.02088677883
0.792495310307
0.0568069703877
0.992290079594
-0.072226934135
-0.119566328824
0.0959245711565
-1.37925815582
-0.207221642137
-1.3745059967
-0.166581004858
0.538536787033
-0.512367248535
-0.0593194663525
-0.729099571705
-0.110573656857
-0.172277644277
0.478657692671
0.130102440715
0.265119731426
-1.18125033379
-0.577297031879
0.139207929373
-0.343708842993
0.0746911466122
0.675964832306
0.79332947731
-0.085696272552
-0.00641702488065
0.606317818165
0.190381601453
-0.145629301667
-0.266192138195
0.737772226334
-0.549418866634
-0.37321588397
-0.654801428318
-0.236921980977
0.761782288551
0.669647574425
0.585451304913
-0.469452053308
-0.0673431679606
-0.225227236748
1.36346268654
-0.614712893963
0.354108721018
0.0669142752886
-0.748531222343
-0.941987395287
0.0026641828008
-0.145369589329
1.57646381855
-0.435476064682
-0.533292293549
0.0612453781068
0.132728204131
-0.48875656724
-0.0444353371859
0.711466252804
-0.121407344937
0.504755198956
-0.846265494823
0.17556579411
-0.0775850862265
-0.640274047852
-0.115390598774
0.0153959877789
1.27800536156
-0.159840717912
-0.135254383087
0.423788547516
0.931127905846
0.128074601293
0.225679829717
0.834245204926
-0.207190185785
-0.0756310224533
-1.27397477627
0.618536710739
-0.338912606239
-0.201556101441
-1.19107043743
-0.0763902068138
-0.866999030113
-0.25746178627
-0.323636800051
0.602247059345
-0.433084905148
0.201029717922
-1.11897182465
-0.645681262016
0.654946267605
-1.63450789452
0.559740364552
0.308667629957
-0.0889195874333
-0.344449192286
-0.737668931484
-0.51495796442
0.846856296062
-0.684258580208
-0.762234568596
-0.761172175407
0.401375114918
-0.369852811098
0.0996803119779
-0.980238556862
0.688851594925
-0.229285001755
-0.108823053539
0.447831392288
-0.555438935757
-0.122334226966
0.831083953381
0.771278202534
-0.68383204937
0.533713698387
0.143740355968
0.1248832196
1.14686918259
-0.290263593197
0.147430628538
0.0543117187917
-0.775216281414
-0.29850679636
0.0672378465533
-0.904174685478
-0.126117825508
-0.519829154015
-0.679901361465
0.579206764698
0.329597681761
-0.537995636463
-0.666744112968
0.131751969457
0.10966514796
-0.713063538074
0.239749521017
-0.295089572668
0.23232203722
-0.145278260112
0.654504656792
0.955007612705
0.415474832058
0.131497383118
0.0695632770658
-0.057770114392
1.55603253841
-0.45300590992
-0.361768305302
-0.889777362347
0.258191913366
0.529143333435
-0.269533097744
-0.121843069792
0.929226100445
-0.256286144257
-1.55457818508
-0.0484906099737
0.799482405186
0.734365165234
-0.485715985298
-0.266480922699
0.0210116449744
1.04373347759
0.0306140612811
0.196906715631
0.591324329376
-0.269367843866
-0.787448048592
0.70707243681
0.302703797817
-0.199787318707
0.626296699047
0.435707598925
0.124129965901
-0.302777856588
0.651411533356
-1.29046809673
-1.22772443295
-0.306549668312
-1.19645643234
-0.237400099635
0.0283677615225
0.280485242605
-0.51341432333
-0.139484599233
-0.437249571085
0.688150405884
0.0701225176454
1.11988639832
0.987337768078
0.997772753239
-1.50229859352
-0.807007372379
-0.031309902668
-1.3878493309
-0.537071406841
-0.782982289791
-0.378650009632
-0.95573425293
-0.148507580161
-0.144433245063
-0.0790015384555
-0.496299296618
-1.08708333969
0.2823523283
0.0728187561035
-1.25749909878
-0.612405836582
0.812334239483
-0.134628966451
-0.774141311646
0.425397515297
-0.169889971614
0.660589456558
0.871272861958
0.373026430607
0.636934041977
-0.366708278656
-0.904816567898
0.593259751797
0.106901429594
-1.2697019577
-0.0889036655426
-0.169326618314
-1.1678789854
-0.512003183365
-0.265705406666
0.501255273819
0.22384493053
0.436379551888
-0.584584891796
0.915248513222
-0.0610517188907
0.828051686287
0.147463783622
-0.550887167454
-0.440117508173
-0.515459239483
0.514561712742
-0.655244648457
1.1717684269
-0.212211295962
0.107006430626
0.0564335249364
-1.28639292717
0.576373696327
0.284762680531
0.54149967432
-0.112128406763
0.713314592838
0.363722294569
-0.104593992233
0.41682189703
-0.890296041965
0.570098698139
0.457531601191
-0.894793748856
-0.815459132195
-0.547983467579
-0.699810147285
-1.15197396278
-0.694313168526
-0.204947978258
0.0724266916513
-0.425717324018
-0.861491382122
0.80868524313
0.930809080601
0.280234783888
0.343825012445
0.628696084023
-0.177169591188
-0.801097035408
1.06278145313
0.000457180081867
1.13138270378
-1.2789478302
-0.728571355343
-0.248879566789
0.635812699795
-0.66816419363
0.342759907246
0.688382089138
-1.18041849136
1.43182480335
-0.377517938614
0.657970845699
0.446511536837
0.35689163208
-0.725742936134
0.458497554064
0.386830300093
-0.864616394043
0.729948043823
-1.59913611412
-0.353388041258
-0.0697212517262
0.0923476666212
-0.77438044548
0.85539907217
-0.234303504229
-0.671548485756
-0.405879408121
0.158500745893
1.18312191963
0.562163054943
-0.0245702303946
0.742059707642
0.104019314051
0.075262606144
0.0452276878059
0.450432032347
0.532440602779
-0.837449252605
-1.1071280241
-0.992387771606
-0.671882212162
0.633810579777
0.883202195168
0.534315228462
-0.142077356577
-0.225710168481
0.74228310585
1.19270026684
0.355142295361
0.194360822439
0.473610907793
-0.890072226524
0.761260271072
-1.20614945889
0.388995617628
0.845813989639
0.667819321156
-0.00321115367115
0.580716013908
0.699452459812
0.434328824282
0.592540860176
-0.940961182117
1.31297016144
0.853095650673
0.572761952877
-0.0215356685221
-0.0175039470196
0.63304579258
-1.02869677544
-0.657059490681
0.75360584259
-0.245189920068
-0.565206289291
-0.415222495794
-0.253361284733
-0.100266315043
0.0873633027077
-0.418185055256
1.41413509846
1.14126324654
1.29422545433
0.288344949484
-0.308225244284
0.398622840643
-0.0305370204151
0.555415928364
0.677406966686
-0.295084178448
0.56356215477
0.180725082755
-0.477196365595
-0.428094029427
-0.517062187195
0.959412992001
-0.757284939289
-0.987997472286
-0.562818944454
-0.492786109447
-1.0594432354
-0.30917480588
0.0296556707472
-0.256574124098
0.74496537447
-0.21746610105
-0.59354352951
-1.10202360153
-0.0629698112607
0.36978533864
0.458681225777
0.431041836739
-1.01999080181
-0.152655616403
-0.268996983767
0.0189892016351
-1.04650115967
0.796774625778
0.229278251529
-0.715856313705
-1.28740596771
-0.955359399319
-0.53503215313
0.602869570255
0.0684651657939
0.419883012772
0.58121830225
-0.805008172989
-0.178278356791
0.488104730844
0.439251333475
0.137027978897
-0.742891132832
-0.529968321323
-0.870847165585
-0.780032098293
-0.304246544838
-0.306799471378
0.1469579041
0.517981886864
-0.779428899288
0.67384147644
0.324051886797
0.201758086681
-0.730885267258
0.232668220997
0.422310739756
-0.228529140353
0.42883887887
-0.160698518157
-0.156460896134
0.319052904844
0.17668877542
0.935423791409
-0.00141949672252
-0.586579203606
-0.134454444051
0.548028767109
-0.480618387461
-0.368961602449
-0.0782330483198
-0.0986400544643
-0.928832769394
-0.285318106413
0.480701833963
0.922522127628
0.662987053394
0.226445347071
-0.313931614161
-0.137939557433
0.0256980769336
-0.114377252758
0.590516507626
0.156080827117
0.123558849096
-0.821075439453
-0.572988390923
0.142769530416
-1.01418828964
-0.0743551626801
-0.837497115135
0.33766913414
-0.483689874411
-0.535107553005
0.193730682135
0.222090050578
0.307435542345
0.499462872744
0.725768506527
-0.586810350418
-0.0914769172668
-0.148268580437
-1.33698511124
-0.645953655243
-0.997517883778
0.845002710819
0.0671902447939
-1.04874801636
-1.25608360767
-0.876357197762
0.665228188038
0.018110236153
0.420827269554
0.952992320061
-0.408667504787
-0.971523106098
1.28390777111
0.803819954395
0.840475678444
1.41355955601
-0.336251378059
0.196747422218
1.34182775021
-0.252758026123
1.46732282639
1.98200452328
0.938857078552
1.30967652798
0.0498118400574
-0.00440891878679
0.929293215275
0.0859552770853
-1.07404768467
1.09137094021
-1.46973514557
0.0415015257895
0.919886827469
-0.52518838644
0.155158862472
0.736639857292
0.437333345413
0.362466067076
0.841274023056
-0.0573345534503
0.326886832714
-0.370777308941
-0.92147064209
0.892513334751
-0.0251238644123
-0.0337376743555
-0.587397217751
-0.308341234922
0.16120903194
0.449001908302
0.547572135925
-0.666113376617
0.732722103596
0.545578420162
0.72510933876
0.390769124031
0.383424460888
1.24005353451
-0.936964392662
-0.551165997982
0.115520790219
-0.251541882753
-0.750492036343
-0.799283742905
-0.135517299175
-0.745722234249
-0.454372555017
-0.875286340714
-0.474024534225
-0.25475743413
-0.043429788202
-0.259663164616
0.452869474888
-0.318686902523
-0.61221152544
0.219909876585
-0.93758636713
-0.467655330896
0.871600985527
-0.230598554015
-0.269789934158
-0.366853564978
0.206354275346
0.819516956806
-0.0802015513182
0.0512886717916
0.24642509222
0.573186457157
0.0439753010869
-0.144222065806
0.602746725082
0.042979914695
-0.23531113565
0.972927033901
0.296928852797
0.251168698072
-0.261511564255
-0.6010607481
0.288628429174
0.997508764267
0.440616846085
0.405995845795
0.917361617088
0.141803845763
1.2355235815
-0.294083684683
1.28451275826
1.1251989603
0.516289412975
1.49637305737
0.463725030422
1.43166232109
0.488600194454
1.60980165005
-0.327215015888
0.818669855595
-0.132385849953
0.894259691238
-0.796476781368
-0.79913777113
-0.478949308395
-0.954509854317
0.0813218429685
0.0524619407952
0.709152638912
-0.249424010515
0.424445360899
-0.335065662861
0.341325551271
-0.228570282459
1.00598549843
0.76695895195
-0.403706938028
-1.0134049654
-0.164076715708
0.254329830408
0.809052944183
0.45858040452
0.661502182484
-0.307078391314
-0.261718720198
0.0279197935015
-0.217927396297
-0.837329387665
-0.0917018502951
-0.316914469004
0.210950508714
-0.0972340703011
-0.478938609362
-0.249134197831
0.0128475930542
-0.473161548376
-1.0311858654
0.262258261442
1.02003157139
-0.248262628913
-0.537402510643
0.463438361883
-0.632903337479
0.73166590929
-0.422369271517
0.38742607832
0.895815610886
-0.652607142925
-0.242863401771
-0.70750361681
0.72172832489
-1.44186770916
-0.733250796795
-0.0423246212304
1.02502965927
-0.801234602928
0.10091650486
0.795215189457
-0.120460636914
0.367626518011
-0.697727143764
0.0329425185919
-0.338481336832
-0.100281111896
-0.618242204189
-0.695082306862
0.772830545902
0.0336111783981
0.0276856422424
0.0301261525601
0.335235327482
-0.625728130341
0.312706321478
-0.070090688765
-0.359118908644
-0.586835622787
-0.760757863522
0.556784629822
-0.791388571262
-0.980976045132
0.0208339467645
-0.0666970908642
-0.43646889925
-0.0843761190772
-1.04672515392
0.541579067707
-0.213902190328
-0.283678859472
-0.359858572483
1.03509640694
-0.383158236742
-0.27790209651
0.807577908039
0.0517163425684
1.07007646561
-0.525545537472
0.341988146305
-0.460467338562
-0.109454512596
-0.278169363737
1.36924374104
1.25702428818
0.78456902504
-0.33071860671
0.855866551399
-0.281806111336
0.330882817507
1.41040432453
0.170179113746
0.768582284451
-0.0833855643868
-1.15125477314
-0.0606558658183
0.406937450171
0.972975194454
0.392806589603
0.480890661478
0.43570369482
-0.968717396259
-0.251026451588
-0.152909040451
0.635812580585
-0.0842376723886
-0.164308667183
-0.246069699526
-0.935979008675
-0.593593537807
-0.922808647156
0.0406164042652
0.546201765537
-0.180300042033
-1.52903592587
-0.289253652096
0.525276482105
0.205788448453
-0.802847266197
-0.502251923084
0.590865194798
-0.48335391283
0.0554811805487
-0.488799482584
1.14017748833
0.504102826118
-0.909957289696
0.639853060246
0.795192301273
-1.46467864513
-1.83574271202
1.34195101261
0.434141367674
-1.20950257778
-0.216101899743
0.380505859852
0.458190023899
0.13900564611
-0.801022291183
1.12624800205
0.546884059906
-0.0503610894084
0.185767516494
0.243241071701
0.766813755035
0.742575705051
-0.0465775690973
0.820627570152
-0.153564721346
-0.304575175047
0.145915716887
0.0796251446009
0.622966825962
0.562870919704
0.303652733564
0.584912121296
0.653859853745
-0.92502874136
0.286508083344
-0.299808263779
0.828268110752
0.551276147366
-0.269846081734
-0.598483145237
0.773979783058
0.81588113308
0.373470544815
1.29350960255
-0.94227284193
-0.00524147506803
0.795082390308
-0.224365800619
-0.0806222856045
-0.215485423803
-0.0924145430326
0.697033703327
0.485169887543
0.118809126318
0.706955730915
-0.0690671429038
1.54222142696
0.104026645422
1.22501623631
0.250795990229
0.391378343105
-0.319391399622
-0.95671838522
0.0517520084977
0.838056862354
0.69506418705
-0.608255445957
1.34507548809
0.362203449011
0.746631026268
0.148454219103
0.599072813988
0.0395224839449
-0.166581213474
-0.455208986998
1.02642977238
0.531615614891
-0.323208898306
1.01619935036
0.75745344162
-0.602367162704
0.257273465395
0.0796687826514
-0.170715421438
0.304746061563
0.110628657043
-0.56004434824
0.126956492662
-0.933769643307
-0.63820707798
0.293191552162
-0.141830950975
0.427450031042
-0.665650904179
-0.592944562435
-1.22171545029
-0.180159315467
-0.584394216537
-0.339804232121
0.640580296516
-0.391905277967
-0.712163984776
0.83159828186
0.27020585537
0.923940479755
0.720423161983
-1.10046768188
0.444983512163
-0.171371772885
0.546901464462
0.902215123177
0.518642902374
-0.280154168606
-0.0765793323517
0.923197805882
0.17540602386
0.848244845867
1.42359149456
0.396204948425
0.38453862071
-0.235109746456
-0.950362861156
0.0479967519641
-0.707199037075
-1.0139439106
-0.761139392853
-1.15218889713
-1.39122188091
0.205250397325
-0.921817839146
-0.613821089268
0.338108658791
-0.78436422348
-0.0235571227968
-0.121019899845
1.13602375984
-0.12811768055
0.271772146225
-0.201979324222
0.381726175547
-0.00796639267355
-0.0921107158065
-0.305380105972
-0.0409099124372
0.501757442951
-0.0338889434934
-0.367236554623
0.00881339609623
0.864434361458
-1.04528784752
-0.27453354001
0.0925189331174
0.841261565685
-0.214867457747
-0.240941137075
-0.142683535814
1.34537553787
-0.218459844589
-0.637202501297
0.0512617975473
0.255281418562
0.718521893024
-0.827746629715
0.603443741798
-0.141281366348
-0.324989885092
0.586598336697
-0.0296832509339
-1.37468039989
-0.0995261073112
-1.16021132469
-0.276151746511
1.21816277504
-0.116059668362
-0.661484658718
0.836275517941
-0.360723555088
-0.789354979992
0.533414363861
0.176374644041
0.837436318398
0.0611251890659
-1.70324957371
0.303274273872
0.133910447359
-1.08467411995
0.546544015408
-0.348532676697
0.146899208426
-0.34976169467
0.928227782249
0.54530441761
-0.560807824135
0.120815940201
1.06784939766
0.0285286623985
0.0499547049403
0.462004780769
0.266363829374
0.907623291016
-0.406469762325
1.60365056992
1.50224494934
0.0445660836995
0.311117440462
0.101879537106
-1.1091221571
0.530307173729
0.347399890423
-0.241797789931
1.17062366009
-1.02775752544
-0.443582028151
0.709120929241
0.233115121722
-0.0359974727035
0.0579987429082
-0.599146604538
0.498468399048
-0.284247517586
-1.15615689754
0.0721718072891
-0.387538701296
0.0619890242815
-0.57582205534
-0.218183159828
-0.241611987352
0.225106447935
-1.14898252487
0.35113877058
0.329526335001
-0.455382347107
-0.328780651093
-1.18849170208
0.481920272112
-0.403693497181
-0.445346981287
-0.344768881798
0.629195928574
-0.204102277756
-0.674637377262
0.351003736258
1.5559772253
-0.00208945618942
0.609191060066
0.5077932477
-0.155792549253
0.846579790115
-0.688964426517
0.236554428935
-0.225082963705
-0.874806582928
-0.686941027641
0.0414833426476
0.437380373478
-0.844863057137
-0.461518645287
0.716917276382
0.375252783298
-0.541313529015
0.295220196247
-0.721305131912
-0.780143022537
0.396935254335
-0.839318156242
0.38088837266
0.346103996038
0.342104792595
0.172843441367
0.311500787735
-0.583538353443
0.319973230362
0.738975822926
0.170204997063
1.20401787758
-0.316409856081
-0.422049432993
0.321783304214
-0.240473926067
0.0228380262852
-0.922604501247
-0.392065525055
-0.789762616158
-0.684891939163
-0.345520108938
-0.114761590958
0.928770720959
0.627967238426
1.25580894947
0.623919487
-0.597550392151
0.282922416925
1.07411336899
0.159870445728
-0.00558123411611
-0.267107844353
0.944375634193
0.134433880448
-0.929859519005
0.30532938242
-0.765690028667
-0.279427409172
-0.995586812496
0.15905418992
0.290437072515
0.411938428879
0.421609580517
-0.230385780334
0.546502113342
0.0804705545306
-0.575913846493
-0.103157296777
0.791097819805
0.483052402735
0.725936591625
-0.0187560152262
-0.571682631969
0.488105207682
0.951563179493
1.03136491776
0.953650593758
-0.837639033794
-0.973188042641
0.531375706196
0.246051833034
0.703786373138
-0.423637390137
1.16452026367
0.139093741775
0.240871891379
0.0489291250706
-0.555276453495
0.729235291481
0.202586293221
0.187664031982
0.175955459476
-1.06145942211
-0.0195508878678
-1.13848483562
0.163327693939
-0.250584065914
-0.514913022518
0.34519174695
0.139145448804
-0.301992297173
-1.02670741081
-0.72890073061
-0.285147845745
0.749534249306
-0.687875986099
0.394517302513
-0.130943760276
-0.217782840133
0.365815967321
0.778942584991
-0.171876296401
0.379133403301
-0.330572724342
-0.6730017066
-0.112014219165
-0.170215204358
-1.26406502724
-0.70180618763
-0.695823729038
-1.95360076427
-0.407347679138
0.702040851116
-0.422550320625
0.483739942312
-1.01861488819
-0.374234437943
0.947616279125
-0.598540782928
0.146885156631
0.0627554431558
0.64945268631
0.420837312937
-0.339233607054
-1.08795201778
-1.1664904356
-0.604061663151
-0.743342399597
-0.624943614006
0.833311617374
-0.653737366199
0.549537420273
0.561948120594
-0.0742342174053
0.446974933147
0.52235686779
0.413938164711
1.69305074215
0.277562171221
-0.362114071846
-0.365728110075
-0.479535609484
1.10350084305
0.1253387779
0.669888854027
0.213049188256
0.80100518465
0.704285860062
-0.0762857496738
0.88214880228
0.515595376492
-0.111772298813
-0.577571749687
-0.0277629233897
-0.408009976149
0.357805520296
-0.589761137962
-0.779784560204
0.480488717556
0.469303071499
-0.65369707346
-0.829660773277
-0.851279735565
0.635576486588
-0.85808545351
0.254900962114
-0.000354266026989
0.221386224031
-0.566002309322
-0.852973997593
-0.732850313187
-1.27135550976
-0.223972842097
-0.351420968771
-0.932501852512
0.410124659538
0.226565480232
-1.19799888134
0.256720662117
0.264464557171
1.02652013302
1.32677364349
0.128058716655
0.526117384434
0.814859569073
-0.412127882242
0.202397078276
0.150396302342
-0.398313552141
-0.498317331076
-0.187063038349
-0.364751905203
-0.271654605865
0.134380966425
1.21745812893
0.0463081821799
1.9315328598
0.234177112579
-0.302849769592
0.5194439888
1.00431859493
0.397782027721
0.0206899549812
-1.39553511143
0.126505002379
0.434504777193
-1.59464645386
0.850635409355
0.477349787951
-1.21323168278
-0.660591483116
-0.321901082993
-1.08538615704
0.20455622673
0.151713252068
-0.00656667444855
-0.469656139612
-0.89896607399
1.12589633465
0.910844564438
0.290950447321
0.0169214308262
0.92536097765
0.562839686871
-0.876022040844
1.19641757011
0.988466858864
0.0279421061277
-0.517077147961
1.03753650188
0.780756354332
0.00572054926306
0.763353049755
0.296101182699
1.31271600723
-0.14740370214
0.999442100525
-0.0635730028152
0.502141714096
0.162757769227
-0.460654139519
0.280543237925
0.86152857542
-0.53519141674
-0.626094996929
1.06969451904
1.07696688175
0.517023563385
0.095693692565
-0.665375292301
0.300637334585
0.13534873724
0.732072412968
-0.0141601599753
0.475394099951
-0.34082236886
-0.712698400021
0.752160072327
-0.12186010927
1.32054150105
-0.336603224277
0.740492582321
0.0210220832378
0.449185162783
-0.526328861713
-0.347381949425
0.901124119759
0.375505298376
0.917562007904
0.794857561588
0.529069542885
0.0786901935935
0.456460118294
-0.365190982819
-0.918156802654
0.907768905163
-0.109724931419
0.833589911461
0.12123696506
-0.705332696438
0.670395433903
0.0252810809761
0.453351020813
-0.445413440466
1.18931043148
-0.48786213994
0.193365231156
-0.0407687686384
0.00313020939939
-0.629873156548
0.139307796955
-0.0894757211208
-0.463220983744
-0.947623491287
-0.462851375341
-0.715890824795
0.278401046991
0.356081575155
-0.0987645462155
0.393369466066
-1.21279060841
-1.46670794487
0.519312977791
-0.918721735477
0.603418886662
0.819655358791
0.331107348204
1.39315724373
0.763102293015
-0.517494618893
0.397629141808
0.789905488491
0.561052501202
-1.09458827972
-0.000436232658103
0.8236104846
-0.387799501419
1.08513879776
0.360533714294
-0.680526554585
0.622701108456
-0.294909775257
0.343291014433
0.361714214087
1.38760173321
-0.610041737556
0.167955741286
-1.67774105072
-0.0988507419825
0.64482319355
-0.405529737473
0.584458947182
-0.717311322689
0.61604487896
-0.0829150304198
-0.844252943993
-0.499289363623
0.426619261503
0.344962745905
0.225429579616
0.357166796923
-0.335636883974
0.522604763508
-0.745276093483
-0.0451878122985
-0.23971478641
0.376532673836
-0.245365127921
0.428428441286
-0.638783097267
-0.881866276264
-0.129500418901
0.732276618481
0.0435494408011
-0.647111654282
0.780939996243
0.648462712765
1.03000557423
-1.23256468773
-0.321052730083
0.486416041851
-0.787014603615
0.206701487303
-0.91714900732
-0.542559325695
-0.736568152905
-0.683602333069
-0.01023093611
0.446479707956
-1.34849834442
-1.78206169605
-0.335696458817
0.514519393444
0.198562175035
-0.852671027184
-0.287230670452
-0.841649591923
-0.543237686157
-0.125186696649
0.69419080019
-0.123651839793
0.12067245692
-0.557177066803
0.924070119858
0.00280335079879
-0.93199211359
-0.876746416092
-0.122326411307
0.422216773033
-1.37479782104
0.558854341507
-0.583667516708
-1.13506639004
-0.225013449788
0.403721868992
0.490030139685
0.359430849552
0.0651916414499
-0.28432944417
0.419616043568
0.81380879879
0.0779618024826
0.31487518549
-0.313413202763
-0.264393270016
0.333817303181
-0.443907260895
0.159649297595
0.904237747192
0.31340649724
-0.23575411737
0.709582924843
-0.402248471975
-0.147578433156
1.3074246645
0.508187532425
0.450000464916
-0.657138168812
0.687410473824
-0.171363040805
1.33751904964
0.290291190147
0.187951505184
0.690338850021
-0.690807342529
-0.406221270561
-0.447937488556
-0.42609795928
-0.800096929073
-0.18693266809
-0.820405781269
0.70917057991
0.558125078678
0.0486645326018
0.451279401779
0.470264971256
1.14774346352
0.650813341141
-0.0328080765903
0.550728678703
-0.224683955312
0.790266752243
0.48350957036
0.528976142406
0.276776522398
-0.444582045078
-0.737486064434
-0.300719738007
-0.344158917665
-0.530787587166
-0.258348762989
-0.663660347462
-0.632202923298
-1.27075624466
-0.181477561593
0.0976147800684
-0.101640298963
0.1823695153
0.86594581604
0.756774961948
-0.0990564823151
-0.0781036391854
-0.755416452885
-0.254620343447
-0.350482970476
0.0193164627999
-1.04122042656
0.371984213591
-0.72240871191
0.152427837253
0.702288091183
-1.00799417496
0.626740634441
0.665985226631
-1.41444933414
0.708541989326
-0.00299026514404
-1.04677927494
0.0130549985915
-0.00437573483214
-1.41739976406
0.113805837929
0.608862400055
0.690446972847
-0.533123552799
-0.460592061281
0.0663972720504
-1.39572048187
-0.467274427414
-0.613445937634
0.615696370602
-0.955592274666
0.0123986452818
-0.600343465805
0.355287522078
-0.770271956921
-0.0598812252283
0.955040574074
-0.597497403622
-1.21698045731
-0.215581789613
0.671261489391
-0.550216376781
-1.25558030605
0.0511846877635
0.486012458801
0.76556289196
0.975274860859
0.919627428055
1.03133606911
0.634789705276
0.0179292764515
0.198254078627
0.38203176856
0.438001453876
0.413322627544
-0.823025107384
0.705911934376
0.930308759212
-0.629145681858
0.91329407692
1.21303296089
-1.17513310909
0.925125837326
0.518967449665
0.591365695
-0.0611980333924
-0.714191734791
0.207514584064
0.809751331806
0.466162115335
-0.74159258604
-0.0586614087224
0.222068428993
1.03035223484
0.735014081001
0.655212163925
0.371804445982
-0.960169136524
0.230430573225
-0.0850451514125
-0.734439849854
-0.834113895893
0.140528187156
1.19712126255
-0.229873076081
0.736076116562
0.30967232585
-0.0359645374119
-0.170543476939
0.497908443213
1.24799323082
0.289300441742
-0.511550486088
0.148284733295
0.597434341908
0.0494787357748
-0.396167218685
0.620108544827
1.44659948349
-1.07524740696
-0.0312488004565
-0.128186225891
0.0384796671569
-0.27032238245
0.241135388613
1.2501667738
1.01920306683
0.559558868408
0.939374983311
0.84929138422
0.465233206749
0.363986879587
0.912238895893
-0.756158947945
-0.575543284416
-0.993574857712
0.283412307501
-0.258580327034
-0.514688849449
1.51027667522
0.761953771114
0.0546418204904
0.102707736194
-0.260062098503
-0.42466172576
1.12957453728
-1.92180848122
0.671892404556
1.33609926701
0.956783056259
1.39568269253
-1.01830518246
0.475943505764
-0.976798117161
-0.737582623959
-0.455679357052
0.074969664216
-0.538669168949
0.478230595589
-0.74807626009
-0.465573519468
0.0215827524662
-0.0279686897993
0.168353319168
0.521220505238
0.623725891113
0.335296452045
-0.33966088295
-0.126904293895
-0.515810787678
0.479525566101
0.860360980034
0.774316132069
-0.398265123367
0.196245610714
0.621287941933
-0.0390489138663
0.404386371374
0.384055674076
-0.0775638595223
-0.179661527276
-0.25982734561
0.468613058329
0.124702066183
0.999311864376
-1.13744306564
-0.619285345078
-0.116953499615
1.10945022106
0.784079313278
1.13058722019
-0.204415008426
0.00797113403678
0.923235177994
0.036919772625
-0.924051046371
-0.100035585463
-0.600519835949
0.152723923326
-0.870787680149
1.1719865799
-0.50635433197
-0.199474856257
0.631087958813
-0.305439293385
1.33221971989
-0.900690078735
-0.0334621816874
-0.0890769213438
0.147642537951
-0.346800118685
0.41980907321
-0.261081874371
-0.937154114246
0.712919771671
-0.101718991995
0.302886992693
-0.764970302582
0.178154632449
-0.0399236865342
-0.0319661833346
0.0717266947031
-0.336735546589
0.649301230907
0.286711215973
0.718140721321
-0.370971649885
-0.717682182789
0.413390696049
-0.560114145279
0.101720288396
0.089024528861
-0.0419519506395
-1.67733848095
0.583158433437
-0.773447394371
-0.0107303373516
-0.438158929348
0.721705138683
0.137120872736
-0.425825089216
0.20090033114
0.980852007866
0.930315494537
-0.463038921356
-0.585732221603
-0.214396029711
0.175446674228
-0.601784169674
-0.185279607773
-1.11514270306
0.388366490602
-0.43312343955
-1.01441180706
-0.467904895544
-0.732190966606
0.166844457388
-0.492659687996
0.849613428116
0.220943525434
0.0704446136951
-0.41706058383
-0.408968299627
1.21731650829
-0.13069717586
0.730858445168
0.385518878698
0.143334001303
-0.763802349567
-0.652781784534
-0.194766864181
1.0071965456
0.157551229
-0.373443692923
0.230012029409
-0.723860323429
-0.830796539783
0.28595289588
-0.661212742329
0.505054175854
-0.620138943195
0.348363369703
-1.14492619038
-0.979146420956
-0.256012171507
0.607016801834
0.593310773373
-0.0288376770914
-0.548322319984
0.83735781908
1.12036204338
-0.299452662468
0.324562817812
-0.460999488831
0.0316996797919
-0.508769273758
0.321816414595
0.304849743843
0.679514944553
-0.301522701979
-0.139130175114
0.684344351292
0.127692505717
0.946541965008
1.26902163029
0.979531645775
0.297489523888
-0.0509742237628
-0.674362361431
0.290273427963
1.26269745827
-0.826909542084
-0.0437664054334
0.262668132782
0.0272172614932
-0.027539210394
0.0798230990767
-0.58963149786
0.440827935934
-0.174904048443
-1.14965820312
-0.194025620818
-1.44380235672
0.0355637744069
-0.590461850166
0.940012991428
1.32748007774
0.113430224359
1.35076153278
-0.621020317078
0.671613812447
-1.61975932121
0.345239698887
-0.43187379837
0.0898431390524
-0.245886057615
-0.358053088188
0.514457762241
-0.563795506954
0.0141497030854
-0.941801071167
0.2557900846
0.657689511776
0.715013742447
0.0909799784422
-1.2806199789
-0.980118751526
-0.958084344864
-0.724870920181
-0.356329381466
-0.643565714359
-0.279037535191
-0.492352694273
-0.3307030797
-1.04459607601
0.436435103416
-0.553752839565
-1.10343277454
1.17584455013
-0.50442481041
0.633267581463
0.846861898899
-0.0137626966462
0.0808016955853
-0.485649675131
0.3542740345
0.277372270823
1.30890750885
-0.0965683162212
-0.326275587082
-1.00332438946
-0.128311172128
-0.937686145306
-0.352148234844
0.09448325634
-0.12172678113
-0.0877228751779
0.848897218704
-0.491975843906
0.567535459995
0.379170656204
0.810324788094
0.490201920271
0.885702967644
0.576916098595
-0.240962192416
0.135328456759
-0.0641251951456
0.259180754423
0.0506825111806
0.319141477346
-0.090877622366
-0.613218605518
0.664127290249
-0.900117993355
-1.03752028942
0.290800333023
-0.462528705597
-0.725572884083
1.05943214893
-0.842077851295
0.15086388588
0.636614620686
-0.457363963127
0.604106724262
-0.500922560692
-0.726747632027
0.712414562702
-0.068846270442
0.336099743843
0.438402920961
-0.282605051994
-1.37911677361
-0.165120795369
0.779261052608
1.2409632206
-1.14099359512
-0.434365093708
-1.22889792919
-1.07443809509
0.374090284109
-1.75188112259
-0.0474718883634
-1.66388893127
0.786097705364
-0.667558193207
-0.0530250035226
0.303621083498
1.45214056969
-0.205699071288
-0.62915366888
0.505363941193
1.38687241077
-0.486535578966
0.38920879364
0.409487038851
0.255753934383
-0.640587329865
-0.670396029949
-0.777273416519
-0.229739144444
-0.849404513836
-0.805169701576
-0.152112796903
0.558583974838
-0.201157957315
0.513680160046
0.51170372963
-0.568987369537
-0.129089280963
-0.0268930159509
-0.167602449656
0.0220732856542
-0.928388953209
-0.691791772842
0.269027888775
1.41626751423
0.0614024810493
-0.577489376068
0.651330173016
0.193407982588
1.21481537819
-0.668372750282
1.20272219181
-1.01061856747
0.767471551895
-0.480040162802
0.476647049189
-0.867663443089
-0.590005099773
-0.327561050653
0.197110518813
0.491649419069
-0.135100975633
0.129387497902
-0.486160993576
-0.826241314411
0.491299986839
0.628194272518
0.607106089592
-0.0333017520607
1.12365651131
0.708584547043
0.146716058254
0.148192718625
-0.786365807056
-0.0342887155712
-0.510166227818
0.278259992599
0.651418566704
-0.159659579396
-0.603368699551
0.287887096405
0.431128442287
-0.00767179019749
0.00971634220332
0.36455565691
1.04702174664
-0.341816008091
0.339589565992
0.37511241436
-0.640477955341
-0.721010029316
-0.405404597521
-1.20177042484
-0.525304198265
-0.447345286608
0.506608903408
-0.145536333323
0.12043056637
-0.873893260956
0.976688027382
0.361929386854
0.448222875595
0.160423606634
0.660606086254
0.195223420858
0.609569847584
-0.1477098912
-0.0706124678254
1.067502141
-0.218011200428
0.887126863003
-0.0943228825927
-0.163149759173
0.172167062759
0.498317569494
-0.201969638467
0.705040276051
0.668195605278
1.35376429558
0.252135902643
0.0838957205415
-0.00772352982312
0.267483770847
-0.306228965521
-0.0601755008101
0.166006699204
-0.0330861099064
0.309360563755
0.775635004044
0.771479666233
0.0241408590227
-0.245684072375
0.682775735855
0.243213504553
-0.315803647041
0.695416629314
0.219890579581
0.661359012127
-0.407598048449
-0.149525389075
0.963968455791
0.761674106121
-0.779180109501
-1.24578428268
0.484032660723
0.0986087694764
0.381856262684
-0.76787084341
0.0508599467576
-0.618285417557
-0.45318877697
1.52522075176
0.385701596737
1.11592280865
-0.176586404443
0.727598786354
0.624082267284
0.474870026112
1.15625965595
0.806243002415
0.112968876958
0.610126316547
0.548179447651
-0.717205703259
1.43485593796
-0.35232052207
0.172130152583
0.21728220582
-0.5727186203
0.294900655746
0.640573084354
-0.619294404984
0.0966969430447
1.7932138443
-0.366726756096
0.711362242699
0.22808855772
-0.959049284458
-0.216901957989
-0.0730545222759
-0.442548841238
0.237176120281
0.0594028681517
-1.43632829189
-0.0798235833645
1.21325385571
-0.0284317974001
1.18709421158
0.438138395548
0.170228436589
0.421614348888
0.554526984692
0.903582453728
0.56555390358
-0.127244457603
0.29906386137
0.294938147068
1.10311412811
0.835865736008
1.24488186836
0.834787666798
0.0144371269271
0.751971900463
0.639617621899
-0.68534809351
-0.882645964622
0.44438791275
-0.890137076378
0.142710790038
-0.545719921589
-1.54626059532
-0.342440754175
-0.494288176298
0.465842664242
-0.488286197186
0.0450743548572
-0.630456328392
-0.15721309185
-0.884080708027
-0.26943552494
-0.0695352703333
-0.689889371395
0.368638634682
-0.312066167593
0.625966787338
-0.249366775155
-0.369087159634
0.328422516584
-0.191099971533
0.180296778679
-0.857109069824
0.238140627742
-0.0963544622064
-0.123040683568
0.538427174091
-0.0722860246897
-0.133591324091
-0.224177077413
1.47800862789
-1.20054376125
0.789657115936
-0.174908086658
1.07317578793
-0.131309390068
-0.354098051786
-0.901263296604
0.212792396545
-0.151999920607
-0.499256581068
0.648268580437
-0.501388132572
-0.628329157829
-0.866368293762
0.325513184071
-0.467397928238
-0.0883446410298
-0.972304701805
-0.178989693522
-1.13293898106
-1.02827847004
0.484172284603
-0.0509807616472
0.473362535238
1.46085202694
0.155364587903
0.0612701661885
0.988818526268
-0.251969605684
0.372185200453
-0.245997816324
-1.48502409458
0.276039093733
-0.611432254314
-0.75081461668
-0.0187410339713
-0.553625524044
-0.324116498232
-0.11871585995
-1.02866244316
0.90714687109
-0.197852537036
0.507613420486
-1.16983664036
-0.106682032347
0.192383795977
0.152520909905
0.667140781879
0.484079092741
-0.950543284416
0.443107783794
-0.675481617451
1.69443356991
-0.0398729369044
0.837785542011
-0.861099421978
0.44857108593
-0.119217582047
0.525050342083
1.33222603798
1.99867522717
-0.0398080870509
-0.500512182713
-0.171680942178
-0.426122665405
-0.962704539299
-0.0935953333974
0.0343478322029
0.623924076557
0.570414543152
-0.274609595537
-0.0536650344729
0.70742726326
-0.65928953886
-1.02671861649
-0.127455160022
-1.20587682724
0.528811454773
-0.240394726396
-0.0871833488345
0.646305084229
0.686873018742
-1.09300947189
0.608546078205
-1.55786645412
-0.937362849712
0.33563759923
0.794286131859
-0.556468248367
0.0914982035756
-0.386676162481
1.34414553642
-0.278012514114
-0.00686221383512
1.25216078758
1.50524640083
0.0387190133333
-0.066676825285
-0.073473520577
-1.39115738869
-0.191280037165
-0.0716290324926
0.626953601837
-1.13137221336
0.110847562551
0.24513836205
0.63231408596
0.338247388601
-0.298549324274
0.997340619564
-0.444880306721
-1.224629879
-0.253333628178
0.44160464406
0.0474016554654
0.416271299124
-1.26121354103
0.465297222137
-0.965150594711
-0.376879990101
0.440349072218
0.538345932961
-0.111219123006
-0.760105609894
-1.57753622532
-0.772125661373
0.912016570568
-0.903812885284
0.312403321266
0.373774886131
0.571016848087
0.209454074502
0.438782691956
0.615506291389
0.793528676033
0.407974779606
-0.762174546719
-0.181530594826
0.418702304363
0.308137357235
0.0235014185309
0.0371714681387
0.770595550537
0.996469140053
-0.0638953670859
-0.211322933435
0.124217316508
-0.326202452183
-1.32022511959
-0.668221235275
-0.215928152204
0.0539013743401
-0.780272364616
0.229349657893
0.600860476494
-0.918067753315
-0.532198250294
-0.219468265772
-0.524075448513
-0.353478372097
-0.0226312577724
-0.801476597786
-0.583214938641
-0.990441322327
-1.01099765301
0.677134335041
0.853552103043
0.689208984375
-0.378422886133
-0.39798656106
-0.87848430872
-0.344629466534
-0.208084598184
0.0561710521579
0.753866434097
-0.94514477253
-0.937164127827
-0.513544440269
0.805010855198
0.661605298519
-0.364541918039
-0.114718519151
0.347703009844
1.23830735683
-0.275377213955
0.912751972675
-0.407014876604
-0.60802167654
-0.290084630251
-0.360728502274
0.30090084672
-0.16568954289
-1.15872502327
-0.823034226894
-1.20791602135
-1.0952450037
-0.14448146522
0.270501762629
-0.942914009094
-0.273122519255
0.573020875454
-0.167116731405
0.474586993456
0.0223210267723
0.581673204899
-0.346404582262
0.266725748777
-0.154610827565
0.5670992136
0.026567818597
-0.782133102417
-0.903835773468
-0.115650825202
0.147958278656
-1.07101631165
0.584641218185
0.222960293293
-0.333682894707
0.656096160412
0.731465995312
0.823361158371
0.464212864637
0.188900336623
-0.394974738359
1.20336282253
0.536118865013
-0.207999244332
-0.448632478714
0.788308441639
-0.41604617238
0.139858752489
0.501252532005
-0.205589473248
0.489438176155
-0.897181034088
1.13006579876
0.0893843993545
-0.0549250617623
-1.34569883347
-0.0630746036768
0.319847226143
0.0232148151845
0.484113156796
0.379108637571
0.177071139216
-0.559466958046
0.144260346889
-0.171364605427
0.391697108746
1.07405161858
-0.59927123785
-0.366473972797
0.405099034309
-0.591724932194
-0.532105505466
0.48715570569
0.138004004955
0.666293084621
-0.86332654953
-0.303167432547
-0.0415333323181
0.224937751889
0.459405571222
-0.532239675522
0.42935603857
-1.11967170238
0.870422959328
0.255033731461
-0.455252468586
-0.648633897305
-0.796866416931
-0.189505591989
-0.952089548111
-0.572151303291
-0.747982919216
0.100464783609
-0.246676564217
-0.334273338318
0.00893187522888
-1.03867268562
1.41726911068
-0.855211079121
0.950210750103
-0.835503518581
-0.150397956371
0.37184637785
0.806491196156
0.302018046379
0.685286104679
-0.0552568398416
-0.346556723118
0.126061335206
0.434545189142
0.361419826746
-0.439016819
0.198216304183
0.439994245768
0.33239287138
-0.218758508563
1.03992545605
0.413573563099
0.300861388445
-0.0267028287053
0.0449107438326
0.669912576675
-0.367444872856
-0.371500879526
-0.0596364475787
0.189908504486
-0.41046127677
-0.483391344547
0.556832671165
-1.2731076479
-0.421276509762
-0.288161695004
-0.0647667944431
0.438874125481
0.0574473142624
-0.274649947882
1.51093578339
0.461416780949
-0.39747774601
1.23536431789
0.221133455634
-0.186556085944
0.921497583389
-0.922930121422
-0.796335875988
0.690847098827
-0.605419993401
-0.9618922472
-0.403231412172
-1.01587021351
0.186660423875
-0.0236261375248
1.14774429798
0.968781769276
1.33946478367
-0.742353022099
-1.17406654358
-0.149045288563
1.10502302647
1.1519497633
0.669010162354
0.39553847909
-0.53104364872
-0.132420301437
-0.0318978391588
0.0147255733609
-0.555446445942
-0.96807974577
-0.417078226805
-0.227178290486
-0.568275034428
0.729081451893
-0.431695461273
-0.108876004815
-0.285715579987
-0.837924361229
0.354030460119
-0.265068113804
-0.637101531029
1.46576762199
0.0624164007604
0.841450214386
-0.227741092443
-0.747812688351
0.553164184093
0.612934529781
-0.85622805357
-0.442255675793
0.262731462717
-0.844937562943
0.938201129436
-0.799738764763
-0.306423693895
-0.0316628739238
-0.69761878252
0.489739358425
0.430434316397
0.273238658905
-0.743233561516
-0.0496058873832
0.617689490318
0.258481323719
-0.280521869659
-0.855530560017
-0.928714036942
-0.615826964378
-1.11812591553
0.251698046923
1.06806957722
-1.00401246548
0.135309323668
0.10191834718
-0.674348056316
0.461345165968
-0.212593257427
0.877166092396
-0.611768722534
-1.21366000175
-1.25077188015
-0.0256029572338
0.609441459179
-0.332663983107
-0.0513130426407
-1.7619934082
1.47968435287
-0.403985530138
-0.812481880188
-0.51487660408
0.803484797478
-1.02464103699
-1.30301237106
-0.702153563499
-0.853788256645
0.630587637424
-0.00176413729787
0.111895613372
1.44223368168
0.189111411572
-1.32373976707
0.101711496711
-0.65066832304
-0.0766908153892
0.568532586098
0.106588788331
0.196539565921
0.62371212244
0.0864344462752
-0.135702759027
0.849287748337
0.31109726429
-0.261775135994
0.130646929145
-0.955955207348
-0.331136286259
-1.00277173519
0.653999686241
-0.211164593697
-0.00762173952535
0.570427000523
0.0383694432676
0.15826664865
-0.48366740346
1.32945132256
-0.276867896318
-0.398759096861
-0.442311376333
0.694661855698
0.215190380812
-0.61872625351
0.114508710802
-0.870428800583
0.131421118975
0.106612510979
0.539571225643
0.186645299196
-0.649789810181
-0.832344591618
-0.0712149888277
0.42289057374
-0.248038589954
-0.763089776039
0.151850864291
-0.490006148815
0.735174536705
-1.4697111845
-1.01500928402
-0.138600215316
0.000208360375836
-0.591112732887
0.361719936132
-0.115764394403
0.902361571789
0.00128626497462
-1.02847063541
0.581104576588
0.942505657673
0.513672828674
0.525593101978
0.475666642189
0.328016340733
0.22337718308
-0.43550363183
0.249953687191
1.40053427219
0.406571954489
-1.23835635185
-0.0910206213593
-0.280352294445
-0.639858782291
-0.523131608963
1.005433321
0.0603121072054
-0.3646094203
-0.444543778896
0.992216706276
0.627501785755
0.706588447094
-0.136252775788
0.262933552265
1.47736477852
-0.276680529118
0.0511852838099
0.2695325315
0.824460208416
-1.21860957146
0.165115222335
0.175444126129
0.389341145754
-1.43308210373
-0.437201440334
1.02642393112
0.886869251728
-0.692636728287
0.115482911468
1.35434401035
0.121149636805
-0.259636193514
-0.178251802921
1.24382865429
-0.643037855625
-1.62019824982
0.0829099491239
-0.429025381804
-0.104602828622
-0.881034076214
-0.106370121241
-1.45799899101
0.108810223639
-1.41484773159
-0.411479324102
0.854957699776
-1.28351593018
-0.203897044063
-0.531748592854
-1.14925897121
-0.413397789001
0.178660526872
-0.524489343166
0.175767451525
0.25782379508
0.441633969545
-0.181267872453
-0.0438075810671
-0.648989319801
-1.13852906227
0.524912416935
0.252425611019
-0.447118908167
0.533914208412
-0.231493711472
-0.750622928143
0.454711467028
0.511470198631
0.0598897114396
1.09284734726
0.818475663662
0.122301653028
-0.0948804393411
-0.212152346969
-0.380304813385
1.10624563694
1.28994500637
-0.137854397297
1.26999151707
-0.525798976421
-0.32715857029
1.13615918159
0.478903710842
0.330405205488
-0.195852860808
-0.0176781229675
0.0508205406368
-0.100116066635
-1.16839337349
-0.0167257580906
0.670414447784
-0.439496785402
0.238271698356
-1.02727258205
0.536504209042
-0.190785929561
-0.0290464237332
0.250834256411
0.550786018372
-0.335956931114
-0.889933884144
-0.735835671425
-0.440072834492
0.142023876309
0.577632725239
0.725536286831
-0.530374348164
0.747283697128
-0.811660170555
-0.0150824654847
1.09436261654
-0.0293260570616
0.252464473248
0.409530311823
0.00945623777807
1.0970916748
-0.0753167718649
0.084710329771
-1.71109545231
1.62264728546
-0.322123169899
-0.0392521806061
0.528386116028
-1.360673666
-0.206747412682
-1.58345615864
-0.0104729272425
0.432896226645
-0.522386074066
-1.07246601582
-0.402735620737
-0.0548188835382
0.696905314922
0.572328329086
-1.0938539505
-0.096741296351
-0.418086767197
-0.396775275469
0.966247737408
0.662116527557
0.06875641644
-0.091675773263
-0.449854522943
0.265632718801
0.171029239893
-0.0985848009586
0.276039093733
0.692597866058
-0.052492428571
-1.21489191055
0.746273577213
-0.261728554964
0.45956864953
-0.892448842525
-0.602570772171
-0.393949896097
-1.54329025745
-0.565906882286
-0.172767966986
0.541800737381
0.290242791176
0.124651826918
-0.409327745438
-1.00902092457
-0.268109321594
-0.875676810741
-0.466840654612
-0.497713804245
0.425644665956
1.30463778973
0.0780704021454
0.0437009334564
0.789510846138
-0.0410221666098
-0.385355561972
-1.34849703312
-0.58343988657
0.226631358266
0.228081703186
-0.825356066227
-0.507309854031
0.842852830887
-0.377605855465
0.0808554813266
0.425576359034
0.304406762123
0.379356026649
-0.146090462804
0.0351281911135
-0.0525467023253
-0.758225858212
0.462176263332
0.351792246103
-0.35865059495
-0.645790159702
-0.369951725006
0.183706715703
0.215208739042
1.06781768799
-0.959214270115
-0.627196133137
0.759860098362
0.84283220768
-0.578367292881
0.308753728867
0.288054049015
-0.516002774239
1.02516961098
0.297826766968
-0.990126729012
0.52513551712
-1.53150832653
-0.667651057243
0.317713171244
0.308894693851
-0.78893828392
-0.00911703705788
0.16406288743
-0.0672754272819
1.4638518095
-0.224349230528
0.367245972157
0.393031686544
-1.55915784836
1.03494393826
1.03161334991
-0.665790259838
-0.302231311798
-0.345498800278
-0.274897038937
-1.25002872944
-0.364284425974
-0.0878382772207
-0.34200245142
-0.756408989429
0.0353076532483
0.0668980553746
-0.739159047604
-0.368581175804
-0.0981426388025
0.0539180487394
-0.0643716752529
0.299285441637
0.470537006855
-0.609368920326
0.501866519451
-1.13987874985
0.0616550333798
-0.602869391441
0.26610776782
0.0910055562854
0.519536197186
-0.560998916626
-0.0566665232182
0.54265999794
0.269088864326
-0.320757389069
0.598750591278
0.16902127862
-0.535222828388
-0.168664708734
0.0353296399117
-1.02958679199
-0.0777921080589
0.00203954800963
0.860556900501
-1.34577846527
-0.0218955464661
0.523254036903
-0.456465989351
0.0958900675178
0.314071506262
-0.0954612120986
-0.3265427351
-0.534014821053
-1.66772794724
0.27341902256
0.879247128963
-0.0685515254736
-0.126029878855
0.558742702007
0.940079271793
1.33297181129
1.38828098774
0.643850147724
0.513446450233
0.51536154747
-0.160023182631
0.500595152378
-0.28744122386
-1.12419784069
-0.455069959164
0.230026692152
0.225605994463
-0.0487787090242
-0.927380084991
-0.518637776375
-1.52318120003
-0.780747652054
0.200979113579
-1.19324707985
-0.782594144344
-0.801196455956
-0.366766661406
0.360451132059
0.736735582352
-0.015318739228
-0.101264461875
-0.121223263443
-0.443279087543
0.133808270097
0.672666072845
0.115042082965
-0.477589905262
0.16996102035
-0.394304960966
0.313511669636
0.0277089960873
-0.169377699494
-0.752035856247
0.108121477067
0.251407206059
-0.158327415586
-0.249327465892
-0.545705497265
-0.741792857647
0.725799202919
0.136581733823
0.10510289669
-0.548865497112
-1.21496415138
-0.292873591185
0.0917077958584
-0.239537924528
-0.294585257769
-0.40881934762
-1.12918114662
0.185066029429
-0.552043020725
0.128776878119
0.023706221953
-0.0220163334161
0.612065553665
-0.102065585554
0.631827652454
0.130621254444
0.431822627783
-0.643823683262
0.174524471164
1.34589982033
-0.542734861374
0.398068219423
0.337712258101
0.600342273712
-0.0769157409668
-0.779527366161
-1.00815725327
0.915368556976
-0.866868376732
-1.09255194664
-0.147840812802
-0.0647555738688
0.517390549183
-0.231289952993
1.06769704819
0.188830569386
0.334248185158
-0.457709252834
0.676027178764
0.0531958974898
-0.258129805326
-0.565832912922
-0.790556192398
0.292568951845
-0.257869631052
-0.0689204409719
-0.231758579612
0.11152510345
-0.831616163254
0.295339882374
1.1360206604
1.3808567524
0.213741287589
0.268976509571
-0.0642162561417
-0.421214848757
0.984221637249
-0.641494214535
0.537061035633
-0.150724038482
1.38211762905
-0.446263551712
0.133488193154
-0.0209668278694
0.202347531915
0.636406004429
-0.295510470867
-0.223611146212
-0.222375780344
-1.14000606537
1.11050486565
-0.224263131618
-0.0248528439552
-0.0366325676441
-0.209605768323
0.522219359875
0.887168347836
0.564328849316
-0.169826209545
1.55459523201
0.852220654488
1.77124202251
-0.337833404541
0.364573121071
0.223407551646
1.0703959465
-0.729307413101
-0.978616535664
0.021576397121
0.98150742054
-0.8953794837
0.335742205381
1.18923091888
0.0477140806615
0.64373934269
-0.261675924063
-0.750686764717
0.37262699008
-0.501541733742
0.432395219803
-0.368920117617
-0.984258830547
-0.092871427536
0.300962001085
-0.65058606863
-0.322255909443
1.76607859135
-0.916868388653
-0.496963649988
-0.696541726589
-1.12203538418
0.469067752361
-0.156541377306
1.07035410404
0.337512671947
-0.187801524997
-1.24510550499
-0.41520896554
-0.128749772906
-0.216928049922
-0.174225136638
-1.21283984184
-1.77844214439
-0.288580209017
0.496658682823
0.0383687913418
-0.51688927412
0.166061878204
-0.78230458498
0.451830506325
0.0229712296277
-0.381192654371
-0.108368493617
-0.601484596729
-0.0847213193774
-0.595978438854
-0.557654201984
0.341877609491
1.13318490982
-0.0345635041595
0.869990587234
-0.296566575766
0.309403091669
0.392713755369
0.19015814364
0.188912928104
0.00653774570674
0.0173494983464
-1.17080712318
1.81871664524
-0.287360668182
0.205950587988
0.0286541357636
0.710564494133
0.261522710323
0.93333029747
-0.881674230099
-0.963427424431
-0.85715085268
-1.12245464325
0.102129250765
0.553445637226
-0.354337066412
-0.624901711941
-0.600534439087
-0.929814994335
0.267344802618
-0.710182726383
-0.231324672699
-0.936404049397
0.93639010191
-0.25531566143
-0.503250598907
-0.285818308592
-0.531293451786
-0.744127750397
-1.01432430744
-0.0309856906533
0.233515635133
-0.845903396606
-1.23105466366
-0.185444742441
-1.27593505383
-0.00228190980852
-0.438595920801
-0.717597305775
0.197376653552
-0.0116481194273
0.0566983856261
-0.175345361233
0.563700735569
-0.549707889557
0.788380086422
-1.32975804806
0.931240141392
-0.296931564808
-0.409579306841
0.464308351278
-0.865886867046
0.916419565678
0.822081983089
0.0592677667737
0.171093523502
0.274005889893
-0.0273033082485
-0.184379339218
0.8416056633
-0.852911412716
0.718046963215
-0.130270838737
-0.657158374786
-0.124766655266
0.868612647057
-0.968195140362
0.829624116421
0.188589662313
0.452452719212
1.47514247894
0.448040306568
0.176916956902
0.0312559455633
-0.123410083354
0.677322924137
0.766250371933
0.0985315144062
0.670608818531
-0.128073394299
-1.2246389389
-0.140917122364
-0.406423389912
0.121206387877
0.535017848015
-0.873401582241
-0.708962678909
-0.485567003489
0.738491594791
0.224300071597
1.10407090187
0.929304122925
0.10939194262
0.520269155502
0.0331877805293
0.203360259533
0.130813509226
0.341374725103
-0.570855379105
0.273892223835
0.822744429111
0.0259436890483
0.19954302907
0.666195690632
0.251173347235
1.26848506927
0.934959113598
0.690340042114
0.158063471317
-0.204157158732
-0.407673299313
-0.0876410454512
-1.37690162659
-0.822220146656
0.546693384647
-1.00136482716
-0.444780409336
-0.530711293221
0.423280209303
-0.248735740781
0.298392087221
0.142589300871
0.59161990881
0.399957478046
-0.538238942623
-0.863289177418
0.303662955761
-0.234543949366
0.477276980877
0.143709436059
0.498294621706
0.413596868515
0.310255616903
0.661450982094
0.363275885582
1.15726935863
0.498619049788
-0.165232598782
-0.355259656906
0.337948679924
-0.303227782249
0.605165302753
-0.2241320014
0.414594113827
-0.264485090971
-0.377982258797
-0.147149428725
0.574223160744
0.935287714005
-0.0740099474788
0.883429169655
0.129770338535
-0.202379688621
0.205241754651
-0.367494285107
-0.948671758175
0.00535582192242
-0.267556130886
-0.134696960449
0.685114383698
0.422178983688
0.620414316654
0.0377365499735
0.622846186161
0.292618274689
0.798766255379
0.348258256912
0.0478266887367
0.582832336426
-0.0215707048774
0.0843424350023
-0.44988951087
-0.898855745792
0.052623771131
-0.929274618626
-0.475326746702
-0.555204153061
-1.08157706261
0.0692730993032
-0.476584374905
-0.23544177413
0.0510140433908
0.120846353471
0.458326727152
0.204433828592
0.898862242699
0.56025493145
0.0593271665275
0.356478869915
1.44662618637
0.415744364262
0.079871147871
-0.21800416708
-1.20914506912
-0.342390447855
0.286422103643
0.868625640869
-0.13207270205
0.0496098585427
0.442629545927
-0.434030473232
-0.637118041515
-1.0998250246
1.11771428585
0.537027895451
0.467730671167
0.191860109568
0.690509974957
0.0357322618365
0.187178716063
0.816070079803
-0.60695374012
0.399992346764
-0.155813649297
-1.08387637138
0.352876842022
-0.232486054301
-0.741216242313
-0.304310709238
0.718485414982
1.23626184464
0.608342528343
-0.59327685833
0.297741800547
0.47693118453
-0.171808823943
0.607496619225
-0.597644031048
0.737459897995
-1.05250322819
0.875140190125
0.920787811279
0.70326513052
0.451886236668
-0.0553641058505
0.0140960887074
0.552445173264
1.15467691422
-0.106830783188
-0.0236039161682
0.458145588636
0.179451540112
-0.245342463255
-1.07613003254
0.860831320286
0.31902936101
-0.150631055236
0.159330010414
0.619836568832
0.878283381462
0.82428497076
0.111761271954
0.320925146341
0.488861650229
0.338828682899
1.42415606976
0.652525186539
-0.305763363838
0.897824287415
0.0276551544666
-0.982015669346
0.519280314445
-0.352042615414
-0.0667810961604
0.280912697315
0.324827551842
-0.36117425561
0.327926814556
-1.49610984325
-0.746101081371
-0.342820763588
-0.961800158024
-0.951328158379
-0.527876257896
0.420249283314
-1.09973037243
-0.167821034789
-0.347649782896
-0.307910144329
0.89243721962
-0.196610540152
-0.0425255149603
-0.258796215057
1.1405466795
-0.24539706111
0.211077287793
0.031145485118
-0.00710951071233
1.00671243668
0.760480046272
0.383997678757
0.369255781174
-0.129026114941
-1.09861040115
-0.407483041286
-0.956471741199
-0.996740818024
-0.669002890587
0.426008373499
-0.925814032555
-0.746627151966
-0.81938624382
-0.740510642529
-1.25757682323
-0.0792511403561
0.342202872038
0.195119842887
-1.37099051476
0.060100030154
-0.141975283623
0.294805854559
-0.207224369049
-0.224453449249
1.21787440777
0.329438120127
-0.0430456325412
0.564678966999
0.833338320255
-0.706991255283
-0.162289127707
-0.375836133957
0.55080217123
-0.00769598037004
-0.845996975899
-0.427389383316
-0.271659970284
-0.633874177933
-0.631292045116
0.676491618156
-0.0794402956963
-0.372552961111
0.547082483768
0.723851680756
-0.788023591042
0.733708262444
0.176413431764
-0.118303529918
0.368560433388
-0.442719399929
-0.655793607235
-0.411361783743
-1.07628011703
-0.705053269863
-0.356611996889
-0.675409972668
-0.653457820415
-0.00152748811524
-0.215772867203
-0.781492948532
-0.511739611626
0.472864419222
0.814159214497
0.484425991774
-0.265497714281
-0.178882092237
0.179406806827
1.04271292686
1.03211247921
0.530712783337
0.14095389843
-0.210969224572
-0.0958341136575
-0.0939499586821
-0.0170959625393
-0.0505308248103
0.493386894464
0.987851858139
-0.729439258575
0.0852487310767
0.58667075634
0.00379448523745
-0.610921144485
0.416904479265
0.0996803045273
1.06287336349
0.68401324749
-0.163989692926
0.494069725275
0.997024178505
-0.108183093369
0.352128595114
1.00579023361
-0.456159472466
0.110068440437
0.000781010370702
-1.00080573559
0.0323712676764
-0.523006379604
-0.469933331013
0.178028523922
-0.342440754175
-0.645294249058
-0.506846129894
-0.137694612145
-0.826203346252
0.880735635757
-0.279209643602
0.82396876812
-0.411995112896
0.00379550899379
0.25482365489
-0.659946382046
-0.000279415864497
-0.417721241713
-0.907246947289
-0.630747139454
-0.0469605959952
-1.10537338257
-0.403365045786
-0.529098510742
-0.83744508028
-0.110548138618
-0.380316674709
-0.872629165649
0.48397141695
0.566365361214
-0.345658242702
0.671292245388
-0.633991897106
-0.837105453014
0.50023651123
-0.151975929737
1.05401206017
-0.00237290887162
-0.0288347769529
-0.637322187424
-0.700282931328
0.348647683859
-0.0874979794025
1.07101607323
0.274590700865
-0.0666991397738
-0.878155171871
-0.0634158402681
0.240062192082
1.31764495373
1.32973992825
-0.0198703929782
0.490934640169
-0.739733636379
-1.1503623724
-0.294128060341
-0.635208368301
-0.495728313923
-1.25760424137
-1.73902845383
-1.77198302746
-0.907651722431
-1.34962046146
-0.564589858055
-0.288041263819
-0.579962313175
0.473594218493
-0.145822525024
0.683998584747
-1.03461039066
0.972829639912
1.41577005386
-0.823477327824
-0.762497603893
0.861587464809
0.379216343164
0.389432370663
0.200483575463
-0.146947339177
0.654396533966
-0.0601403526962
0.0877427235246
0.684111356735
-0.333874791861
0.420627951622
0.584293425083
-0.842715322971
-0.0772902220488
-0.394760459661
-0.547833263874
-0.328957527876
0.645024836063
-1.4434671402
0.902805805206
0.606975793839
1.0445971489
0.326318025589
-0.870056271553
0.608118593693
0.570693194866
0.789637386799
1.00286233425
0.274199336767
-0.348151683807
-0.0996137037873
0.383549332619
-0.543303489685
-0.155290991068
-0.256236612797
-0.106463164091
0.448519527912
1.3365997076
-1.0919380188
-0.774011552334
-1.25928175449
0.134413763881
-0.329402297735
-0.329547733068
-0.078481964767
-0.299286842346
0.0386739000678
-0.211909323931
-0.861710965633
0.839873254299
-0.385886162519
0.60568934679
-0.000762998533901
0.896558225155
0.131360188127
-0.987343788147
0.270721524954
-0.99024194479
0.282021462917
-0.962311148643
-0.532880485058
-0.775510549545
-0.119548156857
0.0476656220853
-1.18949520588
-0.730339944363
-0.840898394585
0.0850836336613
-0.684040129185
0.625425457954
0.932750344276
0.753281831741
-0.0608529932797
0.639626741409
-0.196163251996
-0.740474820137
0.413804650307
-0.316936790943
0.5942517519
0.98463332653
-0.408674269915
-0.262207537889
1.00554394722
0.4049474895
0.652245402336
0.511442959309
-0.0991187989712
0.344414323568
0.786819934845
-0.699419379234
0.735253930092
-0.41300329566
0.0460333228111
0.13065341115
-0.607385694981
0.113674022257
0.490937232971
0.804413735867
-0.411287099123
0.829903662205
0.363399446011
1.0353833437
0.944131970406
-0.283666163683
0.132683977485
0.602946579456
0.267373472452
-0.644386827946
-0.768374204636
-0.803923606873
-0.602390348911
-1.24733233452
0.0383244007826
-0.375027418137
-0.00577459391207
-0.28949034214
-0.187253251672
0.408004909754
-0.837492465973
0.0599046908319
0.392535597086
0.639247298241
0.347417622805
0.0541983470321
-1.35227954388
0.238365203142
-0.34141805768
1.34387123585
-0.232828527689
-0.717176139355
0.215428456664
0.813021600246
1.23581635952
-0.325202345848
-0.00653355941176
-0.549800872803
-0.666990339756
-0.0475546605885
0.987000882626
0.188204005361
0.50044465065
-0.338449388742
-0.155873224139
0.237744450569
1.12224137783
0.404318004847
0.759307861328
0.136149600148
0.195356994867
0.494369804859
-0.37570554018
-0.25732806325
-1.02326285839
0.932065248489
-0.931530535221
-0.0718224421144
-0.360068798065
-0.656674146652
0.668633878231
-0.461478352547
0.143818005919
0.172890022397
-0.681830942631
-0.065010689199
0.742420136929
-0.699138641357
-0.859701871872
-0.881760895252
0.049247816205
-0.802785098553
0.373877167702
0.560876309872
0.729553699493
0.890519678593
-0.0585252195597
-0.016687463969
0.41982164979
0.0569828860462
-0.361942499876
0.557877361774
0.517681598663
-0.309815406799
-0.0471907928586
-1.26697731018
0.764526963234
0.288261890411
-0.874277770519
1.16684699059
0.0465999692678
-0.0873324424028
0.256333291531
0.672171115875
0.530470252037
0.18382948637
-0.919183313847
0.210423588753
0.794718563557
-0.105134479702
0.102943569422
1.34591794014
0.469059079885
-0.112331092358
-0.295569121838
-0.247915670276
0.120856881142
1.1505947113
0.880989015102
0.536313951015
0.451886057854
0.586267590523
-0.369886308908
-0.461361944675
0.33569008112
0.342655390501
0.657043814659
-0.38445481658
-0.514278888702
-0.13867726922
-0.44202876091
-0.717435002327
-0.780435979366
-0.145654648542
-1.08773064613
0.429647237062
-0.118781328201
-0.254191040993
-0.250721722841
-0.399590164423
-0.533099532127
0.0617568641901
1.03242838383
0.252173662186
0.0903172940016
0.500702857971
-0.681274950504
0.0147971585393
0.434012413025
0.665793180466
0.483063668013
0.3989123106
0.306279420853
0.977989733219
0.0286755748093
0.523287951946
0.708883285522
0.797630608082
0.820236325264
-0.757927060127
0.492648661137
-0.1720148772
0.0641771182418
0.651831388474
-0.509272277355
0.164800658822
0.590541779995
-1.41775333881
-0.0756855681539
0.166251271963
-0.508470356464
0.541836500168
-0.265009820461
-0.663676440716
-0.444083362818
-0.23186853528
-0.207066938281
1.22249472141
0.440391212702
-0.736093878746
0.896310389042
0.387520700693
-0.0645531862974
-0.603051543236
0.51437497139
-0.732584178448
0.0991657525301
1.74242138863
0.239854604006
-0.885942459106
-0.662569761276
-0.138261720538
-0.740805149078
0.943879008293
-0.864716410637
0.601582407951
-0.74961078167
-1.34401404858
0.0572825968266
1.2240267992
0.891131579876
1.35762119293
0.524587929249
-0.0771552622318
-0.185790672898
0.942894279957
-0.417709499598
0.581212282181
0.120857402682
-1.12657129765
0.108019560575
-0.174784198403
0.950352907181
0.074136942625
0.0778758972883
0.257645100355
-0.721941232681
-0.868391752243
1.77667212486
1.2433257103
1.17688429356
0.954643309116
-1.33345401287
0.382702857256
-0.561623096466
-0.102904736996
-0.75343888998
0.771810829639
-1.04926359653
0.0926404893398
-0.0725897997618
0.493035435677
1.09160256386
-1.31975889206
0.528931736946
0.379472643137
-0.163066193461
0.875188529491
-0.0951195806265
0.374796718359
0.114097863436
0.95616286993
0.109720781446
-0.290295124054
-1.01449680328
-1.13993358612
0.221556201577
-0.69980764389
-0.743003368378
0.670389056206
0.561607182026
-1.16928374767
0.0635253414512
-0.0355576388538
0.573809564114
1.00944769382
0.496183663607
1.27128744125
-0.597989499569
0.0645410567522
-0.637890279293
-0.10097656399
-0.414820283651
0.574075996876
0.40231603384
0.679540634155
1.64367651939
0.307839006186
0.280471235514
0.183741852641
0.181128665805
1.02753710747
0.497964859009
-0.542112231255
0.509099006653
-0.550762951374
-0.905422210693
-0.0929366126657
0.44609361887
-0.270860761404
0.401280730963
-0.0919025167823
-0.0727360546589
0.595987081528
-0.972284495831
-0.178834095597
-0.769983351231
-0.846879839897
-1.16235601902
-0.351553589106
-0.0265486575663
-0.536343097687
-0.167346671224
0.510381519794
-0.488931834698
-0.460312485695
1.11938750744
-0.413637191057
0.356086373329
0.247098207474
0.858936369419
-0.441923320293
-0.0223152898252
-0.827810406685
-0.570114910603
-0.260225355625
-0.918430507183
0.12632407248
-1.65701627731
-1.29663610458
-0.630496740341
-0.129458233714
-0.478419184685
-0.970850288868
-0.341176390648
-0.971542656422
0.98988878727
-0.488322854042
0.0686874911189
0.04615662992
0.668358147144
-0.702604591846
0.819924414158
-0.66728669405
-0.144071161747
1.13554143906
0.0618290305138
1.09987676144
0.645548045635
0.26034668088
-0.773160398006
0.503182888031
-0.855162203312
0.70122385025
0.717714071274
0.109497070312
-0.905448079109
0.973016142845
0.288124263287
0.10854742676
0.285474330187
0.519642651081
0.966234147549
0.409990280867
0.130018144846
-0.245853364468
0.989226818085
0.175425752997
0.301687389612
0.971948206425
-0.94041711092
0.104519367218
-0.231061726809
-0.450606107712
0.819297194481
-0.281872570515
-0.757576644421
-0.592804253101
-0.188622966409
0.343149274588
-0.38162457943
-0.312115967274
0.0510748699307
-0.83064776659
-1.2491093874
-1.37730610371
-0.372163891792
0.534059345722
-0.653475940228
-0.242357909679
1.08345973492
0.134342938662
-1.09443175793
1.60359025002
0.0191597882658
0.844984650612
0.624042153358
-0.386870890856
0.825346767902
-0.090833760798
-0.502236545086
0.865272879601
0.779809057713
0.00450054276735
-0.832342863083
0.530191779137
0.661550462246
-0.0201669149101
0.721986293793
0.378161728382
-0.0764572247863
-1.31435072422
-0.213150262833
-1.0988445282
0.377302885056
-0.324229985476
-0.37754330039
-0.11850271374
-0.360991388559
-0.578097343445
-0.0447968989611
-0.199687108397
-0.00889043230563
1.07709860802
-0.353558719158
-0.155607059598
-0.82851433754
-0.202594026923
0.0706045627594
-0.253086805344
-0.425032347441
0.106708876789
0.726606786251
-0.111210145056
-0.0302695091814
0.116516515613
0.399493873119
-0.0495800711215
0.865724444389
0.782915651798
0.240892246366
0.936962544918
-0.865777909756
-0.437939524651
-0.0477559305727
-0.0097016626969
0.0443211421371
-0.2472204566
-0.50548350811
-1.11199021339
-0.223698019981
-0.310981184244
0.517766177654
-0.647681832314
-0.507583677769
-0.675530195236
-0.149372503161
-0.184499591589
0.542860805988
1.12534213066
0.491906970739
0.326198041439
1.18553268909
0.069658011198
1.28375244141
0.729556322098
0.0681261122227
1.4257273674
0.411572992802
-0.501291513443
1.45452451706
0.660822808743
-0.989237546921
-0.0792447552085
0.685259699821
-0.702227592468
0.166187927127
-1.18778383732
-0.198132261634
0.567716836929
-0.429265230894
-0.231229171157
0.657536685467
0.317758888006
-0.532415926456
-0.491596698761
-0.545463263988
-1.04753553867
-0.212452203035
-0.0501310154796
-0.102509476244
-0.239211589098
0.685195982456
0.666486382484
-0.735619604588
-0.472945481539
0.736676931381
0.971380352974
0.53528034687
-0.226698100567
-0.37906062603
-1.15695023537
-1.02863430977
0.445792227983
1.30330276489
0.476339161396
0.599203705788
-0.470107018948
-0.383640378714
1.03291964531
-0.0308844428509
-1.68891382217
-0.704130291939
-0.572574615479
-0.608047127724
0.357207775116
-0.943387269974
-1.02846610546
-1.12596333027
-1.05081534386
0.640643298626
0.0963768959045
1.13804745674
-0.482829809189
0.364098221064
-0.441230773926
0.621028542519
-1.17955183983
1.2656481266
0.251090317965
-0.773373007774
0.46939137578
0.119192570448
-0.379014581442
1.0928157568
0.182320326567
-0.222416713834
-0.932674944401
0.351054012775
-0.0732797682285
1.07488703728
-0.898239314556
-0.352039605379
0.783873200417
0.550450026989
-0.258231163025
0.555615067482
1.46925330162
0.142374664545
0.445822417736
0.316528052092
2.22605204582
0.638799548149
-0.1870020926
0.929332375526
0.543877959251
0.9473772645
0.423444092274
1.80273556709
-0.203055754304
0.0170476343483
-0.969477593899
0.366719245911
0.714636743069
-0.435022205114
-0.698729097843
-0.996372044086
-0.518215060234
-0.457748025656
1.30463445187
-0.153002917767
0.645738124847
-1.09781324863
0.0437188334763
-0.807323157787
0.532393872738
0.586543858051
0.0277178045362
-0.626555383205
-1.09614431858
-0.071150533855
-1.89847457409
-0.0794110447168
-0.504804491997
0.417190164328
0.454314261675
0.41639187932
-0.60682785511
0.467435777187
1.0023983717
-0.748191893101
0.656409680843
-0.50574195385
-0.40565058589
0.547811210155
-0.328107953072
-1.1440461874
0.323096781969
-0.56806319952
0.234431385994
-0.43620878458
-0.223660439253
0.0625380948186
-0.157751724124
-0.25681039691
-0.32471242547
0.252202838659
-1.49932956696
0.972113668919
-0.0302607864141
-0.592333912849
-0.436438471079
-1.2791467905
0.62249994278
-0.414074569941
0.822293579578
-0.213145405054
0.250344067812
0.132226705551
-0.369163960218
-0.554574429989
1.34426033497
0.496485203505
0.484810352325
0.488833427429
-0.380094200373
0.596314609051
-0.848133802414
-0.736868739128
0.5122397542
0.758952438831
-0.673920035362
0.362936168909
-0.485619068146
1.68384563923
-0.311447560787
1.25037646294
-0.0981942340732
0.213899701834
-0.65428596735
1.14917600155
0.53144043684
0.729315280914
0.184768110514
-1.33412015438
-0.884426116943
-0.321380615234
-0.0698754712939
-0.735822677612
-0.543611168861
0.436311870813
0.692994832993
-0.316990673542
-0.349121332169
0.829739928246
0.754043340683
0.307343572378
0.539135754108
1.31033480167
-0.143239125609
-0.0726886764169
0.073221296072
0.500458180904
0.482893943787
0.737711250782
0.410112440586
0.285381644964
0.2717012465
-0.590906918049
0.067492172122
0.0135545898229
-0.155213862658
0.736949503422
-0.698974072933
0.154000684619
0.962120950222
0.287510335445
0.646095693111
0.559354543686
0.368672907352
0.362132072449
-0.226310968399
0.200288429856
-0.164481878281
0.842427313328
-0.410613447428
-0.555967211723
0.319880336523
-0.708208322525
-0.407833844423
1.05873763561
0.0125606749207
0.224342688918
0.0297536291182
0.187673509121
0.0812244713306
0.466587722301
0.454496264458
0.933775544167
1.58051359653
-0.607331693172
0.940266609192
0.673399448395
-0.0880462601781
-1.45433843136
-0.824701309204
-1.03776097298
0.780821621418
-0.069391772151
-0.599459528923
0.777241170406
-1.06846106052
-0.0822134912014
0.157023444772
1.62151193619
0.0965575054288
0.540140807629
0.960676908493
0.591278493404
-0.382961809635
0.998523771763
0.252146393061
0.589333415031
-0.294754683971
-0.945367574692
0.240907028317
-0.27044531703
-1.02746713161
-0.46775701642
0.582720816135
-0.6323325634
0.340301275253
-0.83082062006
0.67660433054
-1.29879319668
-0.296104103327
0.354130804539
-0.245803028345
0.163058668375
0.226182326674
-1.2958086729
0.186415374279
0.412315487862
0.304625868797
0.346209555864
0.88760137558
-1.75587677956
0.191815167665
0.272732675076
1.32616126537
-0.365408629179
0.658760368824
-0.230799466372
0.379369407892
-1.97223556042
-0.372355908155
-1.45255422592
0.428245961666
0.367953151464
-1.25965976715
-0.504008471966
-1.25002205372
-0.543720245361
0.248127967119
1.38472759724
1.31948518753
-0.125263258815
-1.81697976589
-0.41119775176
0.451929420233
0.419548809528
0.761708676815
-0.26489123702
-0.547670185566
-1.35026454926
-0.649519741535
-1.57114470005
0.886510074139
-0.0585266910493
-1.25226974487
-1.05535817146
0.461843907833
-0.359289467335
-0.27988243103
-1.44980168343
0.995491683483
-0.347931236029
0.102941319346
1.86155295372
-0.833857357502
0.19611851871
0.950410366058
-1.08826708794
0.478758096695
-0.0603490658104
-0.92724531889
0.0131919495761
0.251490563154
-0.781275689602
-0.502657115459
-1.39675056934
0.632180869579
0.740703821182
-0.03311823681
-0.218256935477
1.29131603241
0.964328110218
0.425518065691
-0.27108463645
0.200213685632
1.47438502312
-0.0861859545112
0.468562334776
0.0559141412377
0.101560048759
-0.511097431183
0.915145456791
0.0600471831858
0.053823120892
-0.513375103474
-1.21011888981
-0.226472586393
0.363744825125
-0.0601119361818
0.452237188816
0.657090723515
-0.552733898163
0.617322921753
0.553680300713
-0.183073043823
-1.329865098
-0.948062479496
0.432345092297
-0.0951708927751
-1.12504720688
-0.153198838234
0.152221009135
-1.1049926281
-0.87689858675
-0.234801754355
1.33507871628
-0.271723121405
-0.374860346317
-0.645515143871
0.308350980282
-0.784719944
-0.0245519354939
0.15254586935
-0.843109309673
-0.230466157198
0.392674267292
-0.348216682673
0.655905783176
-0.551685512066
0.389609336853
-1.33830094337
-0.237508371472
-0.0233724527061
0.79342263937
-0.236013576388
-0.0477133430541
1.03709292412
-0.600097179413
-0.719202876091
-0.313201487064
0.250183641911
0.943023920059
-0.0614950507879
-0.786432147026
0.0341016761959
-0.433348119259
-0.85235708952
-0.0711089670658
0.506628215313
-0.954231441021
-0.401988774538
-1.13149499893
-0.532455086708
-0.679833769798
-0.0967200025916
-0.126338541508
-0.223229989409
-0.348113596439
-0.152684509754
-0.0849316418171
0.29314699769
-0.146862775087
0.678882777691
-0.0867368504405
-0.532681763172
-0.503787875175
-0.0733717232943
0.78528624773
1.26010727882
-0.00759385805577
-0.517902195454
0.266816288233
1.37417173386
-0.671095192432
-0.0462856292725
0.851506233215
-1.14453577995
0.524496138096
0.666643857956
-0.188024967909
0.657767653465
0.250976890326
-0.420471340418
0.602835178375
-0.442875057459
-0.82403421402
-0.568141341209
-0.421897977591
0.691100418568
-0.182559490204
1.32828462124
0.442387491465
-0.111145719886
1.25507283211
1.52754449844
0.486529827118
-0.510369062424
-0.241875901818
-0.671789348125
0.439562141895
-0.149112641811
-0.666004538536
1.24336385727
-1.42293143272
0.356845974922
-0.325809985399
0.404629588127
-0.814174830914
-0.78069883585
-0.251871407032
0.37184086442
-0.822640180588
-0.787359714508
-0.0393499918282
-0.114693671465
-0.196688681841
-0.000347999855876
1.34040975571
0.624397039413
-0.381180226803
0.0769412219524
-0.342429816723
-0.28603708744
1.06958568096
0.857397198677
1.82440650463
1.35087561607
0.10134780407
0.156252771616
0.0858914703131
-0.106283284724
-0.0482236295938
0.262474745512
0.398919552565
-0.444592475891
-0.827299296856
1.09225153923
0.798574388027
0.857798814774
0.238385751843
1.16050159931
0.204559653997
-0.283402115107
0.949876666069
0.576808035374
0.821209132671
0.38883087039
-0.180051758885
0.0310941189528
-0.542930364609
0.925018668175
-0.63677239418
-1.00694608688
-0.402594536543
-0.185142427683
0.0889061242342
0.303037345409
-0.505088746548
-0.345692723989
0.698495090008
-1.45580351353
1.20530772209
-0.797968924046
0.697994172573
0.697911977768
-1.33118128777
0.720923125744
0.343205362558
0.295998007059
-0.00134920375422
-0.0161485113204
-0.817131102085
0.922134399414
-0.588925123215
-0.755942523479
0.213793575764
-0.802480697632
-0.380373299122
-0.203603759408
-0.309576243162
-0.143947020173
-0.0693850368261
0.173450857401
1.8364803791
-0.225392058492
0.706773936749
-0.0319981612265
0.651176273823
0.352223008871
0.695848405361
0.0254121981561
-0.212293863297
0.0918767377734
-0.740538716316
-0.57490503788
0.883119463921
-0.748446643353
-1.06555628777
-0.215998321772
0.500534772873
0.873817503452
0.837102711201
-0.0926382988691
0.0995736122131
0.832278907299
-0.925612747669
0.208201244473
0.984568119049
-0.38870382309
-0.629399120808
-0.649992525578
1.03124654293
0.108611397445
-0.130908936262
-0.286503612995
-0.224960207939
0.211922124028
-0.144376799464
0.0483730584383
-1.32868909836
-1.48544836044
-1.48205375671
0.813454866409
-0.257904231548
-0.00899930205196
-0.0460261553526
-0.191917955875
0.0114299282432
-0.639213323593
0.582141160965
-1.10216128826
0.518246948719
-1.66815197468
-1.33588600159
0.353645324707
0.192635595798
-0.722444832325
1.2157201767
1.25301659107
0.58315038681
-0.188121065497
0.268193662167
-0.8734613657
-1.20061850548
0.345636248589
-0.173024624586
0.833869457245
0.270491242409
0.053073272109
0.283712238073
-0.73740530014
-0.852183520794
0.614779770374
1.56231570244
-0.130633354187
-0.111671984196
-1.45088088512
-0.539460897446
-1.77333605289
0.807566046715
-0.79422801733
-0.55816257
1.17189133167
-1.43719506264
0.303180575371
-0.0500642471015
-0.230061948299
-0.663329541683
0.0810335576534
0.0246969964355
-0.96348130703
0.299720108509
0.297976911068
0.406894177198
-0.0340717993677
1.02680528164
0.945391476154
-0.982462644577
-0.810782551765
0.417986243963
-0.515308141708
-0.186491027474
-1.0621355772
0.0223186798394
0.70904135704
-0.131630286574
-0.326830536127
1.32507014275
0.663747012615
0.149039104581
-0.157664611936
-0.318837225437
0.456187665462
0.465022414923
0.749597966671
-0.703812479973
0.326067477465
-0.459474354982
0.20557756722
0.852148115635
0.912985265255
0.532583892345
-0.68401157856
0.956532001495
-0.515106201172
-0.85275888443
-0.208561047912
-0.524577558041
0.0344356559217
-1.46953070164
0.447147935629
-0.801029205322
-1.07395768166
0.393854171038
-0.41234138608
-0.979034125805
-0.804191946983
-0.0361455082893
0.245807632804
-0.343345403671
0.315585047007
-0.373540878296
0.996709465981
-0.550061583519
-0.132532209158
0.803534030914
0.251508057117
-1.24184644222
-1.00452911854
-0.942279398441
-0.487315475941
0.879997074604
0.0144259314984
-0.368647962809
-0.795495271683
0.30239495635
-0.283337712288
1.4293551445
0.464346408844
1.03786444664
-0.619900941849
0.726607620716
-0.704817116261
1.00791764259
0.315587937832
-0.203267931938
-0.872777760029
-1.86393868923
-1.48824989796
0.350389629602
-0.440422832966
-0.691171944141
-1.08106136322
0.224025025964
0.106373541057
-0.589828431606
0.472901374102
0.518997907639
-1.34323203564
0.557180941105
-0.00721767731011
-0.402774065733
0.257688909769
-0.532110631466
0.0795903801918
0.615648210049
1.09449100494
0.277842283249
-0.146863102913
-1.06912088394
-0.785830795765
0.00673122238368
-0.823204398155
1.05582797527
-0.131110459566
-0.932599782944
0.0999007150531
-0.378506332636
0.281685233116
0.284304440022
0.504178225994
-0.0331586189568
0.181401222944
-0.931687235832
-0.603306531906
1.0999430418
0.058380946517
0.750043094158
0.425956338644
0.0914542078972
0.0824525430799
1.54866349697
0.215342625976
1.03230977058
1.44723570347
-0.00509284669533
-0.632303595543
0.103069312871
0.679713845253
0.275780707598
0.113807044923
-0.0254761166871
1.06562924385
-0.0446460582316
-0.573399484158
-0.294997304678
-0.464233875275
0.101134389639
-0.545620799065
1.09900760651
-0.0834254920483
-0.146940395236
-0.50281393528
-0.714903056622
0.434541106224
-0.539940536022
-0.551300942898
-1.35486209393
-0.357849419117
-0.291860997677
-1.3296854496
1.01141893864
0.75769174099
-0.767714202404
-0.214408427477
-0.144736796618
-0.00829861313105
0.00911659281701
-0.11553645879
0.460338771343
0.599841713905
-0.48757737875
0.060212533921
0.265955835581
-1.06380546093
0.380228102207
-0.491796553135
0.145474642515
-1.16934978962
-0.99793535471
0.685602545738
-0.828744709492
-1.20422339439
0.051307849586
-0.799286663532
0.594956099987
0.752291202545
-0.267890155315
0.63873487711
-0.102636002004
-0.0959466695786
0.240024611354
-0.746636211872
-1.05007255077
0.259052664042
-1.00053870678
0.439959257841
0.231288656592
-0.266950875521
-0.456310391426
-1.30311346054
-1.44779992104
-0.710516452789
-0.244612634182
-0.165104359388
0.417687088251
-0.595048844814
0.318898320198
0.500947415829
-0.259722262621
-0.0044933333993
-0.139540463686
0.104689896107
0.193317621946
0.615006089211
-1.3987313509
-0.53184980154
0.702327549458
-0.708017706871
-0.873385906219
-0.557528436184
-0.311743170023
-0.650964915752
0.379421144724
-0.20089904964
1.16896188259
0.662584364414
0.637410163879
0.919100940228
1.02485585213
1.53641724586
0.301601439714
-0.785204172134
0.124267630279
0.0965974256396
0.938829064369
-0.295045077801
-1.33111906052
-0.552576959133
0.0361690148711
0.63607531786
0.0427294634283
0.313216567039
0.240756869316
0.552774012089
-0.384439617395
-0.142010331154
-0.496969759464
-0.256190657616
-0.475598961115
0.158804178238
0.149015530944
0.285102754831
0.866560518742
-0.382022082806
0.271996080875
-0.477534800768
-1.54112064838
-0.406023085117
0.478667169809
0.0516874752939
0.317998111248
0.628053247929
-0.326274603605
-0.167797759175
-0.187396809459
-0.565251708031
1.34721648693
0.34650427103
-0.70732986927
-0.374162882566
-0.0791602805257
-0.163860991597
-0.735086858273
-0.255612045527
-0.521445453167
-0.57067155838
-0.285855978727
0.663239181042
-1.25228822231
0.253893375397
0.462028175592
-1.51430773735
0.536184310913
0.330138355494
-0.274573713541
0.404564470053
0.395908713341
0.473169714212
-0.0834376364946
1.99825799465
-0.594457268715
-0.660960137844
-0.197377488017
-1.08616006374
-1.39302647114
0.314913064241
0.203278541565
0.224519997835
-1.0113478899
-1.05179679394
0.264379292727
-0.638496935368
-1.08792006969
-0.29492354393
0.261975646019
-0.530201554298
-1.2926582098
-1.10412061214
-0.454763382673
-0.424761503935
-0.911708116531
0.505949914455
-1.22159576416
-0.311370939016
-0.137986838818
0.826797127724
-0.10299166292
-0.584623515606
0.317537367344
-0.220951154828
0.774809598923
1.18284320831
-0.244681224227
0.700544297695
-0.408552825451
-0.881126284599
-0.449395030737
0.485602498055
-0.510420620441
-0.854032993317
-0.829554617405
-0.463457852602
-0.93635225296
-0.421784967184
0.391926169395
0.115254387259
1.44083273411
0.324826180935
1.27824103832
-1.20721709728
-0.0145427864045
0.0360940024257
-0.513261020184
0.0625433176756
-0.226538419724
-0.899980247021
0.445661395788
0.599745869637
-0.0775683224201
1.00028192997
-0.388116806746
0.27496060729
1.31365060806
-0.155276119709
0.059420786798
1.45259642601
0.542180895805
0.164933606982
1.09474432468
0.778644621372
0.393270462751
0.669323384762
-0.424252390862
1.05498349667
0.481033831835
0.0751955285668
0.495937764645
-0.238331496716
-0.256071329117
0.879220068455
0.525231420994
0.54101729393
0.206237688661
0.0223185494542
0.278873234987
0.81924366951
-0.0538052991033
0.594133317471
-1.14607059956
-0.391244441271
-0.289449959993
1.02374851704
-1.28154826164
-0.133062213659
-0.399174362421
-0.851956605911
-0.143258616328
0.917347669601
1.32967615128
0.622692108154
-0.013082081452
0.103735134006
1.19002866745
-0.306127041578
0.805864870548
0.649364113808
1.34802567959
-0.614387214184
0.475891232491
-0.13897459209
0.800147652626
0.396293371916
-0.0196536276489
-0.173878446221
0.0884621664882
-1.0971622467
-0.645683884621
0.587709128857
0.730715334415
0.384596377611
-0.790602147579
-0.0697626397014
-0.0467042475939
-1.31148374081
-0.0405487045646
1.33385109901
-0.455051213503
-0.917732775211
-0.984071612358
-0.160205930471
-0.0935970917344
-1.18600940704
-0.59390515089
0.566609859467
1.32130885124
0.921239614487
-0.282167315483
-0.240010499954
0.323248326778
1.12109410763
-0.0702199414372
0.151525914669
1.28775155544
0.304883092642
0.260329276323
-0.140204504132
0.734755039215
1.43414795399
-0.191429704428
-1.03649950027
-0.673727273941
0.211270615458
0.0950436070561
0.469922423363
-0.352359652519
0.0524931438267
0.746115148067
-0.697073280811
0.495099127293
0.458629906178
0.661847293377
-0.997640073299
0.171593040228
0.356587857008
-0.0549185164273
-0.917808294296
-1.6695125103
1.0312037468
-0.116863787174
0.530663907528
-1.04157495499
0.538668215275
0.446709781885
0.503259599209
-0.102686934173
-0.608131051064
0.97003287077
-0.487102478743
0.13950547576
0.107927843928
0.62819314003
0.396776467562
0.407128989697
0.758951127529
-0.708999216557
0.98402094841
-0.276196777821
-0.307776600122
-0.38169375062
0.710308849812
0.978615105152
-0.0665828883648
-0.734431326389
-0.776125133038
1.81413304806
-0.125211343169
-0.857627868652
-0.0770296603441
-0.0925221070647
-0.75372505188
-0.314380079508
-0.502178370953
0.598689317703
-1.38822412491
-0.434877514839
0.75101518631
-1.07513618469
0.752028346062
-0.459842294455
-1.0537481308
1.07730638981
0.286059886217
-0.427346974611
-0.501767575741
-0.105381324887
-0.42754727602
0.0378050021827
-0.00624273018911
-0.149543106556
-0.158961206675
-0.556604266167
0.420972526073
-0.123486801982
0.491753727198
-1.18799161911
0.810036361217
0.803793311119
0.982127010822
-0.385190814734
-0.287212073803
0.751094460487
0.362892657518
-0.550199985504
-0.0421170145273
-0.459418445826
-0.59290522337
0.664258122444
0.104804582894
0.743156075478
0.143922626972
-0.656151771545
-0.985171556473
0.39670881629
-0.550337970257
0.431793540716
0.317177981138
-0.2092641294
-0.267685204744
-0.531783342361
-0.821498572826
-0.370348334312
0.621142148972
-0.740851521492
0.521040439606
-0.200215667486
-0.0998516827822
-1.19013607502
0.734277069569
-0.0765220820904
1.48124670982
0.141770198941
-1.0148178339
1.12947654724
-1.38994467258
0.0659513399005
-0.164369776845
0.0573426932096
0.0463156104088
1.27396571636
-0.664670348167
-1.20631968975
0.193893969059
-0.224942550063
-0.407045543194
0.0390825197101
-0.171955734491
-0.0580063648522
0.137516081333
-0.759899973869
-0.979960143566
0.393175393343
0.0500998497009
-0.463627636433
0.267268747091
0.619405448437
-0.620742440224
-0.286507099867
0.416705906391
0.982448756695
0.867572724819
0.237109079957
0.612788677216
1.30337285995
0.615704596043
0.499098390341
0.157891243696
-0.242675825953
0.0980382487178
-0.380936712027
-1.39582061768
0.168981537223
-0.767720341682
-0.587382912636
-0.950846076012
-0.266621977091
-0.207671746612
1.30662167072
-0.129670187831
-1.10821640491
0.815426170826
-0.474271029234
-0.815222501755
0.287717938423
0.306441873312
0.213726133108
-0.467198818922
-1.23323178291
-1.13115727901
-0.241023495793
-0.0271764956415
-0.471823811531
-0.149452492595
-0.0103796096519
-0.0753335282207
-0.460677295923
0.795008540154
-1.10762298107
0.599748671055
0.167858719826
0.748375415802
0.979661822319
-0.136205404997
-0.113714806736
0.184219956398
-0.45307469368
-0.319436252117
0.674030900002
-0.872108638287
0.304745167494
0.0937666296959
0.308317810297
-0.259082257748
-0.139221295714
-0.145877912641
0.557777404785
-0.0448598824441
-0.167518004775
0.661883354187
0.299590677023
0.481922537088
0.322604417801
0.91038775444
1.14727282524
0.110452324152
0.486939817667
0.509855389595
0.860293149948
0.682382464409
0.440558224916
-0.112765774131
0.0870675966144
-0.321402549744
-0.179825872183
1.04770374298
0.4746324718
0.549380838871
-0.571921348572
-0.824719190598
0.114742860198
-0.483871102333
-0.905799090862
0.0560352094471
1.31164944172
-0.0172999240458
0.654180765152
0.277688086033
0.141735985875
-0.0443660542369
-0.80612051487
1.27879583836
1.24578988552
-0.0245049800724
-0.227446436882
-0.0297362618148
0.513238191605
0.569258093834
0.039258684963
1.49521040916
-0.461877137423
-0.67927646637
-0.718062162399
0.977209746838
-0.169129818678
0.342926472425
-0.406011343002
0.141825973988
-0.115323290229
-0.0215494334698
0.604247093201
0.469197064638
0.468345224857
0.0850579738617
0.602608382702
0.493988752365
0.334683209658
0.169182926416
0.135671153665
1.08393239975
1.46201813221
1.07925486565
1.48639333248
0.736486852169
0.204188287258
-1.01373434067
-0.758956074715
-0.100086115301
0.0637768507004
-0.635184049606
-0.36090618372
0.0106548266485
-0.598418295383
-0.230833560228
-0.185793891549
1.19758784771
1.05820381641
0.343575179577
0.00149942748249
-0.450020432472
-0.344202846289
-0.499672681093
0.176678866148
-0.0640850514174
0.294534772635
-0.712094128132
-0.412469089031
-0.297695636749
-0.405346244574
0.546025931835
0.0243894476444
-0.203859418631
0.174412697554
-0.332451909781
-0.42155238986
0.456351280212
-0.551155686378
0.860968649387
0.927197515965
-1.41185092926
-0.249045580626
-0.206614613533
-0.641377568245
-0.0633994564414
-1.085318923
-0.547516286373
0.94651466608
-0.998364448547
-0.967640519142
1.08823227882
0.0997383892536
-0.327039599419
-0.775308489799
-0.519513785839
1.45215594769
0.243678033352
-0.767106831074
0.176650166512
0.646588861942
-0.724892914295
1.12582480907
0.152601644397
0.939974963665
-0.409645050764
-0.562229633331
0.820458889008
-0.713263213634
0.69572365284
0.108965195715
-1.18485188484
1.05558359623
0.986727893353
-1.08977293968
-1.11549198627
-0.0161862466484
-0.198205247521
-0.317207813263
-1.20477855206
0.568255603313
-0.706725955009
-0.0764847174287
-0.890750288963
-0.44334307313
-0.928776502609
0.662864148617
0.46113628149
0.46307900548
-0.158347353339
0.499844461679
-0.689767241478
-0.546715378761
0.654374539852
-0.393496900797
0.393173217773
0.00693684769794
-1.04169178009
0.164540916681
0.234031379223
-0.275863707066
-0.33989071846
0.52129393816
-0.599615454674
0.130657151341
0.222679287195
0.16701592505
-0.368513315916
0.42141276598
-0.416311115026
-0.138710603118
-0.0177642125636
-1.17754018307
-0.237203463912
-0.367925494909
-0.84753125906
-0.783765554428
0.357337594032
-1.04816842079
1.07333076
0.537867426872
-1.14366877079
-0.379476755857
0.082749530673
0.250120908022
-1.51314902306
-0.506294131279
-0.680052697659
-0.26431837678
0.423370778561
-0.0688884407282
0.862905740738
0.690859854221
0.0353374257684
0.512929856777
-0.107279121876
0.28096267581
1.02675819397
0.00778845697641
1.932264328
0.30193066597
-0.304261595011
-0.0459640473127
-0.644509315491
1.44678294659
0.706667482853
0.0355052314699
0.132956311107
0.0335129909217
0.576794624329
0.975544214249
0.251809120178
0.162694945931
1.14721751213
-0.395273387432
0.0991633683443
1.05763065815
-0.177878886461
0.266167908907
0.239104345441
0.920048832893
-0.184519082308
0.711374878883
-0.0894764214754
0.272827863693
0.561667084694
0.727664470673
-0.090083502233
0.0626605376601
0.582336544991
-0.189907133579
0.51278835535
0.972363829613
1.30590951443
-0.296596437693
-1.00648844242
-0.0208138525486
0.135362923145
-0.185006693006
-0.196876466274
-0.235126033425
0.463600188494
-0.791326224804
-0.0451809689403
-0.182755276561
1.16405928135
-0.303369820118
-0.667753458023
-0.010165868327
0.229494392872
0.414090692997
-0.5004144907
1.04766952991
-1.46653103828
-0.0846871361136
-0.843856394291
-0.438650250435
-1.29628038406
