weight_t w1[10][40] = {
0.31874,-0.01303,0.21141,-0.33157,0.07672,0.01265,0.02333,0.05696,-0.07672,0.02035,0.02286,0.21580,0.11127,-0.27515,0.20773,-0.00889,0.01393,-0.03771,-0.24339,0.27132,-0.22515,0.06010,-0.26303,-0.21107,0.26599,0.01602,0.01260,-0.02978,0.22951,-0.38413,0.00027,-0.04324,0.03926,0.01254,0.01682,0.20274,-0.29691,0.08034,0.13868,0.19724,
-0.04513,0.16997,0.10757,0.14628,-0.00279,-0.05287,-0.16653,-0.03110,-0.05490,-0.00439,-0.06238,-0.02552,0.00481,0.12181,-0.10356,-0.06282,0.03761,0.01431,-0.00050,-0.05369,-0.10528,-0.10865,0.00595,0.09087,-0.00669,0.16002,-0.03270,-0.02579,0.16709,0.01687,-0.06614,0.03265,-0.01832,-0.02313,-0.17916,0.09947,-0.08848,0.03229,0.11738,-0.06267,
0.00171,-0.03575,0.19822,0.35378,-0.04375,-0.06266,0.28864,0.60527,-0.04266,0.30232,0.29081,0.31496,0.16972,0.23508,0.27712,0.39766,0.26888,0.32492,0.30983,-0.01284,0.34913,0.00201,0.27481,0.40523,-0.05197,0.28662,0.41096,0.34610,0.14888,0.36489,0.26427,0.14164,0.23846,0.61499,0.28184,0.28118,0.33030,0.28603,0.18719,-0.03872,
-0.15679,-0.64853,0.09495,-0.12641,0.01581,-0.04277,-0.62603,-1.26248,0.07666,-0.61208,-0.62581,-0.09469,0.12020,-0.04811,-0.07250,-0.67730,-0.56683,-0.40910,-0.05971,-0.09887,-0.13085,-0.08148,-0.04132,-0.20686,-0.04688,-0.59666,-0.58560,-0.59122,-0.10220,-0.08333,-0.63089,0.16142,-0.61206,-1.21903,-0.61463,0.01910,-0.09308,-0.52878,0.06240,0.00162,
-0.03712,0.04465,0.08316,0.87546,0.20801,-0.11135,-0.00471,-0.01812,0.19836,-0.01035,-0.00423,0.08742,0.07473,0.69371,0.07953,-0.05814,-0.00512,-0.04750,0.85794,-0.05895,0.91319,0.23989,0.78491,0.91182,-0.06213,0.00073,0.06815,-0.06419,0.09036,0.97858,0.02002,-0.05606,0.00524,0.00592,-0.00314,0.12159,0.86008,-0.08391,0.07282,-0.06656,
0.00868,-0.02939,0.03412,-0.00380,0.01048,-0.15669,0.08507,0.01539,-0.07336,0.07185,0.08877,0.00876,-0.01745,-0.01424,-0.06216,-0.02310,0.06786,-0.00883,0.07637,-0.05931,-0.04589,-0.04371,0.05178,0.04745,-0.00200,0.08620,0.04901,-0.02838,0.02381,-0.01322,0.06026,0.00135,0.08744,0.05136,0.07685,0.05306,0.02774,0.01109,0.02514,0.04229,
0.09972,0.18715,0.14453,0.01107,-0.04321,-0.09611,0.05032,-0.05240,-0.03028,-0.07147,-0.04460,0.07657,0.09372,0.03680,0.00489,-0.03872,-0.05321,-0.10388,0.06023,0.08153,0.10997,0.11268,0.03716,-0.08824,0.17740,0.04861,0.09203,-0.07682,-0.09511,0.07049,0.11092,0.09216,-0.01028,-0.05764,-0.07435,0.06716,-0.00179,0.19871,0.11563,-0.05835,
-0.13333,0.04867,0.01197,0.10839,-0.03838,-0.06895,-0.19125,0.04405,0.11798,-0.04418,0.02924,0.05341,-0.04564,-0.04099,0.01740,0.11878,-0.05145,-0.03045,0.05019,-0.14036,0.00597,0.03349,0.02585,-0.08537,-0.03163,0.16478,0.05549,-0.12622,-0.01894,-0.04956,0.07433,-0.04648,-0.08724,-0.03596,-0.07173,0.05528,0.10399,-0.02378,-0.03416,0.02527,
0.00240,-0.02017,-0.02434,-0.03463,0.05358,0.08948,-0.04250,-0.11484,0.09999,-0.04478,-0.06048,0.02641,0.02255,0.03172,0.09485,-0.06658,-0.00939,0.04282,-0.06806,0.05556,0.00611,0.06657,-0.04871,-0.02671,0.01428,-0.03238,0.03108,-0.05577,0.00529,-0.02914,-0.03431,-0.01402,-0.03741,-0.11713,-0.02263,-0.03835,-0.06270,0.03386,-0.01322,-0.04126,
-0.00542,-0.05643,0.02925,0.10422,0.02226,-0.03542,0.05413,-0.11294,0.00906,0.06110,0.06937,0.02294,0.04781,0.04317,0.01716,0.00507,0.03684,-0.00603,0.14868,0.01844,0.11862,0.01795,0.08271,0.14375,0.01364,0.05941,0.08135,0.01505,-0.03758,0.10772,-0.04739,-0.17346,0.06252,-0.12671,0.05248,0.00512,0.17051,0.00722,-0.00656,-0.01211};

bias_t b1[40] = {-0.12213,0.03975,-0.06469,-0.37588,-0.12604,-0.04100,0.10588,0.06747,-0.05919,0.10635,0.10508,-0.02722,-0.02654,-0.29334,-0.03140,0.04805,0.09937,0.03761,-0.42887,-0.09462,-0.45754,-0.12118,-0.37227,-0.44816,-0.10349,0.10380,0.05005,0.04228,-0.06984,-0.42596,0.10414,-0.03500,0.09464,0.07022,0.10411,-0.01880,-0.39256,0.02923,-0.03089,-0.07563};

weight_t w2[40][40] = {
0.10035,0.09750,0.09380,0.04949,-0.12163,0.15416,0.18204,0.01485,0.21434,0.02630,0.07804,-0.02213,0.02083,0.03245,0.14731,0.08821,0.20496,0.05086,0.13060,0.16719,0.04756,0.16150,0.09063,0.03357,0.47405,0.03187,0.06602,0.09124,0.13455,-0.23199,0.13604,0.08653,0.09852,0.04254,-0.28845,0.24728,-0.15732,-0.23178,0.08538,0.05695,
0.51255,0.26980,0.17087,-0.15797,0.30607,-0.00517,0.42014,0.02253,0.00960,-0.00027,0.48288,-0.02142,0.00086,0.01740,-0.00905,0.18499,0.23970,-0.00134,-0.00327,0.39400,-0.00019,-0.00077,0.28369,0.00012,0.00206,-0.01581,0.00005,0.44646,0.00143,-0.01023,-0.00483,0.26292,0.40950,-0.00093,-0.03144,-0.00331,0.46704,-0.10933,0.40518,-0.00251,
-0.00094,-0.00226,-0.00129,-0.05365,-0.00178,0.02493,-0.00092,0.05298,0.00042,0.03585,-0.00108,0.12176,0.03308,0.04809,0.01314,-0.00093,-0.00132,0.02207,0.14774,-0.00109,0.04977,-0.09464,-0.00008,0.05091,0.01207,0.03762,0.02229,-0.00052,0.06768,0.00685,0.01037,-0.00225,-0.00086,0.04495,-0.01532,0.00853,-0.00209,0.02018,-0.00112,0.04952,
-0.11088,-0.28593,-0.20223,1.04530,-0.21009,0.88031,-0.03691,0.75987,-0.08051,0.73202,-0.19488,-0.11881,0.75273,0.66842,0.95472,-0.17755,-0.15302,0.92489,0.89927,-0.24213,0.51738,0.91632,-0.22201,0.69868,-0.26546,0.83804,1.05748,-0.23073,0.56216,0.94169,0.87137,-0.13608,-0.15969,0.70552,0.89577,0.93442,-0.13474,0.96084,-0.21096,0.49563,
-0.03523,-0.03599,-0.03792,0.02639,-0.03644,0.02063,-0.03365,0.18385,-0.01809,0.16818,-0.03649,-0.08625,-0.02495,0.19250,0.07982,-0.03959,-0.03742,0.01100,-0.02525,-0.03592,0.21749,0.12565,-0.03770,0.21319,0.03149,0.11967,-0.01016,-0.03592,0.39129,0.00619,0.03942,-0.03963,-0.03796,0.28239,-0.03061,0.04849,-0.03397,-0.02418,-0.03891,0.28167,
-0.10501,-0.09675,-0.19074,0.08842,0.05261,-0.06410,-0.03343,-0.03308,-0.08438,0.08731,0.03614,-0.11457,-0.09464,0.07925,-0.06571,-0.06321,-0.03681,0.09753,-0.09153,-0.12292,-0.13604,-0.19139,0.13935,-0.02816,-0.00491,-0.08905,0.09994,-0.03909,-0.12797,-0.04913,-0.10012,0.03726,-0.06765,0.05443,-0.03338,0.01570,-0.18922,-0.18387,-0.13280,0.12542,
0.66051,0.53560,0.56849,-0.00201,0.63230,-0.01147,0.56616,-0.08745,0.00689,-0.00159,0.54043,0.11254,-0.00430,-0.16905,-0.00876,0.72795,0.45661,0.00568,-0.01036,0.66607,-0.00165,-0.00800,0.46595,0.00471,0.00096,-0.05191,-0.00042,0.60756,0.37817,-0.00830,-0.00750,0.59873,0.50627,0.00006,0.04749,-0.00719,0.69142,-0.14066,0.46865,-0.00068,
0.93529,0.80003,0.83326,-0.04162,0.68289,-0.11383,0.76755,-0.06237,0.80102,0.26026,1.02506,-0.09965,0.28317,-0.09655,0.01760,0.80919,0.80463,0.40398,0.17056,0.90409,0.39082,-0.03478,0.86656,0.22267,0.57421,-0.16123,0.33651,0.94420,0.04293,0.35852,-0.07217,0.97168,0.95038,0.19177,-0.22005,-0.04803,0.90492,-0.02271,0.93923,0.29145,
-0.09514,-0.13967,-0.06436,-0.01818,-0.09200,0.00196,-0.03585,0.27805,-0.05446,0.17922,-0.05797,-0.00074,0.08363,0.23880,0.08073,-0.05161,-0.04153,0.04441,0.06329,-0.15436,0.22930,0.17508,-0.06319,0.21205,0.03782,0.08848,0.01194,-0.21502,0.13961,0.02372,0.09190,-0.07700,-0.10773,0.26051,-0.05178,0.01369,-0.03585,0.02458,-0.04569,0.27468,
0.62635,0.56934,0.53271,-0.09522,0.57896,-0.00762,0.53294,-0.09860,-0.00420,-0.00538,0.63469,-0.11776,-0.00326,-0.22293,-0.01435,0.60840,0.47409,-0.00027,-0.00844,0.57851,-0.00068,0.12857,0.58040,-0.00645,0.00090,-0.06827,-0.00017,0.61807,-0.00857,0.22754,-0.01229,0.55462,0.48528,0.00061,0.00670,-0.01507,0.69524,-0.01829,0.62687,0.00064,
0.57056,0.58312,0.58583,-0.10690,0.71563,-0.00900,0.66633,-0.03277,0.01469,0.01467,0.58475,0.04874,0.00055,-0.04461,-0.01069,0.57813,0.57638,0.00050,0.22184,0.62964,0.00338,-0.00585,0.50498,-0.00354,0.00002,-0.06102,-0.00326,0.53212,-0.01198,-0.01343,-0.00579,0.68808,0.49357,0.00191,-0.11206,-0.00981,0.64112,-0.06551,0.60391,-0.00296,
-0.00412,-0.00442,-0.00354,-0.03142,-0.00220,-0.01328,-0.00250,0.06046,-0.00028,0.04400,-0.00415,-0.03945,0.04067,0.06578,0.01579,-0.00148,-0.00365,0.04071,-0.00431,-0.00282,0.05096,0.00569,-0.00265,0.06438,0.00888,0.04420,-0.01398,-0.00283,0.13882,0.01677,0.02657,-0.00358,-0.00232,0.06166,-0.00914,0.01758,-0.00169,-0.01265,-0.00423,0.04855,
-0.00105,-0.00218,-0.00283,0.06149,-0.00199,0.02485,-0.00101,0.05063,0.00235,0.04305,-0.00282,0.00820,0.03389,0.05647,0.02406,-0.00023,-0.00293,0.04487,0.05337,-0.00319,0.05011,-0.09339,-0.00013,0.05306,0.00732,0.05279,-0.11036,-0.00101,0.12286,0.01172,0.03370,-0.00254,-0.00273,0.04517,0.02681,0.00973,0.00057,-0.00487,-0.00367,0.05510,
-0.12644,-0.23934,-0.10833,0.53007,-0.11914,0.43454,-0.15998,0.52586,-0.27587,0.75299,-0.20465,-0.05812,0.71567,0.54836,0.55533,-0.23251,-0.24239,0.47944,0.65447,-0.17022,0.44597,0.52429,-0.24024,0.56072,-0.02047,0.58004,0.52135,-0.13756,0.41541,0.39959,0.49776,-0.18358,-0.20888,0.59811,0.38811,0.53114,-0.28941,0.35557,-0.17222,0.54056,
-0.00342,-0.00393,-0.00588,-0.02967,-0.00477,-0.05941,0.00053,0.05353,0.00054,0.05739,-0.00201,-0.01961,0.03953,0.04985,0.03132,-0.00186,-0.00323,-0.06382,0.00138,-0.00165,0.06388,0.12916,-0.00255,0.07052,0.00647,0.06059,0.01972,-0.00138,0.11654,0.01512,0.02677,-0.00133,-0.00078,0.07158,-0.01230,0.01171,-0.00121,0.02452,-0.00225,0.07227,
0.33955,0.59248,0.51234,0.25305,0.46859,0.13885,0.40991,0.14940,0.83104,0.46154,0.33744,-0.15121,0.36130,0.04546,0.24223,0.38994,0.62859,0.42997,0.18403,0.42242,0.40189,0.13130,0.49636,0.52381,0.72213,0.22563,0.39713,0.49190,0.28604,0.41558,0.13700,0.39602,0.57268,0.28584,-0.21843,0.17662,0.40698,-0.25488,0.41118,0.51587,
0.54111,0.61647,0.53699,0.00962,0.62543,-0.00601,0.56107,-0.08901,0.00128,-0.00456,0.62075,-0.04798,0.00248,-0.03773,0.42547,0.63978,0.53494,0.00130,-0.00601,0.54891,0.00004,-0.00457,0.40709,0.00155,0.00482,-0.03508,-0.00077,0.55748,-0.00551,-0.01026,-0.00792,0.60343,0.44736,0.00361,-0.30553,-0.00793,0.56060,-0.23479,0.62776,-0.00447,
0.19293,0.38677,0.22994,0.04046,0.20409,0.19234,0.29861,0.24848,0.56178,0.61563,0.40834,0.08010,0.59145,-0.00725,0.14626,0.31853,0.30975,0.45514,0.36427,0.32015,0.55023,0.40979,0.16585,0.50140,0.27116,0.13056,0.54503,0.18214,0.18523,0.23278,0.18507,0.19218,0.22753,0.61558,0.12432,0.10637,0.25626,-0.05317,0.37025,0.40190,
-0.13676,-0.13524,-0.12146,0.92833,-0.12995,0.94608,-0.06149,0.78474,-0.08338,0.79939,-0.11756,0.00301,0.76363,0.79785,1.07761,-0.09475,-0.14663,0.94167,0.76247,-0.15966,0.62973,0.84026,-0.06732,0.71399,-0.11849,0.75434,0.94804,-0.06848,0.62120,0.79277,0.93758,-0.13213,-0.14871,0.61802,0.81214,0.99981,-0.07673,0.68684,-0.13789,0.50784,
0.04888,0.05479,0.04895,0.03355,0.08324,0.07171,-0.35709,0.02196,0.15803,0.01715,0.04476,0.05828,0.02192,0.02201,0.11198,0.05908,0.12424,0.03904,0.00203,0.10716,0.01727,0.02593,0.05209,0.02997,0.30448,0.02405,0.03177,0.05578,0.03066,-0.22502,0.05510,0.05694,0.06354,0.02587,-0.18030,0.06904,0.07388,-0.19765,0.05121,0.01692,
-0.07255,-0.08816,-0.11215,1.02717,-0.11060,0.91995,-0.09790,0.70331,-0.13629,0.82118,-0.11887,-0.12285,0.82936,0.76364,1.03860,-0.10979,-0.15952,0.91466,0.77528,-0.19328,0.63336,0.76401,-0.14149,0.76683,-0.15314,0.94741,0.93210,-0.08919,0.69129,0.69334,0.90316,-0.11809,-0.13866,0.65307,0.84785,0.95354,-0.14043,0.69601,-0.13129,0.57526,
-0.04949,-0.04961,-0.05294,-0.02220,-0.04706,-0.01755,-0.04112,0.19956,-0.01961,0.23478,-0.05020,0.01809,0.14645,0.28048,0.09903,-0.05197,-0.04909,0.06492,0.01962,-0.04397,0.27958,0.09405,-0.04980,0.27199,0.02757,0.10243,0.02607,-0.04889,0.24879,0.02877,0.06122,-0.04998,-0.05009,0.31247,-0.01049,0.02040,-0.04409,-0.04692,-0.05158,0.26382,
-0.03979,-0.07178,-0.08836,1.00715,-0.05541,0.85797,-0.07413,0.60614,-0.10080,0.65862,-0.09085,-0.01994,0.73200,0.66373,0.97820,-0.08338,-0.06693,0.93806,0.78840,-0.13501,0.56916,0.92751,-0.07788,0.83124,-0.08274,0.77865,1.02353,-0.13801,0.63331,0.76784,0.89093,-0.05912,-0.10285,0.73221,0.80568,0.96755,-0.06225,0.78413,-0.15261,0.66516,
-0.14961,-0.09758,-0.09769,0.94628,-0.10932,0.77293,-0.08354,0.73488,-0.12129,0.78038,-0.11907,-0.01664,0.95093,0.69635,0.94279,-0.19771,-0.19345,0.99059,1.01835,-0.15921,0.52184,0.93400,-0.07525,0.65304,-0.11746,0.89826,0.85630,-0.13172,0.72283,0.84270,0.97681,-0.15289,-0.16506,0.57697,0.80976,0.96904,-0.17911,0.85086,-0.10599,0.55371,
0.05099,0.03932,0.04703,0.03633,0.06924,-0.00545,0.10348,0.01564,0.13941,0.01560,0.04334,-0.09057,0.02031,0.02066,0.12965,0.04972,-0.34409,0.03008,0.04240,0.09739,0.02065,0.02917,0.04777,0.03051,0.24767,0.02502,0.02486,0.04630,-0.02839,-0.19680,0.10066,0.04558,0.05344,0.01646,-0.15225,0.06398,0.06960,-0.14945,0.04438,0.02184,
0.69786,0.58600,0.60932,0.00516,0.57871,-0.00888,0.71385,-0.06811,0.01182,-0.00266,0.67810,-0.19528,-0.00019,-0.10540,-0.01477,0.75140,0.49097,-0.00159,-0.00400,0.48920,-0.00018,-0.00570,0.52834,-0.00296,0.00679,-0.04766,0.00058,0.45858,-0.00702,-0.00903,0.36743,0.67003,0.50031,0.00049,-0.16220,-0.01268,0.59033,0.03143,0.45847,0.00389,
0.54422,0.62502,0.55166,0.14609,0.50543,0.01132,0.54115,-0.03314,0.47012,0.42361,0.48293,-0.02514,0.49946,-0.10504,0.11329,0.60076,0.50633,0.34848,0.39122,0.54691,0.54217,0.15069,0.51628,0.36881,0.39234,0.21920,0.37064,0.39187,0.13455,0.31822,0.05359,0.54795,0.43665,0.41731,-0.26601,0.10454,0.61155,-0.15593,0.36801,0.39628,
0.51237,0.43029,0.44781,0.16388,0.41365,-0.01578,0.36241,-0.08075,0.51838,0.32179,0.48619,-0.06305,0.56894,-0.08725,0.27396,0.32543,0.45818,0.47631,0.04588,0.39158,0.37598,0.37117,0.42690,0.65408,0.49181,-0.02208,0.54307,0.36895,0.11202,0.34916,0.26124,0.39759,0.37424,0.29919,0.14161,0.19963,0.35298,0.00330,0.32324,0.49061,
-0.00499,-0.00612,-0.00681,-0.04920,-0.00599,0.01565,-0.00496,0.08704,-0.00046,0.06861,-0.00570,0.03739,0.05153,0.08110,0.02963,-0.00198,-0.00567,0.04645,0.07401,-0.00476,0.09116,-0.05252,-0.00458,0.07381,0.01415,0.06165,0.03836,-0.00412,0.09656,0.01094,0.01494,-0.00334,-0.00478,0.08520,-0.01676,0.03062,-0.00486,-0.02355,-0.00603,0.07826,
-0.09821,-0.05095,-0.09908,1.05155,-0.16207,0.99874,-0.07385,0.83164,-0.14565,0.74223,-0.08027,0.00076,0.94648,0.64573,0.88140,-0.16841,-0.17163,1.05005,0.94277,-0.15749,0.56577,0.85003,-0.10554,0.71200,-0.13009,0.85467,1.07259,-0.21131,0.63336,0.89122,1.08005,-0.15787,-0.11263,0.71880,1.00181,0.84998,-0.07851,0.92686,-0.13401,0.50447,
0.53530,0.53532,0.50783,-0.04901,0.64786,-0.00973,0.59771,-0.05003,-0.00513,-0.00160,0.72487,-0.02850,-0.00107,-0.12485,-0.00672,0.57922,0.47377,-0.00081,-0.00713,0.58866,0.00224,-0.00440,0.71490,0.00016,0.09139,0.08452,0.00104,0.51951,-0.00200,-0.00350,-0.00521,0.67890,0.49624,0.00029,-0.04840,-0.00900,0.71315,-0.09297,0.67610,-0.00118,
0.09183,0.03092,0.13201,-0.04837,-0.13618,-0.05377,0.01696,0.11135,-0.02930,-0.15300,-0.01329,0.06135,-0.05274,-0.13899,0.06040,-0.08141,-0.11856,-0.11133,0.13248,0.10006,0.01793,-0.02803,-0.07345,-0.12049,0.04593,0.01515,-0.13473,0.08104,-0.04470,0.19479,0.03992,0.19481,-0.10704,0.12178,-0.19648,0.12871,-0.01198,0.00048,0.10024,0.14439,
0.61085,0.62304,0.52255,0.01561,0.59059,0.25096,0.54930,-0.04732,-0.00810,-0.00571,0.58737,-0.06133,0.00226,-0.05198,-0.00706,0.53457,0.57944,-0.00146,-0.00836,0.60542,-0.00063,-0.00703,0.47985,0.00161,0.00744,-0.04163,-0.00018,0.35643,-0.01035,-0.01127,-0.00611,0.56618,0.55575,-0.00338,-0.18576,-0.00402,0.53742,-0.17352,0.41805,-0.00252,
0.70617,0.78068,0.85624,0.07459,0.86666,-0.11312,0.91409,-0.11142,0.87471,0.29426,0.81530,-0.07412,0.23729,-0.13991,-0.03809,0.88355,0.71227,0.36570,-0.01365,1.05498,0.26443,0.02127,1.07166,0.39155,0.63692,0.02118,0.22281,0.93211,0.01745,0.39254,0.01171,0.81152,0.87211,0.24620,-0.08475,0.00902,0.99170,0.01104,0.87130,0.38126,
0.52203,0.43636,0.60131,-0.04440,0.66418,-0.00674,0.57511,0.03960,-0.00778,-0.00441,0.63737,-0.05705,0.00064,-0.08157,-0.01147,0.60835,0.50087,0.00080,-0.00436,0.52435,-0.00187,-0.00346,0.52066,0.00215,0.00250,-0.04675,0.00284,0.57152,-0.00805,-0.00609,-0.01351,0.66886,0.45830,-0.00282,-0.13695,0.26289,0.62647,0.00908,0.56069,0.00424,
-0.00060,-0.00180,-0.00200,0.01058,-0.00047,0.14064,-0.00086,0.03811,0.00136,0.02758,-0.00021,-0.01680,0.02893,0.03660,0.01289,-0.00016,-0.00008,-0.09110,-0.04225,-0.00080,0.03568,0.06520,0.00020,0.03861,0.00696,-0.00898,0.02321,-0.00083,0.11260,0.00688,0.01580,-0.00150,0.00009,0.03463,0.02157,0.00262,-0.00039,-0.01396,-0.00065,0.03354,
-0.25596,-0.10804,-0.18810,1.04384,-0.18436,0.80919,-0.06520,0.58975,-0.27340,0.69149,-0.11064,-0.10558,0.86837,0.70842,1.01192,-0.07887,-0.08228,0.95476,0.67802,-0.09505,0.34749,0.83548,-0.16901,0.76568,-0.17356,0.72553,1.04941,-0.18816,0.67467,0.88248,0.98573,-0.17811,-0.20575,0.75824,1.04246,1.03934,-0.16345,0.96117,-0.14608,0.44004,
0.38565,0.36077,0.24198,-0.06830,0.20755,0.24827,0.33366,0.14695,0.60869,0.57509,0.13771,0.05317,0.42989,0.06877,0.10744,0.24762,0.10987,0.43318,0.40627,0.34021,0.49144,0.51942,0.38969,0.43701,0.48797,0.02003,0.33084,0.17434,0.24629,0.35144,0.18919,0.38768,0.31433,0.63521,0.10535,0.01250,0.16027,0.04830,0.18334,0.45779,
-0.00405,-0.00391,-0.00541,0.05087,-0.00297,-0.06042,-0.00463,0.05742,0.00052,0.03811,-0.00156,-0.19199,0.03259,0.05595,0.02935,-0.00324,-0.00304,0.04000,-0.07739,-0.00368,0.05049,-0.01310,-0.00274,0.04698,0.00752,0.05078,0.03952,-0.00277,0.22256,0.01545,0.01659,-0.00366,-0.00214,0.05249,-0.03158,0.00902,-0.00083,-0.00996,-0.00388,0.03879,
0.04735,0.05093,0.04567,0.04589,0.07857,0.04311,0.11650,0.03329,0.16017,0.02512,0.04788,-0.01815,0.02178,0.01810,0.19485,0.05379,0.10429,0.04098,0.05944,-0.32992,0.01294,0.07938,0.05723,-0.02916,0.28187,0.02678,0.03769,0.05071,0.03347,-0.22806,0.19824,0.05125,0.05835,0.00683,-0.23434,0.05326,0.06613,-0.21222,0.05461,0.01724};

bias_t b2[40] = {0.00156,0.00202,0.00245,-0.00029,0.00158,-0.02879,0.00118,-0.00008,-0.00128,-0.00015,0.00194,-0.09238,-0.00043,0.00018,-0.05078,-0.00017,0.00125,-0.00015,-0.02631,0.00085,-0.00020,-0.01121,0.00162,-0.00000,-0.01059,-0.00007,-0.00005,0.00156,-0.04893,-0.02417,-0.04553,0.00136,0.00164,-0.00024,-0.00037,-0.03041,0.00113,-0.00044,0.00216,-0.00030};

weight_t w3[40][40] = {
0.61573,-0.00090,-0.00079,0.00119,0.00053,0.43746,-0.00078,-0.00132,-0.00014,0.00084,0.73300,-0.00211,0.01454,-0.04529,0.00006,0.68109,0.55026,0.64299,-0.01346,0.00291,0.00079,-0.00166,0.64343,0.00032,-0.00140,0.00012,0.46956,0.70086,0.57427,0.54765,-0.00008,0.53141,0.00028,0.59833,0.66442,0.00011,-0.00288,0.48043,-0.03412,0.42180,
0.60822,-0.00005,0.00107,-0.00135,0.00039,0.53478,0.00180,0.00323,-0.00063,0.00049,0.53522,0.00330,0.03767,-0.06645,0.00035,0.48051,0.53196,0.58831,0.00983,-0.00032,-0.00080,0.00013,0.62658,0.00004,0.00122,-0.00182,0.40439,0.61333,0.62479,0.59413,-0.00021,0.43643,0.00216,0.66073,0.69209,-0.00034,0.00200,0.65365,-0.18667,0.57360,
0.70256,-0.00178,-0.00191,-0.00134,-0.00327,0.63245,-0.00106,-0.00086,-0.00218,-0.00042,0.45520,-0.00088,0.08785,-0.06969,-0.00035,0.50437,0.54271,0.60810,0.05729,-0.00092,-0.00047,-0.00004,0.54218,-0.00147,0.00074,-0.00142,0.53548,0.64654,0.57313,0.45698,-0.00163,0.55109,-0.00172,0.63196,0.57424,-0.00110,0.00297,0.60360,-0.03309,0.56389,
-0.07659,0.40581,0.66192,0.53585,0.54344,-0.08509,0.47791,0.48020,0.39917,0.61507,-0.08032,0.53276,0.59206,-0.23775,0.50651,-0.07435,-0.07459,-0.05531,0.54549,0.46171,0.51146,0.35252,-0.08666,0.58564,0.51208,0.51019,-0.05934,-0.06990,-0.05163,-0.07715,0.53261,-0.09498,0.55315,-0.07499,-0.07172,0.61623,0.64338,-0.06507,0.51642,-0.06450,
0.57100,0.00079,-0.00071,0.00028,0.00095,0.55389,0.00218,0.00006,0.00038,-0.00138,0.62839,-0.00016,0.01404,-0.05243,-0.00073,0.65591,0.36688,0.64945,-0.01370,-0.00278,-0.00194,-0.00046,0.69910,0.00084,-0.00112,-0.00204,0.59315,0.65999,0.71601,0.54332,-0.00168,0.57484,-0.00221,0.66072,0.57856,-0.00048,-0.00008,0.61767,-0.03424,0.49224,
-0.05476,0.45446,0.45000,0.45487,0.40058,-0.05548,0.45540,0.43173,0.27970,0.61844,-0.05213,0.58125,0.23279,-0.24325,0.54683,-0.05763,-0.05636,-0.04753,0.29020,0.49599,0.38603,0.46290,-0.06051,0.50670,0.57066,0.37251,-0.04627,-0.05925,-0.04377,-0.04694,0.49803,-0.06053,0.51742,-0.05216,-0.05893,0.41737,0.44633,-0.04321,0.23486,-0.04852,
0.57588,-0.00021,0.00031,-0.00196,-0.00077,0.62337,-0.00020,0.00045,-0.00100,-0.00036,0.60586,0.00374,0.06717,-0.06592,0.00078,0.63436,0.56228,0.52286,-0.13352,0.00275,-0.00012,0.00135,0.68706,-0.00091,-0.00015,0.00165,0.74874,0.75904,0.55520,0.54968,0.00143,0.61021,0.00141,0.65581,0.46700,0.00091,0.00254,0.67613,-0.17010,0.47228,
0.02205,0.21063,0.04806,0.47190,0.35057,0.02020,0.64307,0.34959,0.54936,0.40694,0.02763,0.39287,0.00772,-0.24203,0.51191,0.02222,0.02476,0.01634,-0.00755,0.30332,0.48511,0.35392,0.02168,0.37977,0.34262,0.17888,0.01324,0.01573,0.01711,0.02153,0.56991,0.02318,0.25133,0.02027,0.01579,0.43979,0.47326,0.01936,0.01711,0.01936,
0.41935,0.14665,0.17158,0.20466,0.19366,0.50981,0.23924,0.09924,0.16250,0.17567,0.26132,0.24591,0.00466,-0.16904,0.14545,0.41300,0.29929,0.41333,0.04988,0.20940,0.18072,0.06011,0.33273,0.29796,0.20328,0.25779,0.39514,0.30757,0.24318,0.43594,0.17787,0.42711,0.25681,0.45052,0.31915,0.14594,0.20427,0.40365,-0.18382,0.28296,
0.02344,0.30595,0.16630,0.46945,0.40323,0.02067,0.55433,0.52842,0.65743,0.47241,0.02438,0.46879,0.01233,-0.43250,0.48602,0.01769,0.02863,0.01361,-0.00365,0.49082,0.42340,0.42912,0.02342,0.58319,0.59238,0.23980,0.01914,0.02360,0.01800,0.01935,0.47976,0.02899,0.53426,0.01970,0.02471,0.40306,0.37704,0.02017,0.00548,0.02399,
0.64915,-0.00150,0.00067,-0.00208,0.00141,0.61079,-0.00036,0.00278,-0.00122,-0.00170,0.62347,-0.00020,0.03831,-0.05518,0.00050,0.64124,0.62926,0.76554,-0.01112,0.00346,-0.00038,-0.00030,0.66818,0.00009,-0.00044,-0.00148,0.65021,0.57741,0.69333,0.66953,-0.00191,0.60319,-0.00075,0.59274,0.51972,-0.00082,0.00211,0.53079,-0.08728,0.61816,
-0.01485,-0.01669,-0.02049,-0.06774,0.00189,0.08186,-0.08760,0.08793,-0.01760,-0.06535,-0.04887,-0.05524,0.12231,0.04925,0.02289,-0.03499,-0.06985,-0.01263,-0.07193,0.05111,0.13672,-0.11478,-0.04827,-0.04617,0.01963,0.03825,0.13129,0.06616,-0.03847,0.07779,0.13676,0.01772,-0.13461,0.03726,0.07015,0.06080,-0.09147,-0.07532,-0.06000,0.08782,
0.02037,0.42032,0.35741,0.58940,0.48164,0.02693,0.51260,0.59018,0.55969,0.43031,0.01963,0.61073,0.05822,-0.33800,0.55599,0.02158,0.02538,0.01871,0.08905,0.61063,0.49747,0.38509,0.01607,0.66497,0.42025,0.37851,0.01487,0.02295,0.01715,0.01647,0.56785,0.02616,0.49142,0.02054,0.01737,0.46693,0.61824,0.02136,0.07321,0.02146,
0.02202,0.34879,0.17603,0.43998,0.43453,0.02641,0.52797,0.34674,0.50963,0.55051,0.02616,0.25945,-0.00237,-0.37063,0.33802,0.01951,0.02264,0.02011,-0.01230,0.53841,0.37149,0.32491,0.02329,0.38456,0.54911,0.23947,0.01785,0.02052,0.01168,0.02027,0.42526,0.02262,0.23098,0.02249,0.02291,0.32035,0.48672,0.01460,-0.00618,0.01832,
-0.12564,0.63061,0.54867,0.46526,0.56818,-0.14122,0.69114,0.60168,0.43854,0.63488,-0.14484,0.67053,0.49232,-0.15443,0.51219,-0.14198,-0.12465,-0.08584,0.61066,0.70396,0.65890,0.54375,-0.16008,0.65804,0.40762,0.42435,-0.10351,-0.12136,-0.09242,-0.13167,0.52014,-0.15329,0.59579,-0.11930,-0.11879,0.54233,0.49071,-0.11191,0.52354,-0.12975,
0.63797,-0.00162,0.00196,0.00087,-0.00011,0.64228,-0.00058,0.00159,0.00206,-0.00029,0.52421,0.00324,-0.08163,-0.04740,-0.00074,0.59406,0.47808,0.56115,-0.04871,-0.00094,0.00012,0.00118,0.55883,-0.00135,-0.00009,0.00180,0.63849,0.64969,0.59866,0.52830,0.00001,0.48954,-0.00024,0.66736,0.49791,-0.00050,-0.00018,0.56030,-0.24936,0.56197,
0.49503,-0.00153,0.00082,-0.00216,0.00010,0.58223,0.00074,-0.00079,0.00022,-0.00091,0.54890,0.00273,-0.02312,-0.08614,-0.00149,0.40257,0.39232,0.41781,0.08131,0.00095,-0.00050,0.00162,0.51129,0.00058,0.00032,-0.00177,0.62905,0.61658,0.63164,0.46366,0.00090,0.60814,-0.00040,0.58244,0.64694,0.00032,0.00112,0.64444,-0.13995,0.53800,
-0.02977,0.65225,0.50705,0.48863,0.59857,-0.03632,0.58417,0.57175,0.64966,0.57137,-0.04124,0.60255,0.26026,-0.40975,0.66764,-0.03930,-0.03307,-0.02035,0.35591,0.59225,0.54863,0.46004,-0.04204,0.66817,0.53327,0.58363,-0.02467,-0.02404,-0.02041,-0.03579,0.49353,-0.04273,0.61089,-0.02699,-0.02403,0.69182,0.41506,-0.02862,0.31925,-0.02854,
-0.03912,0.48779,0.51565,0.50631,0.56861,-0.03473,0.47768,0.44812,0.43958,0.60153,-0.03923,0.61447,0.21723,-0.35991,0.46206,-0.04507,-0.04225,-0.03132,0.21209,0.44789,0.63501,0.32653,-0.04473,0.51628,0.65986,0.39514,-0.03262,-0.03925,-0.02884,-0.03592,0.50334,-0.05291,0.37639,-0.03431,-0.03722,0.67677,0.52014,-0.03610,0.22098,-0.04009,
0.57092,-0.00052,0.00151,0.00017,0.00066,0.63196,-0.00020,0.00156,0.00165,0.00073,0.72071,0.00296,-0.10789,-0.05757,0.00113,0.69867,0.52807,0.61872,0.04417,0.00227,0.00117,0.00171,0.72402,0.00031,-0.00031,0.00175,0.64082,0.55708,0.67102,0.56875,-0.00023,0.51145,0.00034,0.60151,0.68353,0.00094,-0.00131,0.60199,-0.19970,0.56043,
0.02425,0.34211,0.13326,0.49725,0.32100,0.02711,0.54782,0.35825,0.57369,0.52576,0.02905,0.38432,-0.01785,-0.27301,0.42126,0.02672,0.03054,0.01774,-0.02240,0.45772,0.37934,0.36704,0.03042,0.45921,0.56544,0.28680,0.01984,0.02090,0.01650,0.02534,0.42269,0.02484,0.33547,0.02471,0.02620,0.55363,0.38228,0.01936,-0.01411,0.02085,
-0.02728,0.60374,0.45208,0.47398,0.46831,-0.02122,0.57702,0.49316,0.36190,0.48181,-0.02611,0.40022,0.12599,-0.31424,0.38849,-0.02188,-0.02970,-0.02023,0.17435,0.43430,0.46168,0.38281,-0.02672,0.54487,0.45062,0.46944,-0.02478,-0.02104,-0.02158,-0.02777,0.43033,-0.03119,0.54264,-0.01760,-0.02689,0.57297,0.46834,-0.02125,0.17513,-0.02057,
0.44963,0.00139,0.00244,-0.00116,0.00068,0.58500,-0.00148,0.00037,-0.00062,-0.00007,0.59554,-0.00011,-0.01170,-0.06947,-0.00032,0.73334,0.46615,0.55635,-0.04732,0.00123,-0.00199,-0.00102,0.59522,0.00058,-0.00146,0.00089,0.62991,0.70735,0.50531,0.65657,0.00110,0.53497,0.00011,0.63341,0.71855,0.00006,0.00100,0.64123,-0.14173,0.47295,
0.02426,0.39388,0.13696,0.50044,0.43958,0.02698,0.48698,0.38740,0.51796,0.62473,0.02599,0.28690,0.00083,-0.46853,0.57694,0.01999,0.02913,0.01771,-0.00884,0.55929,0.37779,0.20889,0.02122,0.36021,0.54152,0.21440,0.01921,0.02219,0.01547,0.02283,0.40663,0.02640,0.48316,0.02338,0.02379,0.46201,0.36853,0.01912,-0.00078,0.02243,
0.20280,0.24729,0.21855,0.29161,0.33677,0.22306,0.36372,0.26770,0.37453,0.28355,0.17533,0.24181,-0.27159,-0.31365,0.27820,0.18309,0.13202,0.22802,-0.03225,0.27743,0.24875,0.24878,0.27305,0.22736,0.31699,0.27194,0.20597,0.18035,0.17390,0.28138,0.25505,0.23031,0.26402,0.20325,0.19718,0.19799,0.27339,0.16551,-0.32975,0.24321,
0.01856,0.41352,0.35681,0.45917,0.51768,0.01517,0.54944,0.56520,0.57816,0.58379,0.01948,0.51753,0.06861,-0.17873,0.37049,0.02143,0.02262,0.01638,0.07187,0.52776,0.46482,0.32563,0.01624,0.38661,0.41559,0.23976,0.01690,0.01891,0.02102,0.01983,0.35222,0.02125,0.40985,0.02131,0.01750,0.52790,0.58205,0.01944,0.06483,0.01801,
-0.03877,0.57201,0.41438,0.53235,0.49177,-0.04664,0.50459,0.59976,0.60552,0.62003,-0.04638,0.71615,0.43468,-0.39936,0.60101,-0.03842,-0.04429,-0.01863,0.46183,0.43099,0.45330,0.50736,-0.05094,0.66521,0.67099,0.63322,-0.02795,-0.03192,-0.02169,-0.04265,0.56247,-0.06146,0.43959,-0.03827,-0.02976,0.69924,0.62887,-0.03738,0.37666,-0.03189,
0.60109,-0.00119,0.00098,0.00159,0.00087,0.53014,0.00028,0.00059,-0.00273,-0.00065,0.67326,-0.00165,0.05804,-0.05590,-0.00136,0.60532,0.55217,0.47693,0.01874,-0.00010,-0.00053,-0.00111,0.48464,0.00006,0.00025,0.00073,0.59376,0.51533,0.62834,0.51098,0.00005,0.48713,-0.00180,0.61182,0.50677,-0.00167,-0.00136,0.57382,-0.21317,0.66635,
0.02367,0.34054,0.05798,0.56297,0.43420,0.02085,0.64360,0.49813,0.56013,0.46538,0.02740,0.26487,-0.02412,-0.29852,0.44758,0.02632,0.02496,0.00844,-0.01802,0.44917,0.33757,0.32102,0.02653,0.42165,0.56476,0.15838,0.01015,0.02447,0.01246,0.02056,0.37128,0.02618,0.36974,0.01804,0.02090,0.42843,0.42717,0.01991,-0.02282,0.01223,
-0.14992,0.37606,0.48241,0.29134,0.42931,-0.21285,0.30282,0.40585,0.44251,0.36570,-0.17533,0.45276,0.79083,-0.18664,0.52770,-0.16706,-0.13126,-0.10952,0.79048,0.49382,0.46442,0.41059,-0.19439,0.26818,0.44464,0.38494,-0.13605,-0.13940,-0.10539,-0.16215,0.41058,-0.17634,0.54606,-0.14554,-0.13837,0.42230,0.32572,-0.13093,0.80790,-0.14024,
-0.12512,0.59520,0.36394,0.65922,0.39522,-0.14226,0.43212,0.45897,0.44596,0.58354,-0.14607,0.62846,0.61567,-0.33149,0.56195,-0.13057,-0.11947,-0.08588,0.58537,0.44072,0.47095,0.57541,-0.15365,0.65346,0.55109,0.58848,-0.10116,-0.12073,-0.09153,-0.13267,0.58183,-0.15535,0.50480,-0.12444,-0.11906,0.73793,0.61071,-0.10783,0.50349,-0.12108,
0.53296,0.00023,-0.00004,0.00356,-0.00061,0.61038,0.00199,-0.00207,0.00084,0.00196,0.62152,0.00259,-0.00365,-0.05728,-0.00141,0.58054,0.50737,0.62587,-0.03080,-0.00090,0.00126,0.00330,0.69422,0.00244,-0.00112,0.00229,0.55233,0.67620,0.62957,0.53328,0.00141,0.58947,0.00155,0.53374,0.62871,0.00027,0.00346,0.63301,-0.15526,0.45153,
0.64823,-0.00103,0.00338,0.00055,-0.00021,0.49544,-0.00188,0.00041,-0.00010,-0.00037,0.49854,0.00197,-0.02055,-0.08493,0.00013,0.40933,0.51794,0.56249,0.03043,0.00072,-0.00060,0.00005,0.51151,-0.00100,0.00021,0.00093,0.62557,0.51707,0.53515,0.65875,-0.00052,0.60245,-0.00027,0.53350,0.62472,-0.00058,-0.00065,0.54548,-0.17672,0.61443,
0.02304,0.25122,0.07715,0.45234,0.46856,0.02164,0.53707,0.31386,0.48979,0.42990,0.02268,0.36052,-0.00845,-0.30435,0.54862,0.02168,0.02609,0.01453,-0.01043,0.30511,0.39308,0.39822,0.02369,0.37796,0.66375,0.05442,0.01390,0.01809,0.01891,0.02144,0.43110,0.02215,0.34011,0.02265,0.02146,0.53172,0.45985,0.02002,-0.00461,0.01979,
-0.23723,0.36777,0.68059,0.34673,0.35211,-0.29988,0.32858,0.45070,0.26655,0.27942,-0.23361,0.54566,0.88755,-0.13623,0.42299,-0.20092,-0.31307,-0.34055,0.73840,0.27704,0.47483,0.54072,-0.30284,0.27354,0.30321,0.57037,-0.20098,-0.24754,-0.25452,-0.25811,0.55376,-0.23950,0.55536,-0.26307,-0.35350,0.51232,0.31253,-0.19040,0.88453,-0.21384,
-0.15658,0.37529,0.59527,0.37301,0.56640,-0.16638,0.39619,0.42042,0.49397,0.38353,-0.16326,0.59389,0.59530,-0.34444,0.43174,-0.15317,-0.14089,-0.10048,0.70068,0.50052,0.41968,0.45987,-0.18104,0.48550,0.34527,0.45342,-0.11876,-0.14500,-0.10529,-0.15494,0.55782,-0.17948,0.51006,-0.14402,-0.13559,0.36960,0.51574,-0.13289,0.64378,-0.14070,
0.69204,0.00089,0.00093,-0.00083,0.00150,0.69122,0.00071,0.00130,0.00048,0.00076,0.72283,-0.00038,0.00654,-0.03303,-0.00020,0.70655,0.50537,0.57718,-0.01506,-0.00094,-0.00040,-0.00204,0.59291,0.00100,-0.00100,0.00278,0.58803,0.54239,0.65967,0.66782,0.00102,0.48476,-0.00101,0.68261,0.61753,0.00145,0.00001,0.66724,-0.12227,0.51812,
-0.19517,0.47596,0.49547,0.40579,0.20395,-0.31171,0.33782,0.21734,0.26788,0.12850,-0.23085,0.31167,0.85807,-0.11200,0.43664,-0.23709,-0.20542,-0.30697,0.76910,0.24656,0.55068,0.37169,-0.32404,0.30494,0.26934,0.64198,-0.25391,-0.28979,-0.20402,-0.25777,0.37022,-0.31752,0.41614,-0.29376,-0.25381,0.45426,0.31989,-0.26955,0.87498,-0.20289,
0.65400,0.00044,0.00208,-0.00023,-0.00260,0.62113,-0.00029,-0.00107,0.00221,0.00043,0.49023,-0.00092,0.01996,-0.07189,0.00007,0.59318,0.48464,0.58019,0.04648,0.00120,0.00187,0.00249,0.61562,-0.00113,-0.00031,0.00128,0.64350,0.56934,0.54331,0.42836,-0.00065,0.56957,-0.00036,0.54196,0.60499,-0.00178,-0.00090,0.41610,-0.21953,0.56428,
0.02650,0.38933,0.16390,0.50717,0.43929,0.02358,0.57531,0.35536,0.46696,0.51621,0.02199,0.40922,-0.01647,-0.23632,0.38177,0.02208,0.02473,0.01525,-0.02386,0.46086,0.32074,0.42642,0.02343,0.23682,0.43865,0.23362,0.01621,0.02325,0.01703,0.01917,0.30347,0.02724,0.34389,0.02274,0.02361,0.49013,0.52905,0.01396,-0.02372,0.01983};

bias_t b3[40] = {-0.00264,-0.00022,-0.00003,-0.00038,-0.00008,-0.00136,0.00002,0.00027,-0.00004,-0.00031,-0.00105,-0.00045,-0.03842,-0.00014,-0.00010,-0.00256,-0.00105,-0.00100,-0.03836,-0.00042,0.00060,-0.00020,-0.00071,0.00001,-0.00022,-0.00036,-0.00201,-0.00163,-0.00202,-0.00055,0.00010,-0.00271,-0.00001,-0.00356,-0.00186,-0.00032,-0.00054,-0.00147,-0.03976,-0.00143};

weight_t w4[40][40] = {
0.68625,0.00040,-0.00094,0.00156,-0.00115,0.63740,0.00027,0.00035,-0.00167,-0.48687,-0.15077,0.10860,-0.00024,0.27855,0.28359,-0.65649,0.00028,0.48247,-0.00027,-0.00108,0.41396,0.08262,0.60414,0.14646,0.00396,0.32028,-0.62273,0.22977,0.06053,-0.57265,0.60851,0.62901,-0.57557,0.70420,0.63536,0.62188,0.58186,-0.49801,0.17893,0.17099,
-0.06193,0.40919,0.58863,0.46284,0.71783,-0.06608,0.72580,0.66897,0.75770,0.03902,0.10736,-0.08506,0.65726,0.48782,0.28901,0.02261,0.53181,-0.05726,0.80813,0.62727,-0.02273,-0.12734,-0.06268,-0.14598,0.04208,-0.17483,0.02504,-0.26131,-0.31084,0.02978,-0.06084,-0.06131,0.04169,-0.06392,-0.07144,-0.07008,-0.06535,0.02296,-0.11479,0.41717,
-0.10071,0.45689,0.50555,0.49007,0.60782,-0.10141,0.65174,0.40539,0.64371,0.08495,0.19254,-0.29894,0.69448,0.48155,0.51298,0.05514,0.41006,-0.09087,0.68144,0.36084,-0.05048,-0.42566,-0.09809,-0.12828,0.10803,-0.16221,0.07246,-0.25785,-0.15503,0.06565,-0.09010,-0.09584,0.09095,-0.09678,-0.09722,-0.09953,-0.09513,0.06499,-0.30148,0.61687,
-0.03934,0.59049,0.75783,0.55864,0.72103,-0.04144,0.51849,0.57553,0.79945,0.02454,0.06167,-0.21555,0.62909,0.48349,0.43212,0.01068,0.62929,-0.03255,0.65214,0.70993,-0.01581,-0.28871,-0.03928,-0.19031,0.01279,-0.25911,0.01598,-0.17927,-0.20127,0.01237,-0.04087,-0.03653,0.02157,-0.04047,-0.04291,-0.04474,-0.04511,0.01513,-0.15255,0.47176,
-0.04576,0.56018,0.56576,0.51788,0.65220,-0.04445,0.65329,0.58774,0.67854,0.02469,0.04900,-0.09974,0.75265,0.42266,0.45177,0.01342,0.51445,-0.04309,0.49664,0.51015,-0.01380,-0.35671,-0.05021,-0.14909,0.02082,-0.30185,0.02175,-0.19670,-0.24117,0.02093,-0.04851,-0.04549,0.02717,-0.04913,-0.05374,-0.05164,-0.05094,0.01913,-0.15208,0.51014,
0.65853,0.00124,0.00025,-0.00005,-0.00101,0.53420,0.00326,-0.00138,0.00089,-0.42198,-0.14482,0.19939,0.00176,0.12372,0.11764,-0.72944,0.00206,0.51462,0.00103,0.00041,0.55412,0.12438,0.59581,0.16891,-0.06348,0.21740,-0.58586,0.14194,0.09004,-0.55222,0.67701,0.53185,-0.49332,0.69335,0.66341,0.61382,0.48376,-0.60867,0.06279,0.07465,
-0.03192,0.52683,0.74290,0.60331,0.74781,-0.03585,0.56591,0.76071,0.68408,0.01480,0.02668,-0.16399,0.74236,0.42434,0.44610,0.00507,0.65018,-0.03202,0.70535,0.68253,-0.01769,-0.32898,-0.03150,-0.19863,0.01753,-0.23129,0.01481,-0.21028,-0.22190,0.00726,-0.03384,-0.02737,0.02254,-0.03184,-0.03203,-0.03350,-0.03539,0.01008,-0.17008,0.51235,
-0.05254,0.53740,0.49745,0.49536,0.75005,-0.05377,0.57061,0.71431,0.79949,0.02525,0.06848,-0.24499,0.75624,0.28977,0.30350,0.01545,0.53888,-0.04517,0.51789,0.62050,-0.01419,-0.17937,-0.04915,-0.15745,0.02107,-0.22034,0.01846,-0.24296,-0.33421,0.01920,-0.05330,-0.05111,0.02815,-0.05457,-0.05170,-0.05357,-0.05917,0.01483,-0.07819,0.57915,
-0.03409,0.45033,0.62854,0.55911,0.75044,-0.03082,0.76750,0.53156,0.64212,0.02352,0.00515,-0.19306,0.69274,0.64977,0.46738,0.00342,0.48365,-0.02669,0.71896,0.63136,-0.01782,-0.23843,-0.03242,-0.12607,0.00932,-0.24394,0.01281,-0.17349,-0.29077,0.00972,-0.03456,-0.03153,0.02731,-0.03538,-0.03631,-0.03299,-0.03204,0.00907,-0.16373,0.53322,
-0.03738,0.50651,0.68334,0.38290,0.73475,-0.03879,0.80666,0.51633,0.87370,0.02439,0.01572,-0.21101,0.88162,0.51608,0.52807,0.00703,0.46998,-0.03484,0.66249,0.57192,-0.01449,-0.35378,-0.03773,-0.21344,0.02045,-0.22264,0.01488,-0.19437,-0.17380,0.01681,-0.03999,-0.03995,0.02033,-0.03907,-0.03966,-0.04257,-0.04257,0.01549,-0.21250,0.63320,
0.47683,-0.00205,0.00017,-0.00033,0.00016,0.60720,-0.00047,-0.00148,0.00165,-0.57010,-0.16238,0.10900,0.00074,0.24057,0.23315,-0.51808,-0.00010,0.49436,-0.00292,-0.00064,0.59513,0.10119,0.59540,0.23395,0.01521,0.33742,-0.56813,0.16960,0.10364,-0.58270,0.66575,0.57793,-0.53979,0.68267,0.61856,0.52479,0.68948,-0.66147,0.17055,0.15770,
-0.04899,0.57108,0.78602,0.48239,0.60344,-0.05319,0.78897,0.70726,0.69866,0.03713,0.07280,-0.27081,0.65243,0.39166,0.45292,0.01622,0.47362,-0.04287,0.78083,0.64579,-0.02006,-0.32068,-0.05277,-0.20015,0.04294,-0.20547,0.02215,-0.25335,-0.16238,0.03097,-0.05063,-0.04622,0.03411,-0.04990,-0.04891,-0.05263,-0.05523,0.02506,-0.19939,0.55690,
-0.08490,0.12346,0.05607,0.07219,0.05724,-0.09475,0.11821,0.02383,0.07692,0.65836,0.23168,0.09610,0.10051,-0.09619,0.07770,0.68169,0.11499,-0.10219,-0.05624,0.17131,-0.52354,-0.11725,-0.06982,-0.11529,0.78017,0.16881,0.65150,0.08581,-0.10705,0.67883,-0.17647,-0.12176,0.66933,-0.12777,-0.12886,-0.16899,-0.07623,0.67664,0.13287,0.10936,
0.24750,-0.11504,-0.00450,-0.12321,0.01244,0.28645,0.00589,-0.07020,0.01005,-0.01921,0.00254,0.34066,0.00965,-0.01110,-0.01304,0.04475,-0.16522,0.31273,0.00314,-0.13067,0.49220,0.39565,0.30671,0.02130,0.06275,0.01463,-0.21085,0.01537,0.37843,-0.08393,0.47774,0.26955,-0.09210,0.18571,0.33566,0.39088,0.45576,-0.15667,0.49820,-0.01597,
-0.04407,0.50768,0.71874,0.57611,0.73135,-0.03993,0.49966,0.69291,0.60070,0.02464,0.06828,-0.14588,0.78461,0.55738,0.58360,0.01295,0.56290,-0.03807,0.58899,0.75026,-0.01259,-0.35060,-0.03894,-0.20285,0.01690,-0.19683,0.01573,-0.19120,-0.16228,0.01885,-0.04123,-0.03989,0.02677,-0.04422,-0.04602,-0.04312,-0.04296,0.01383,-0.11030,0.60597,
0.48388,-0.00144,-0.00021,0.00110,-0.00163,0.57328,0.00042,-0.00052,0.00006,-0.48089,-0.15239,0.11165,0.00071,0.23085,0.23116,-0.58847,-0.00059,0.55570,0.00149,0.00095,0.61874,0.08192,0.63049,0.23531,-0.00386,0.28261,-0.47902,0.24112,0.08707,-0.50986,0.63323,0.57751,-0.51546,0.68469,0.64986,0.68151,0.49580,-0.60511,0.21270,0.14356,
0.48050,0.00166,-0.00114,-0.00090,-0.00077,0.54910,-0.00153,0.00001,0.00219,-0.40337,-0.23248,0.14269,0.00079,0.39927,0.39953,-0.50645,-0.00189,0.52218,-0.00077,0.00003,0.42219,0.10281,0.50928,0.34196,0.14642,0.33854,-0.42446,0.28830,0.12650,-0.44495,0.51152,0.44758,-0.45945,0.39782,0.44995,0.48765,0.48538,-0.54470,0.15958,0.29166,
0.53540,-0.00084,-0.00048,0.00029,-0.00072,0.62586,-0.00055,0.00056,-0.00228,-0.27007,-0.14909,0.05756,-0.00055,0.17538,0.18974,-0.57347,-0.00022,0.67686,0.00274,-0.00084,0.51369,0.14813,0.65163,0.25308,0.07836,0.17072,-0.46764,0.19348,0.06933,-0.51990,0.67715,0.71572,-0.33738,0.68344,0.72193,0.76299,0.63216,-0.44186,0.15297,0.11064,
-0.03225,0.04948,0.11130,0.08801,0.24006,-0.03240,0.25130,0.07726,0.31798,0.59363,0.30613,0.14004,0.28048,0.35427,0.41543,0.59423,0.06277,-0.03365,0.35861,0.05392,-0.46382,0.09517,-0.04299,0.19776,1.02833,-0.02140,0.55978,0.18896,-0.05362,0.57489,-0.03308,-0.03417,0.58197,-0.03641,-0.04031,-0.03234,-0.04319,0.59021,0.08736,0.44559,
-0.04543,0.47531,0.57371,0.42998,0.81348,-0.04347,0.60565,0.70345,0.57342,0.02511,0.05433,-0.18596,0.75728,0.64433,0.41266,0.00831,0.50813,-0.03772,0.71535,0.53163,-0.01311,-0.35241,-0.04220,-0.15872,0.01599,-0.23837,0.01733,-0.22659,-0.19313,0.02168,-0.04273,-0.04186,0.02667,-0.05022,-0.04512,-0.04599,-0.04806,0.01073,-0.10907,0.61139,
-0.05744,0.58052,0.72437,0.44887,0.51715,-0.05246,0.65542,0.56626,0.66516,0.03382,0.07716,-0.23998,0.78701,0.53641,0.40884,0.01444,0.65197,-0.04614,0.67528,0.67079,-0.02395,-0.29663,-0.05390,-0.22594,0.03170,-0.20771,0.02367,-0.23897,-0.16598,0.02699,-0.04962,-0.04758,0.03048,-0.05642,-0.05984,-0.05402,-0.05039,0.02369,-0.18294,0.67225,
-0.06342,0.53348,0.45048,0.53051,0.60392,-0.06160,0.67752,0.46716,0.52282,0.03674,0.09900,-0.16710,0.69545,0.38358,0.31021,0.01770,0.55746,-0.05625,0.57548,0.56739,-0.02001,-0.16937,-0.06801,-0.30509,0.03278,-0.17250,0.03224,-0.21624,-0.22874,0.02670,-0.06441,-0.06034,0.03646,-0.06410,-0.07012,-0.06782,-0.06530,0.02164,-0.18268,0.65375,
0.54587,0.00169,-0.00029,-0.00030,0.00067,0.52429,0.00168,-0.00070,0.00218,-0.55402,-0.14069,0.05813,0.00159,0.15818,0.16836,-0.55639,0.00090,0.51233,0.00229,-0.00051,0.64115,0.11659,0.57664,0.25610,-0.05387,0.16614,-0.76982,0.11864,0.09178,-0.69822,0.58930,0.52235,-0.49757,0.67477,0.64107,0.60347,0.69149,-0.59033,0.25734,0.09208,
-0.04764,0.48235,0.62894,0.52820,0.64321,-0.04831,0.70786,0.60524,0.68320,0.02812,0.07724,-0.17848,0.78555,0.35851,0.44434,0.01006,0.55619,-0.04059,0.78520,0.64224,-0.01212,-0.23570,-0.04913,-0.17749,0.03080,-0.27587,0.01889,-0.14358,-0.33886,0.02394,-0.05128,-0.04692,0.02960,-0.05298,-0.05172,-0.05189,-0.05319,0.01798,-0.11114,0.64790,
-0.03938,0.56634,0.71940,0.64420,0.78554,-0.03792,0.69806,0.63624,0.64294,0.02011,0.03445,-0.16190,0.74028,0.52584,0.55178,0.00296,0.68604,-0.03380,0.73189,0.58897,-0.01682,-0.21696,-0.03988,-0.18252,0.01804,-0.18829,0.01291,-0.26094,-0.18645,0.01333,-0.03497,-0.03401,0.01408,-0.03779,-0.04385,-0.04224,-0.03971,0.01270,-0.11144,0.56125,
-0.08329,0.51276,0.51303,0.44954,0.70949,-0.08666,0.59150,0.48117,0.64596,0.06929,0.15185,-0.29754,0.72776,0.41042,0.53980,0.04334,0.45746,-0.08330,0.63998,0.35783,-0.03273,-0.31677,-0.08479,-0.16625,0.07727,-0.17811,0.05012,-0.20248,-0.24385,0.05531,-0.08784,-0.08649,0.07148,-0.08668,-0.08398,-0.09201,-0.09302,0.04703,-0.21732,0.52946,
0.64221,-0.00049,-0.00266,-0.00284,0.00020,0.70741,-0.00096,-0.00053,0.00145,-0.38235,-0.15835,0.09186,-0.00057,0.27958,0.29209,-0.52242,-0.00094,0.60863,-0.00109,-0.00144,0.46972,0.07681,0.61687,0.18227,0.12713,0.21030,-0.63355,0.24467,0.14714,-0.35438,0.54089,0.65189,-0.54985,0.63907,0.70460,0.74016,0.63779,-0.57728,0.08324,0.18123,
0.69980,-0.00128,-0.00151,-0.00077,0.00101,0.57442,0.00496,-0.00082,0.00095,-0.40341,-0.16534,0.09048,0.00047,0.25467,0.24868,-0.62769,-0.00048,0.52156,-0.00075,-0.00009,0.57852,0.07182,0.62354,0.24151,0.02496,0.22761,-0.45399,0.16769,0.13462,-0.55524,0.60250,0.63883,-0.46844,0.62625,0.60297,0.65540,0.64820,-0.60461,0.19820,0.15166,
0.59499,-0.00213,-0.00337,0.00007,-0.00246,0.67859,-0.00026,-0.00037,-0.00203,-0.34622,-0.15004,0.06105,-0.00164,0.30565,0.31036,-0.56692,-0.00107,0.64327,0.00014,-0.00023,0.41815,0.09708,0.63909,0.18956,0.14043,0.34984,-0.47482,0.23993,0.14145,-0.49588,0.56652,0.71985,-0.33369,0.62598,0.74262,0.66093,0.58278,-0.54608,0.07173,0.17182,
0.66506,-0.00020,-0.00022,0.00103,0.00001,0.60922,-0.00228,-0.00058,0.00056,-0.48781,-0.15013,0.19008,-0.00266,0.15916,0.16681,-0.58259,-0.00002,0.51924,0.00059,-0.00126,0.56458,0.09506,0.65270,0.18259,0.04723,0.17701,-0.59038,0.17901,0.09287,-0.41920,0.46267,0.51193,-0.52831,0.62574,0.60061,0.69517,0.49148,-0.70112,0.16662,0.10150,
-0.04888,0.52404,0.65689,0.51286,0.85554,-0.04832,0.65259,0.54768,0.84731,0.02907,0.04609,-0.24537,0.65786,0.51816,0.44320,0.01118,0.57467,-0.04395,0.76748,0.52749,-0.02110,-0.37020,-0.04965,-0.17433,0.02683,-0.21024,0.02336,-0.24101,-0.25031,0.02072,-0.04686,-0.04587,0.03035,-0.04926,-0.05283,-0.04963,-0.04362,0.02123,-0.16757,0.44071,
0.47553,-0.00145,-0.00030,0.00038,0.00002,0.59716,0.00063,0.00182,-0.00159,-0.57207,-0.21372,0.09685,-0.00028,0.37516,0.40865,-0.59633,0.00091,0.42689,-0.00114,-0.00068,0.53135,0.12552,0.52362,0.18308,0.04560,0.22863,-0.54917,0.30959,0.10043,-0.65857,0.49923,0.44930,-0.31963,0.50314,0.51495,0.51163,0.62846,-0.59590,0.18446,0.24959,
-0.05350,0.55579,0.65256,0.48131,0.66949,-0.05331,0.80748,0.57888,0.81943,0.03506,0.03569,-0.23254,0.74367,0.39165,0.42559,0.02125,0.51943,-0.04827,0.78901,0.44479,-0.02078,-0.28479,-0.05999,-0.20883,0.04199,-0.14471,0.02799,-0.22393,-0.22758,0.02733,-0.05703,-0.05606,0.03471,-0.06146,-0.05708,-0.06041,-0.05974,0.01958,-0.17527,0.50223,
0.69431,0.00198,0.00101,-0.00075,-0.00149,0.51511,0.00031,-0.00193,0.00144,-0.28893,-0.16425,0.09680,-0.00079,0.26078,0.25842,-0.62150,0.00091,0.54374,-0.00038,-0.00097,0.57504,0.09447,0.58622,0.24096,0.02258,0.17667,-0.58333,0.21036,0.09332,-0.64276,0.69140,0.65173,-0.37914,0.59073,0.68415,0.74772,0.66813,-0.62962,0.05914,0.16490,
0.57364,-0.00067,-0.00164,-0.00181,0.00047,0.72847,0.00130,-0.00035,-0.00127,-0.49045,-0.14774,0.09913,0.00063,0.20676,0.20414,-0.61291,-0.00045,0.66958,-0.00039,-0.00175,0.50902,0.08792,0.63721,0.22051,0.08061,0.25469,-0.71413,0.16422,0.11290,-0.43773,0.64959,0.58447,-0.40310,0.57307,0.75873,0.67452,0.57302,-0.58205,0.24671,0.13144,
-0.03751,0.59603,0.67798,0.68105,0.71598,-0.04135,0.71101,0.65658,0.82186,0.02482,0.05267,-0.19554,0.70245,0.51881,0.48828,0.01370,0.74193,-0.03599,0.66363,0.69564,-0.01281,-0.30633,-0.04083,-0.20565,0.02768,-0.17152,0.02284,-0.15662,-0.26919,0.02336,-0.04017,-0.03878,0.02400,-0.04131,-0.03932,-0.04360,-0.04260,0.01633,-0.16891,0.45996,
-0.04781,0.56377,0.60508,0.60370,0.66507,-0.04076,0.70678,0.65597,0.62005,0.02412,0.07434,-0.11886,0.72563,0.56766,0.35294,0.00658,0.58432,-0.03498,0.76660,0.59563,-0.02046,-0.16125,-0.04303,-0.25678,0.01733,-0.23231,0.01160,-0.21108,-0.34454,0.01295,-0.04404,-0.04012,0.02378,-0.04287,-0.04886,-0.04418,-0.04204,0.01604,-0.14525,0.46032,
0.62420,-0.00329,-0.00120,-0.00034,-0.00018,0.61631,-0.00231,-0.00040,-0.00093,-0.36317,-0.16297,0.11801,-0.00107,0.27773,0.28058,-0.69873,-0.00092,0.49777,0.00028,-0.00002,0.52985,0.07904,0.57922,0.20039,0.12951,0.22979,-0.42488,0.27168,0.13239,-0.52458,0.61642,0.70463,-0.33210,0.59903,0.58523,0.65043,0.69949,-0.60194,0.22813,0.16234,
-0.18545,0.16449,-0.00352,0.12927,0.05870,-0.25615,-0.02478,0.02056,0.03310,0.74505,0.45238,-0.19585,0.15377,0.03191,-0.02761,0.73869,-0.13785,-0.16165,0.13026,0.00734,-0.50329,0.08092,-0.19794,0.19264,0.90714,0.13103,0.69824,0.11795,0.12591,0.66698,-0.25133,-0.16782,0.72668,-0.15779,-0.19273,-0.17277,-0.16301,0.70169,-0.16692,-0.02622,
0.61316,0.00057,-0.00065,-0.00041,-0.00062,0.63356,0.00078,-0.00004,-0.00334,-0.44124,-0.17084,0.17186,-0.00118,0.28302,0.33201,-0.57624,-0.00109,0.52533,-0.00050,-0.00098,0.63765,0.14861,0.48814,0.30011,0.11434,0.16729,-0.52244,0.26458,0.05942,-0.52055,0.51149,0.61989,-0.33321,0.67222,0.51669,0.59303,0.68040,-0.57496,0.19999,0.20336};

bias_t b4[40] = {0.05218,-0.00117,-0.00210,-0.00209,-0.00223,0.05211,-0.00178,-0.00218,-0.00205,-0.24317,0.19675,0.02777,-0.00208,-0.05795,-0.06072,0.00217,-0.00148,0.04983,-0.00229,-0.00222,0.25364,0.06534,0.06230,-0.21215,-0.33716,-0.26817,-0.10768,-0.27373,0.04406,-0.10187,0.05520,0.04803,-0.24414,0.06117,0.06124,0.05923,0.05809,-0.06074,0.35540,-0.03561};

weight_t w5[40][10] = {
-1.27974,-1.24209,0.11652,-0.03520,0.15255,0.15829,-0.49630,-0.56247,-0.47293,-0.53858,
0.21894,0.22949,0.14340,-1.01172,-1.33245,0.18920,-0.13388,-0.24283,-0.14635,-0.16038,
0.18464,0.19050,0.11803,-1.92805,-1.02372,0.15673,-0.23319,-0.09197,-0.15515,-0.10938,
0.16644,0.17565,0.08869,-0.99480,-1.33018,0.13915,-0.16112,-0.34132,-0.18174,-0.22718,
0.15120,0.15422,0.08434,-2.05846,-0.83311,0.11517,-0.12685,-0.23338,-0.23302,-0.24560,
-1.19099,-1.16714,0.17841,0.03295,0.20852,0.21672,-0.56186,-0.43017,-0.49501,-0.44253,
0.12135,0.12967,0.05311,-2.06963,-0.69695,0.08390,-0.28480,-0.18714,-0.34028,-0.28701,
0.18347,0.19428,0.11558,-1.55126,-1.13424,0.14974,-0.22022,-0.11488,-0.10781,-0.24710,
0.20446,0.20879,0.13886,-2.00097,-0.69192,0.17176,-0.28796,-0.16931,-0.26552,-0.23339,
-0.39820,0.63621,-0.61852,-0.10286,-0.05902,-0.13121,-0.03471,-0.11630,-0.08690,-0.13271,
0.01557,0.18954,-0.19505,-0.20293,-1.02650,-0.61948,-0.27789,-0.30446,-0.38635,-0.24619,
-0.04812,-0.12159,-0.20837,0.20314,0.25908,0.27264,-0.42675,-0.34177,-0.33035,-0.50750,
0.12470,0.12890,0.06267,-2.08750,-0.87029,0.08624,-0.18647,-0.29193,-0.17592,-0.23617,
0.09907,0.11080,0.02229,-1.87962,0.05888,0.06677,-0.30628,-0.26109,-0.23286,-0.16073,
0.13889,0.15502,0.06521,-1.76357,0.10585,0.10978,-0.32430,-0.21345,-0.15277,-0.25688,
-0.44572,0.72119,-1.43043,-0.13604,-0.18089,-0.05413,-0.06231,0.08841,-0.01531,-0.00958,
0.17165,0.18150,0.09885,-1.06616,-1.27004,0.14379,-0.21473,-0.35010,-0.17019,-0.33037,
-1.26288,-1.23544,0.15441,0.00423,0.20076,0.20409,-0.42861,-0.35845,-0.53783,-0.47117,
0.14222,0.14760,0.07948,-2.09163,-0.70748,0.11160,-0.28418,-0.30503,-0.18958,-0.22233,
0.19238,0.20086,0.11847,-1.09951,-1.17297,0.16174,-0.20668,-0.18201,-0.26625,-0.33576,
-0.08816,-1.48959,0.21949,0.16157,0.24838,0.25177,-0.44239,-0.66359,-0.58975,-0.59357,
-0.22431,-0.30842,-0.48984,0.14427,0.16351,0.17848,-0.46583,-0.38910,-0.30972,-0.46058,
-1.05496,-1.12707,0.18594,0.03857,0.22436,0.22631,-0.44591,-0.48924,-0.47843,-0.52993,
-0.04239,-0.01346,-0.01804,-1.10153,0.24788,0.25585,-0.06029,-0.29804,-0.17005,-0.23274,
-0.34158,0.41141,-0.13680,-1.38543,0.19823,0.25565,-0.04440,-0.01516,-0.18941,-0.19819,
-0.15754,-0.15166,-0.10855,-1.35063,0.17687,0.18374,-0.05968,0.06252,0.03873,0.10396,
-0.50883,0.66021,-0.81478,-0.18510,-0.19268,-0.24293,-0.01027,-0.00851,-0.11373,-0.08952,
-0.04438,-0.03505,-0.07862,-0.98994,0.27840,0.28652,-0.20292,-0.26344,-0.34721,-0.16319,
-0.18458,-0.29029,-0.56753,0.09747,0.12381,0.13861,-0.37346,-0.27599,-0.34255,-0.25403,
-0.58607,0.60889,-0.93677,-0.03055,-0.09893,-0.13770,-0.11845,0.07388,0.02262,-0.00166,
-1.07903,-1.10710,0.24851,0.10762,0.28374,0.28598,-0.50016,-0.48669,-0.44820,-0.40642,
-1.25507,-1.19917,0.15470,-0.00488,0.19136,0.19611,-0.53216,-0.50764,-0.51820,-0.40716,
-0.36074,0.66709,-0.51673,-0.04371,-0.05662,-0.18031,-0.19325,-0.13675,-0.05290,-0.12906,
-1.09634,-1.14462,0.15870,0.01698,0.19362,0.19589,-0.46194,-0.48291,-0.59112,-0.51836,
-1.04703,-1.12445,0.19464,0.05487,0.22626,0.22746,-0.46707,-0.56790,-0.44759,-0.48034,
-1.04506,-1.11093,0.21321,0.06948,0.24140,0.24718,-0.46641,-0.56744,-0.53576,-0.46175,
-1.15207,-1.18455,0.13946,0.00114,0.17291,0.17873,-0.58453,-0.57736,-0.44371,-0.51752,
-0.58122,0.69032,-1.17576,-0.28721,-0.09355,-0.03575,-0.09807,-0.05163,-0.12090,0.07132,
-0.18113,-0.21952,0.15820,0.22017,0.26244,0.27463,-0.58117,-0.43777,-0.57917,-0.51208,
0.13008,0.13976,0.05373,-2.00869,0.08685,0.09560,-0.16823,-0.23247,-0.32702,-0.23885};

bias_t b5[10] = {1.05033,-1.07071,0.68823,3.22417,0.02606,-3.23678,-1.08626,-1.05768,-1.07681,-1.08341};

