weight_t weights2[N_LAYER_1][N_LAYER_2] = {-0.138667315245,
-0.107053905725,
-0.311135113239,
-0.0284407716244,
0.115141354501,
0.302278578281,
-0.112822435796,
0.160212621093,
-0.0933998227119,
0.00689335074276,
-0.032981313765,
0.172372490168,
0.217336729169,
0.199556306005,
0.439452886581,
0.20644313097,
0.199889168143,
0.353254944086,
0.166052266955,
0.0121502745897,
0.489101082087,
0.0281259864569,
0.182052731514,
0.18340305984,
0.186116188765,
0.400336205959,
0.15105317533,
-0.0330540314317,
0.0450552776456,
0.394892692566,
-0.632764518261,
-0.364994734526,
-0.332356214523,
-0.54938274622,
-0.234587863088,
-0.074916601181,
-0.31892940402,
-0.376082479954,
-0.262296944857,
-0.471214741468,
-0.339349299669,
-0.054550010711,
0.0111012496054,
-0.345905840397,
0.243385463953,
0.0529272221029,
-0.0902487710118,
-0.126079082489,
-0.21287548542,
-0.220060005784,
-0.591488182545,
-0.253353238106,
-0.495095819235,
-0.225634545088,
-0.428507298231,
-0.454556763172,
-0.377137571573,
-0.548995614052,
-0.212159231305,
-0.413528949022,
-0.407372325659,
0.103439815342,
-0.021923057735,
-0.23597560823,
0.0188918597996,
-0.152113199234,
0.0659288540483,
-0.116500109434,
-0.318138867617,
-0.272250384092,
-0.247435867786,
0.0520355664194,
0.194459974766,
0.311117321253,
0.0630383193493,
0.0358676016331,
0.380897432566,
0.408298194408,
0.308163702488,
-0.0451167374849,
0.00141278759111,
-0.185766354203,
-0.105075612664,
0.139761716127,
0.124601691961,
-0.308947563171,
0.139607533813,
-0.701437115669,
-0.0776373967528,
0.187889635563,
-0.134326651692,
-0.102796196938,
-0.303119689226,
-0.228717491031,
-0.182183116674,
-0.0867521166801,
-0.19624568522,
-0.057935167104,
-0.0234076082706,
-0.352460354567,
0.376599431038,
0.00898603722453,
-0.181647464633,
0.0967467948794,
-0.169464096427,
-0.0692603364587,
-0.0593498386443,
0.263430535793,
0.143502965569,
0.201411753893,
-0.0451810546219,
-0.17644700408,
-0.216151088476,
-0.168389886618,
-0.253140509129,
-0.46587356925,
-0.609872996807,
-0.304623246193,
-0.304064452648,
-0.338835984468,
-0.0507038496435,
0.0571405626833,
0.0678599923849,
-0.102129556239,
0.31813198328,
-0.111702792346,
0.0081011755392,
-0.0778940841556,
-0.0711325854063,
-0.0261596348137,
-0.159123972058,
-0.202894195914,
-0.389508455992,
-0.5046479702,
-0.547474741936,
-0.34818688035,
-0.178859844804,
-0.102549821138,
-0.261637896299,
-0.324816763401,
0.744110882282,
0.473748475313,
0.561370968819,
0.556319415569,
0.477529346943,
0.578567385674,
0.322243005037,
0.582468092442,
0.392952531576,
0.53514945507,
-0.186991691589,
0.00556775182486,
-0.0841866061091,
0.0389495939016,
0.0402808524668,
-0.219753727317,
0.0815495923162,
-0.191765353084,
-0.481356859207,
0.0587608031929,
-0.949774980545,
-0.586222290993,
-0.494505256414,
-0.647051155567,
-0.529362559319,
-0.551433682442,
-0.574817478657,
-0.419998735189,
-0.635060667992,
-0.67813783884,
0.328242868185,
0.664584338665,
0.660521030426,
0.45005646348,
0.242616698146,
0.221706569195,
0.649562478065,
0.20807993412,
0.420022845268,
0.357145160437,
-0.206753224134,
-0.286124646664,
-0.244270667434,
-0.116833329201,
-0.556542336941,
-0.332995802164,
-0.297914475203,
0.27904060483,
-0.307352423668,
-0.214004948735,
-0.0929500833154,
-0.0708224847913,
-0.181592822075,
-0.185285210609,
0.233112648129,
-0.176908865571,
-0.142609998584,
-0.202162861824,
-0.304095387459,
-0.301856786013,
-0.0572393685579,
0.287085682154,
0.207719489932,
0.317441254854,
0.190513774753,
0.40717113018,
0.375557035208,
0.356065690517,
0.274936437607,
0.0535190962255,
0.319236665964,
0.310193687677,
-0.0833942592144,
-0.145155459642,
-0.169761672616,
-0.00862511433661,
0.213501825929,
0.353676646948,
0.0371735654771,
0.309307277203,
-0.244444489479,
-0.195472463965,
-0.200936973095,
-0.143788069487,
-0.0642173364758,
-0.23430301249,
-0.128487229347,
0.0345467031002,
-0.267057687044,
-0.165683507919,
0.230590581894,
0.438647687435,
-0.0658952519298,
0.254034876823,
0.00363916903734,
0.199887990952,
-0.0477946475148,
0.239463925362,
-0.00352099793963,
0.0636339560151,
-0.072858504951,
-0.20912989974,
-0.436789184809,
-0.229211211205,
-0.489098727703,
-0.337813258171,
-0.202853918076,
-0.298385798931,
-0.509174287319,
-0.265250504017,
0.252302855253,
0.27217361331,
0.0380212888122,
0.307434588671,
-0.0349023379385,
0.211142674088,
-0.00246483180672,
0.288972735405,
0.142231345177,
0.38115131855,
-0.443737179041,
-0.42545068264,
-0.437580287457,
-0.386670738459,
-0.50762629509,
-0.378531008959,
-0.464413821697,
-0.530165314674,
-0.483177095652,
-0.457996577024,
-0.10205860436,
-0.0231231693178,
0.249653935432,
0.15282946825,
0.202312752604,
-0.00161376292817,
0.0147134196013,
0.0204113796353,
-0.0263849552721,
-0.0844241827726,
-0.304263144732,
-0.380863964558,
-0.515072405338,
-0.53174418211,
-0.337768405676,
-0.391071766615,
-0.568438768387,
-0.678347766399,
-0.238006874919,
-0.639761805534,
-0.14648398757,
0.013586842455,
-0.0359168685973,
-0.173816740513,
-0.188380390406,
-0.093029037118,
0.00359567161649,
-0.231265187263,
0.0175631847233,
0.125725805759,
-0.281572073698,
-0.35819965601,
-0.194602400064,
-0.378675848246,
-0.366636425257,
-0.336969941854,
-0.54921489954,
-0.00307640433311,
-0.383317470551,
-0.315973550081,
0.779430449009,
0.387518942356,
0.720669269562,
0.576940476894,
0.495068073273,
0.54168009758,
0.699124515057,
0.278357833624,
0.542594432831,
0.39335718751,
-0.231894105673,
-0.152741000056,
-0.174571052194,
0.0482740066946,
-0.256056815386,
0.331011235714,
-0.037462502718,
0.0779373198748,
-0.00624050246552,
-0.0164467394352,
-0.310253947973,
-0.69443655014,
-0.598793923855,
-0.751731693745,
-0.679510772228,
-0.732263565063,
-0.513800323009,
-0.116103552282,
-0.793758630753,
-0.761831760406,
-0.0723925381899,
0.0431249774992,
-0.230043321848,
-0.361589103937,
0.128617763519,
0.148510873318,
0.00253065861762,
-0.162141218781,
-0.903252601624,
-0.402389138937,
0.256957054138,
0.307123541832,
0.0541303753853,
0.501913309097,
-0.0189581550658,
0.263809919357,
0.00575744453818,
-0.0722828507423,
0.345037788153,
0.24338927865,
-0.00874480511993,
-0.201139330864,
-0.194228008389,
-0.235718384385,
-0.236696660519,
-0.134976580739,
0.00815649144351,
-0.331690788269,
0.18232768774,
-0.163782760501,
0.376529574394,
0.486753374338,
0.135169908404,
-0.0409552901983,
0.441883832216,
0.319667041302,
0.266299962997,
-0.0747369155288,
0.130661025643,
0.39956599474,
0.522466003895,
0.243836566806,
0.151833951473,
-0.153659820557,
0.00736432150006,
0.114246144891,
0.0195967201144,
0.220273196697,
-0.0506448410451,
-0.0799139067531,
-0.575179159641,
-0.321307778358,
-0.430800139904,
-0.450483679771,
-0.369676589966,
-0.505845427513,
-0.558228373528,
-0.0942685753107,
-0.880050957203,
-0.444209843874,
-0.324766159058,
-0.0138473324478,
-0.072573132813,
0.0694046318531,
-0.0867060348392,
0.00554122403264,
-0.341874927282,
-0.0567612200975,
0.216052278876,
0.0860876590014,
-0.461724668741,
-0.309136033058,
-0.33728286624,
-0.256779491901,
-0.429204642773,
-0.245834201574,
-0.250448405743,
-0.255535960197,
-0.0685657188296,
0.0185734499246,
0.230893775821,
0.408732235432,
0.129609763622,
0.296783357859,
0.169649228454,
0.0588615983725,
0.109977141023,
0.246734052896,
0.224393308163,
-0.0511382818222,
-0.0752403512597,
0.0326492190361,
-0.0491011217237,
-0.211654797196,
-0.11896533519,
-0.275554358959,
0.013678541407,
0.297753691673,
-0.00715829664841,
0.0236870385706,
-0.00697399536148,
0.475435972214,
0.42071339488,
0.362188726664,
0.362836569548,
0.232601046562,
0.286947458982,
0.262332111597,
0.385788351297,
0.209642603993,
0.0446025952697,
-0.175305500627,
0.029480708763,
-0.25145149231,
0.0865526795387,
-0.177958965302,
-0.290984272957,
-0.326184600592,
-0.292130321264,
-0.327462434769,
-0.131651550531,
0.0911802351475,
-0.253098547459,
-0.319308400154,
-0.000329177710228,
0.0149386506528,
-0.222084581852,
-0.252356767654,
0.148549422622,
-0.0970117226243,
-0.377581506968,
-0.177784711123,
-0.102211229503,
-0.313776046038,
-0.136471539736,
-0.251366078854,
-0.243625581264,
-0.157842069864,
-0.244918763638,
-0.3190292418,
0.503964722157,
0.351374596357,
0.288132250309,
0.169771522284,
0.173324137926,
0.367326796055,
0.323143273592,
0.41045948863,
0.646699428558,
0.452250242233,
-0.217086032033,
-0.0321911647916,
-0.129900828004,
-0.209834381938,
-0.0703786239028,
-0.274490922689,
-0.00891319755465,
-0.329688578844,
-0.585350871086,
-0.104638166726,
-0.0323030687869,
-0.125242069364,
0.288352251053,
-0.160273298621,
0.0805225223303,
-0.118647292256,
0.00252867303789,
-0.132203474641,
0.113366313279,
-0.0500529818237,
0.138110235333,
0.250722974539,
0.276953756809,
0.230666145682,
0.0440890155733,
0.165160939097,
-0.129177838564,
0.0309807322919,
-0.00552049325779,
0.0435429364443,
0.375523805618,
0.679303586483,
-0.0900035127997,
0.00898133404553,
0.362928301096,
0.47599747777,
0.384321719408,
0.638956665993,
0.20703792572,
0.123492121696,
0.367502599955,
0.210657447577,
0.302633374929,
0.0934276506305,
0.145691782236,
0.091680072248,
0.487456917763,
-0.290794044733,
-0.0431476645172,
-0.148910328746,
-0.0285645090044,
-0.148166760802,
0.142869368196,
0.0440508387983,
0.042285181582,
-0.117402054369,
-0.0315271541476,
0.0726738423109,
0.0145221548155,
0.236397981644,
0.159364402294,
0.106348648667,
0.0838137716055,
0.0969760864973,
0.330614566803,
0.156370580196,
0.176574259996,
0.177595511079,
0.0965989679098,
0.184871822596,
-0.0337082371116,
0.0940752252936,
0.359973788261,
0.276435464621,
0.0415584445,
0.174795150757,
0.0627233013511,
0.240000113845,
0.148632913828,
0.185250267386,
-0.104706957936,
-0.574200928211,
-0.385955661535,
-0.417159438133,
-0.506299257278,
-0.162191867828,
-0.634786128998,
-0.293255984783,
-0.527682840824,
-0.471772074699,
-0.302535057068,
-0.499074488878,
-0.460040003061,
-0.301336437464,
-0.336401939392,
-0.214854091406,
-0.39666596055,
-0.234241336584,
-0.525911688805,
-0.354940831661,
0.0797457247972,
0.549053251743,
0.236077994108,
0.624954342842,
0.334813952446,
0.27013900876,
0.352123647928,
0.405919909477,
0.187249004841,
0.328288346529,
0.317173480988,
0.331368744373,
0.283871561289,
0.403387486935,
0.283537596464,
0.293362438679,
0.256977677345,
0.478829711676,
0.244140550494,
0.237697854638,
-0.350950479507,
-0.159360513091,
-0.109989620745,
-0.160511508584,
-0.426381111145,
-0.0942106470466,
-0.320118695498,
0.238110765815,
0.0535581819713,
-0.201453119516,
0.0819737389684,
-0.114310383797,
-0.0324010998011,
-0.00800340995193,
-0.110664092004,
-0.0481039956212,
0.0662810355425,
-0.0516158826649,
-0.0599887855351,
-0.0317508019507,
0.104037359357,
-0.059588227421,
-0.23113077879,
-0.37416818738,
-0.275520145893,
-0.300310373306,
-0.219785675406,
0.196836054325,
0.0213328879327,
-0.228560164571,
-0.303872764111,
-0.314092487097,
-0.288644015789,
-0.567336142063,
-0.228710621595,
-0.255333125591,
-0.400718390942,
-0.543680846691,
-0.209755465388,
0.109433397651,
0.524153828621,
0.171018227935,
0.193894594908,
0.144903123379,
0.31250461936,
0.181293025613,
0.254572510719,
0.443589746952,
0.32005867362,
-0.156440272927,
0.508583426476,
-0.0173956751823,
0.000944615516346,
-0.0513335317373,
0.122135840356,
0.0351395905018,
0.169027984142,
0.443981289864,
0.4684920609,
0.21975491941,
0.441533088684,
-0.138898536563,
0.149614661932,
0.0769741535187,
0.0165644548833,
0.143909081817,
0.344297617674,
-0.21287818253,
-0.0446702502668,
0.0817277058959,
-0.189262449741,
-0.277993172407,
-0.118226356804,
-0.0425064601004,
-0.0772531032562,
-0.142711564898,
-0.162309676409,
-0.0775806829333,
-0.111622273922,
-0.433013111353,
0.564944326878,
0.318276494741,
0.501025438309,
0.481073528528,
0.157404378057,
0.370714515448,
0.418648958206,
0.482649892569,
0.534973919392,
0.672321677208,
0.506388068199,
0.366627305746,
0.280209243298,
0.279907047749,
0.461123228073,
0.299024403095,
0.307868748903,
0.496490508318,
0.293355315924,
0.238890022039,
-0.115681648254,
-0.0975879430771,
-0.0443588607013,
-0.146648794413,
-0.192156821489,
-0.351999223232,
-0.180192112923,
-0.255799025297,
-0.389794021845,
-0.203554272652,
0.600426375866,
0.623704493046,
0.692960679531,
0.481699436903,
0.630677103996,
0.753515481949,
0.323281258345,
0.751591920853,
0.48349621892,
0.530414044857,
0.32822060585,
0.257130503654,
0.29695558548,
0.488909453154,
0.240584954619,
0.53381472826,
0.28945299983,
0.415679425001,
0.057453468442,
0.544161558151,
-0.133107230067,
0.191807702184,
-0.0467973463237,
-0.313090592623,
-0.0198103543371,
-0.187047407031,
-0.298198729753,
-0.0961241871119,
-0.264142096043,
-0.143622219563,
-0.343740701675,
0.294721603394,
0.177741110325,
0.297363877296,
0.236828252673,
-0.108089484274,
0.0395068004727,
0.257722616196,
0.243060067296,
0.297415912151,
-0.112153470516,
-0.0512319207191,
0.0219866093248,
0.304184317589,
0.137595742941,
-0.1974080652,
0.0983470752835,
-0.358920931816,
0.0285496786237,
-0.17365796864,
-0.0453138276935,
0.150694280863,
0.0233611352742,
0.0108753405511,
0.218737870455,
0.159044921398,
-0.0895372629166,
0.174118354917,
-0.282549113035,
-0.0242383703589,
-0.154324233532,
0.156843096018,
0.292395174503,
-0.0947879105806,
0.321056842804,
-0.0335646234453,
0.0434001870453,
0.00425743777305,
-0.246805712581,
0.133767008781,
0.18992690742,
0.242356598377,
0.135213568807,
0.0980908349156,
0.0435332506895,
0.0805081948638,
0.240332201123,
0.274654865265,
0.0971165597439,
0.115768775344,
-0.247295156121,
-0.593143701553,
0.159660831094,
-1.00665938854,
-0.07982455194,
-0.0830418691039,
-0.16851863265,
-0.558046579361,
0.303322136402,
-0.156430244446,
0.525606453419,
0.18773676455,
0.334267795086,
0.350481688976,
0.427847355604,
0.307570368052,
0.486173421144,
0.382832825184,
0.238238379359,
0.254977703094,
-0.133011206985,
-0.450843840837,
-0.29059946537,
-0.525096535683,
-0.279696792364,
-0.53698182106,
-0.333900570869,
-0.0629580169916,
-0.243050426245,
-0.451288700104,
-0.186225265265,
-0.413486123085,
-0.335460156202,
-0.264963179827,
-0.55675560236,
-0.444260925055,
-0.41302677989,
-0.77129650116,
-0.151282966137,
-0.0913339406252,
0.223034068942,
0.233645841479,
0.343214690685,
0.107186317444,
0.610342919827,
0.200775399804,
0.313388377428,
0.325705707073,
0.192865103483,
0.0466586351395,
0.284540206194,
-0.00809112004936,
-0.144955143332,
0.17962808907,
0.189295813441,
0.159613698721,
0.127283155918,
0.0700467005372,
-0.481644630432,
0.063753940165,
0.257665514946,
0.0223662573844,
0.0491732209921,
0.248515933752,
0.180852413177,
0.151036977768,
0.117310449481,
0.250057518482,
0.41382843256,
0.304343283176,
0.0238011796027,
0.181581914425,
-0.00765729136765,
0.0884237512946,
-0.0839519277215,
-0.107352912426,
0.0264303144068,
0.227592721581,
0.00931332632899,
0.175685569644,
0.714908599854,
0.693859636784,
0.0390381589532,
0.242791250348,
0.659943580627,
0.502668619156,
0.611585855484,
0.330959230661,
0.267889201641,
0.174668774009,
0.292087495327,
-0.0751720964909,
0.226223483682,
-0.143167182803,
0.0264293011278,
-0.150912001729,
0.282363712788,
-0.272380292416,
0.134827673435,
-0.0512569099665,
-0.378518134356,
-0.0665089562535,
-0.108577981591,
-0.379400312901,
-0.304954946041,
-0.136289954185,
-0.394273251295,
-0.454573839903,
0.119316481054,
-0.656493484974,
0.287431925535,
0.234837755561,
0.527094244957,
0.239955246449,
0.440513432026,
0.311179280281,
0.354390799999,
0.249620661139,
0.440549343824,
0.359764188528,
-0.109066456556,
-0.0109342532232,
0.169531628489,
0.15856333077,
0.134856417775,
0.114265434444,
0.356749981642,
0.160543099046,
0.00307203060947,
0.142393425107,
0.422584295273,
0.000282481807517,
0.0877484306693,
0.558964014053,
0.0184425488114,
0.0995066761971,
0.0225156135857,
0.508045971394,
0.0736891701818,
0.423653125763,
-0.0729064270854,
-0.382260739803,
-0.209159612656,
-0.371379882097,
-0.0621400363743,
-0.154473498464,
-0.225979268551,
-0.132019266486,
-0.196736142039,
-0.357691168785,
-0.431578546762,
-0.431861817837,
-0.560939013958,
-0.396549731493,
-0.595190227032,
-0.601128757,
-0.189118877053,
-0.587385594845,
-0.721657395363,
-0.266383647919,
-0.436256021261,
-0.562494635582,
-0.722830653191,
-0.398248374462,
-0.802124083042,
-0.641504704952,
-0.402777731419,
-0.271611869335,
-0.782899081707,
-0.618439078331,
0.0533079765737,
0.436193853617,
0.349123895168,
0.530701041222,
0.217486098409,
0.243697375059,
0.371213406324,
0.305134654045,
0.140664517879,
0.391386508942,
0.227064877748,
0.228356316686,
-0.0783173441887,
0.372302114964,
0.108883775771,
-0.0218261312693,
-0.101019077003,
0.264595806599,
0.0550863966346,
0.0841703787446,
-0.369969457388,
-0.0853474065661,
-0.306593805552,
-0.060791824013,
-0.189339116216,
-0.710965275764,
-0.122681640089,
-0.319687604904,
-0.0402996689081,
-0.189451754093,
-0.0391789972782,
-0.197513386607,
0.113379992545,
0.05510122329,
-0.313320338726,
-0.108806446195,
-0.00973416864872,
0.0141573697329,
-0.0898603945971,
-0.114996649325,
-0.0493322014809,
-0.15775834024,
0.275153368711,
-0.112809740007,
-0.0496963188052,
-0.125902116299,
-0.109029971063,
-0.0842153504491,
-0.0639050081372,
-0.0300767235458,
-0.374418765306,
-0.203209638596,
-0.0926716998219,
-0.172339528799,
-0.144612401724,
-0.314320325851,
-0.289068549871,
-0.35784175992,
-0.229741588235,
0.0777457356453,
0.0973274409771,
0.207041412592,
0.142119035125,
0.481548577547,
0.0525328852236,
0.369339585304,
0.0245572775602,
0.41081649065,
0.186557605863,
0.465171724558,
-0.159453317523,
-0.0146319661289,
-0.222645223141,
-0.269982606173,
0.0426449365914,
-0.312538862228,
-0.0677879005671,
-0.187026053667,
-0.322338432074,
-0.199737787247,
0.490538537502,
-0.10334893316,
0.162960007787,
0.337956279516,
0.359880030155,
0.0670069605112,
0.269111245871,
0.504851520061,
0.404306769371,
0.182688444853,
-0.175565212965,
-0.467825114727,
-0.262295544147,
-0.301172494888,
-0.353077471256,
-0.427323371172,
-0.140601947904,
-0.280743598938,
-0.0840872973204,
-0.0618524998426,
0.0603017546237,
0.0166681073606,
-0.00293247960508,
0.381352245808,
0.160844266415,
0.105801545084,
0.117207534611,
0.231911674142,
0.195429548621,
-0.169993147254,
-0.33218023181,
-0.581420719624,
-0.581912755966,
-0.674355387688,
-0.66188377142,
-0.622098267078,
-0.615869343281,
-0.571604609489,
-0.45917275548,
-0.561904847622,
0.446468889713,
-0.0318570621312,
0.337197601795,
-0.0749353989959,
0.376522958279,
0.518352687359,
0.092221878469,
-0.160626232624,
0.20797753334,
0.0907383859158,
0.142888277769,
-0.256032079458,
-0.170366689563,
-0.189453870058,
-0.393253564835,
-0.162723645568,
-0.288070619106,
0.0219545084983,
-0.0351941362023,
-0.481519639492,
0.155659660697,
0.568240702152,
0.222546905279,
0.356811672449,
0.119163222611,
0.0655215755105,
0.093552544713,
0.242140740156,
0.156881511211,
0.175610736012,
0.363438934088,
0.137543126941,
0.657900571823,
0.0972875282168,
0.141838878393,
0.263877511024,
0.387691050768,
0.942776083946,
0.750878334045,
0.257265746593,
-0.110983349383,
-0.0183408968151,
0.119529463351,
-0.0441300645471,
0.260064572096,
-0.141512110829,
0.0739401951432,
0.0140506066382,
-0.304455280304,
-0.0447414591908,
-0.188684090972,
0.0124852107838,
-0.214232489467,
0.0810018479824,
-0.0409851707518,
0.124874874949,
0.0879137814045,
0.0867210179567,
0.0770221948624,
0.0371759496629,
-0.168090090156,
-0.0817818790674,
0.0320116020739,
-0.185128435493,
0.0322274677455,
0.113627590239,
-0.169034555554,
-0.045043874532,
0.0240981448442,
-0.12460835278,
0.172966659069,
0.00470999442041,
0.355864167213,
-0.0648506954312,
0.401948064566,
-0.141458496451,
0.263104856014,
0.574864447117,
0.596307277679,
-0.102642163634,
0.412466078997,
0.228853881359,
0.173788145185,
0.358132004738,
0.404429614544,
0.201358035207,
0.240260601044,
0.250943034887,
0.366673976183,
0.663078963757,
-0.198694184422,
-0.253559529781,
0.111058279872,
-0.168076634407,
0.0267465785146,
-0.111043468118,
-0.338413327932,
-0.55308252573,
-0.132077664137,
-0.293868154287,
-0.346819162369,
-0.154961362481,
-0.115479551256,
-0.302971094847,
-0.0472772270441,
-0.172417342663,
-0.212354525924,
-0.0811881870031,
-0.173909693956,
-0.4289290905,
-0.012782882899,
0.118874870241,
0.025144238025,
0.180325746536,
0.00891978945583,
-0.135067611933,
0.0987459644675,
-0.293404221535,
-0.0438244342804,
0.136131241918,
-0.00309176859446,
0.914453983307,
0.252622008324,
0.931978523731,
0.612588405609,
0.563211143017,
0.621307194233,
0.746235489845,
0.983997642994,
0.705163836479,
0.329394817352,
0.406460702419,
0.286694347858,
0.300482094288,
0.34133002162,
0.122436374426,
0.298318445683,
0.515458524227,
0.399952948093,
0.219619497657,
-0.32661780715,
-0.347532570362,
-0.319833815098,
-0.223315581679,
-0.386484652758,
-0.355152964592,
-0.395136475563,
-0.540912866592,
-0.361640244722,
-0.122467972338,
0.0189362280071,
-0.0688819736242,
-0.0177989341319,
0.35607278347,
-0.0829663798213,
-0.0123243983835,
-0.325306683779,
-0.122203439474,
0.32647010684,
0.176550239325,
0.305438786745,
-0.00547360815108,
0.236991226673,
-0.101056277752,
0.170452862978,
0.0671140104532,
-0.143636971712,
0.376991957426,
-0.0283917170018,
-0.0402036719024,
-0.276399970055,
-0.50835621357,
-0.552772641182,
-0.244140788913,
-0.353574752808,
-0.133670568466,
-0.613914072514,
-0.162332549691,
-0.0771212652326,
0.0184751190245,
-0.211747825146,
-0.38349661231,
-0.36024543643,
-0.558289468288,
-0.559299588203,
-0.449423313141,
-0.339153528214,
-0.227826148272,
-0.403899610043,
-0.216206789017,
0.471874207258,
0.548134326935,
0.318833142519,
0.410963624716,
0.431638121605,
0.399188309908,
0.512201249599,
0.472695320845,
0.237380951643,
0.277989536524,
0.189232036471,
-0.213930368423,
-0.0623776353896,
-0.0800683349371,
-0.0803953260183,
-0.120910584927,
-0.168346509337,
-0.0491926819086,
-0.0786961987615,
-0.257573604584,
-0.34597748518,
0.0318872258067,
-0.0973010137677,
0.0902639403939,
-0.115821495652,
-0.328987032175,
-0.291290611029,
-0.239210262895,
0.0803213343024,
-0.201818302274,
-0.313243120909,
-0.508446156979,
-0.288181960583,
-0.332461416721,
-0.264197677374,
-0.390652418137,
-0.385253846645,
-0.377639055252,
-0.164472013712,
-0.609084784985,
-0.101926743984,
-0.180364310741,
-0.232859000564,
-0.0226608384401,
-0.30656132102,
-0.24228464067,
-0.244298458099,
-0.0513509139419,
-0.132454574108,
-0.138570576906,
-0.0407220683992,
0.00918505527079,
-0.371514558792,
-0.409458905458,
-0.0717070326209,
-0.434972465038,
-0.478396683931,
-0.336914747953,
-0.430399268866,
-0.24961566925,
0.30186650157,
0.143156304955,
-0.165979921818,
-0.138997003436,
0.13916143775,
-0.128905788064,
0.120889559388,
-0.0918714553118,
-0.148922860622,
-0.101082459092,
0.0745120421052,
0.0143778212368,
-0.231281161308,
0.115008071065,
-0.0890430882573,
0.194726124406,
-0.405872911215,
-0.0675707161427,
-0.15431766212,
-0.0146054783836,
0.197927221656,
0.277342885733,
-0.0456945151091,
0.00755580281839,
-0.0624045580626,
-0.138142690063,
-0.109624788165,
0.000941161066294,
0.0508932508528,
0.0502950996161,
0.238113611937,
0.486493647099,
0.588003993034,
0.57225883007,
0.398025721312,
0.172302857041,
0.467493921518,
0.38295096159,
0.41717222333,
0.525740206242,
0.0355291999876,
-0.0434724465013,
-0.288755387068,
-0.0880894362926,
-0.0839098021388,
-0.108693987131,
-0.414579689503,
0.0598183237016,
-0.276822298765,
-0.0877048075199,
-0.233100324869,
-0.157155200839,
-0.536829531193,
-0.234247043729,
-0.312347739935,
-0.128379508853,
-0.431135743856,
-0.404274523258,
-0.137386977673,
-0.311666369438,
-0.546396315098,
-0.303023338318,
-0.0362198799849,
0.0188313033432,
-0.0233510173857,
-0.0390285477042,
-0.00305202719755,
-0.0158952008933,
0.0982342585921,
-0.166145399213,
0.00910612847656,
0.0824386849999,
0.101184666157,
-0.0334027670324,
-0.439082413912,
-0.16572059691,
-0.0318406186998,
0.409648239613,
0.444928318262,
0.276299387217,
-0.278542757034,
-0.333447396755,
-0.152936711907,
-0.395025253296,
-0.0364688560367,
0.00412506610155,
-0.408397048712,
-0.504358410835,
-0.542974770069,
-0.187430664897,
0.121866472065,
0.306988984346,
0.372636854649,
0.231715142727,
0.136260420084,
0.04774023965,
0.0691798701882,
0.440060168505,
0.449112504721,
0.170633330941,
0.563708424568,
-0.0270844493061,
0.022061182186,
0.0694627314806,
0.402026712894,
0.054814234376,
0.0495676361024,
0.485092639923,
0.195122584701,
0.276881039143,
-0.0504166074097,
-0.201517447829,
-0.0775325447321,
0.0137086780742,
-0.247426092625,
0.0721104219556,
-0.0356921032071,
-0.0360488295555,
0.407602190971,
0.203084513545,
0.605574786663,
0.548762857914,
0.525215148926,
0.446522772312,
0.324018597603,
0.505719304085,
0.655199706554,
1.17928051949,
0.716115415096,
0.564246833324,
0.165506333113,
-0.00809909868985,
0.44228374958,
0.0205361172557,
0.257518649101,
0.0249211471528,
0.306174844503,
-0.410372197628,
-0.195083364844,
-0.0805993229151,
0.0690140724182,
0.429812461138,
-0.120282545686,
0.0649938732386,
0.146289408207,
-0.0325255654752,
0.068735294044,
0.10192361474,
-0.135245040059,
0.0535543374717,
0.375038594007,
0.437891215086,
0.216566696763,
0.537283658981,
0.138150721788,
0.0898009166121,
0.433509588242,
0.153562754393,
0.30314719677,
0.402255564928,
-0.299575150013,
-0.465636581182,
-0.350216627121,
-0.302986294031,
-0.363164007664,
-0.700352907181,
-0.466516643763,
-0.529999554157,
-0.351779460907,
-0.33366522193,
-0.0288976989686,
0.214370697737,
0.204518631101,
0.0865915119648,
0.211222290993,
0.239566832781,
0.274386912584,
-0.148211479187,
0.436676025391,
0.324689358473,
-0.590266108513,
-0.316234380007,
-0.121228285134,
-0.196682021022,
-0.164635762572,
-0.421323657036,
-0.0594018548727,
-0.108425319195,
-0.579238831997,
-0.20025511086,
-0.0670509487391,
-0.0243189632893,
-0.0860610082746,
-0.135904148221,
-0.091561563313,
0.0368936099112,
-0.210441574454,
-0.241194531322,
0.0193939954042,
-0.0394961200655,
-0.0757305324078,
-0.277288705111,
-0.112548530102,
-0.493865132332,
-0.383941590786,
-0.643813967705,
-0.0908807218075,
-0.348729163408,
-0.568965137005,
-0.532273769379,
-0.165917307138,
-0.100234471262,
-0.30588799715,
0.0599189288914,
-0.223463147879,
-0.148334696889,
0.013690141961,
-0.0807626768947,
-0.536168277264,
-0.210475951433,
0.522368013859,
0.424055457115,
0.281148344278,
0.189118206501,
0.776703476906,
0.665879011154,
0.279033005238,
0.428019404411,
0.379615187645,
0.282607764006,
-0.0466508679092,
-0.489171922207,
-0.607854545116,
-0.293219953775,
-0.314531475306,
-0.40526625514,
-0.462691277266,
-0.22051808238,
-0.658804833889,
-0.370191693306,
-0.549873828888,
-0.310832440853,
-0.0452082566917,
-0.357712626457,
-0.251605331898,
-0.211531370878,
-0.297914683819,
-0.195101872087,
-0.326179414988,
-0.211153641343,
0.122618637979,
0.135345056653,
0.134629026055,
0.198157325387,
-0.0474520921707,
0.21398344636,
0.121979445219,
-0.00698671489954,
0.145130991936,
0.151259943843,
0.0454834997654,
0.437909424305,
0.536803245544,
0.392950922251,
0.513804614544,
0.438365966082,
0.394512683153,
0.232071191072,
0.412399679422,
0.542935788631,
0.416067451239,
0.684459269047,
0.504085898399,
0.394198507071,
0.422036588192,
0.489468336105,
0.332866132259,
0.342970013618,
0.314584136009,
0.441690444946,
0.342233866453,
0.234020233154,
-0.0688706114888,
0.247759893537,
0.14630818367,
0.390233665705,
0.0513894855976,
0.691004097462,
0.163056150079,
0.0246280804276,
-0.538625001907,
-0.318539351225,
-0.200166210532,
-0.373909175396,
-0.170726522803,
-0.524298131466,
-0.329032629728,
-0.190986439586,
-0.468450158834,
-0.333631128073,
-0.0681427717209,
0.0483939424157,
-0.166664481163,
-0.199165463448,
-0.0762452185154,
0.00665263645351,
-0.304983854294,
-0.121481433511,
-0.18707472086,
-0.0394541732967,
-0.537031471729,
-0.182383015752,
0.0692281872034,
-0.260890185833,
-0.105989187956,
-0.682077825069,
-0.0702310875058,
-0.532963812351,
-0.381406486034,
-0.396963298321,
-0.0978499650955,
-0.171778470278,
-0.187391042709,
-0.211204349995,
-0.192919909954,
-0.181247293949,
0.00963234528899,
-0.111166849732,
-0.335730224848,
-0.103979110718,
-0.148153468966,
-0.221576407552,
-0.0393606051803,
-0.0136689869687,
0.270070552826,
0.00815681181848,
-0.319236546755,
-0.0486368834972,
-0.198535233736,
-0.213466465473,
0.284191519022,
0.359891444445,
0.427648425102,
0.224048525095,
0.457842379808,
0.330050259829,
0.51086139679,
0.262895047665,
0.386463910341,
0.591713309288,
0.332178086042,
0.23747754097,
0.112336158752,
0.345788806677,
0.339891582727,
0.345637708902,
0.574972867966,
-0.480651885271,
0.326788276434,
0.276392936707,
-0.42959150672,
-0.679917693138,
-0.471266388893,
-0.496046632528,
-0.561890006065,
-0.28013625741,
-0.617223978043,
-0.824199855328,
-0.537243485451,
-0.588692903519,
0.117925286293,
0.082163259387,
0.260479718447,
0.20345646143,
0.243029996753,
0.277597516775,
0.307162582874,
0.430457979441,
0.0074758916162,
0.0825906842947,
-0.210117653012,
-0.036948107183,
0.28344103694,
-0.234955623746,
0.197833448648,
-0.123356550932,
0.0238406658173,
0.134354680777,
-0.248657673597,
-0.183067411184,
0.351155698299,
0.107993535697,
0.352544486523,
0.118800766766,
0.0467036962509,
0.233272284269,
0.600746512413,
0.137859627604,
0.14723110199,
0.0636061057448,
0.0144152762368,
0.0309932529926,
0.000883611268364,
-0.0553436912596,
-0.213419362903,
-0.363169908524,
-0.0426452085376,
0.0973949432373,
0.302283942699,
-0.0735657289624,
-0.838395893574,
-0.811646819115,
-0.76257610321,
-0.513108372688,
-0.543414950371,
-0.458245903254,
-0.389429062605,
-0.690644145012,
-0.387115687132,
-0.521463215351,
-0.186828255653,
-0.11655139178,
-0.283622354269,
-0.0776198282838,
-0.035531707108,
0.0232984367758,
-0.16622646153,
0.0736931189895,
-0.212792769074,
-0.0629581734538,
-0.621549487114,
-0.555225968361,
-0.471972048283,
-0.592310965061,
-0.226981788874,
-0.558567583561,
-0.54567283392,
-0.0380472764373,
-0.758910179138,
-0.979158759117,
0.00124588457402,
-0.148670583963,
0.0297317877412,
0.21791896224,
-0.106081560254,
0.161622926593,
-0.161537528038,
-0.223785996437,
0.0793404653668,
0.00813884846866,
0.528067886829,
0.420563876629,
0.633110642433,
0.582481563091,
0.582260966301,
0.17135219276,
0.563191473484,
0.548388421535,
0.720561504364,
0.529972732067,
0.686606168747,
0.153950378299,
0.317077279091,
0.173062846065,
0.329448968172,
0.239307999611,
0.336530596018,
0.925471365452,
0.88951343298,
0.726731479168,
-0.457372009754,
-0.418982744217,
-0.372020721436,
-0.269649803638,
-0.497492700815,
-0.243220627308,
-0.264604538679,
-0.0845058336854,
-0.441392332315,
-0.396165400743,
0.0848284885287,
0.517621815205,
0.0671793296933,
0.275786519051,
0.288730412722,
0.132991999388,
0.0602542199194,
0.370876818895,
0.22873519361,
-0.0111270239577,
0.459760189056,
0.432235002518,
0.553173542023,
0.476400732994,
0.692613780499,
0.661351323128,
0.514705657959,
0.463339656591,
0.871156811714,
0.771942615509,
0.223431661725,
0.426920354366,
0.576786577702,
0.733903467655,
0.309037774801,
0.295199155807,
0.217363148928,
0.94354724884,
0.614886283875,
0.516127109528,
-0.179030328989,
0.31368547678,
0.036211758852,
0.0520408675075,
-0.208389163017,
-0.118157505989,
0.0992157235742,
0.424015939236,
0.15231180191,
-0.0844499766827,
0.686693131924,
0.406550019979,
0.145909428596,
0.0972335636616,
-0.0191999766976,
0.183412626386,
0.386947214603,
-0.0173937045038,
0.496627241373,
0.475994706154,
-0.165990740061,
-0.101777054369,
0.0302590895444,
0.274234056473,
-0.255810707808,
-0.0733482986689,
-0.0842093229294,
-0.0336056165397,
-0.272100865841,
-0.0667320340872,
0.189559355378,
0.0878101214767,
-0.210324376822,
0.0550314001739,
-0.131940707564,
-0.193964913487,
0.019472906366,
-0.142052054405,
-0.374507784843,
-0.263026058674,
0.3598536551,
0.424744158983,
0.417776525021,
0.312709242105,
0.334350138903,
0.323287397623,
0.369605869055,
0.41506549716,
0.434216886759,
0.33671528101,
-0.0736472383142,
-0.276998579502,
-0.255941957235,
-0.0813990086317,
-0.382486134768,
-0.15017016232,
-0.134576424956,
0.11439049989,
0.217424631119,
0.240681767464,
0.585452675819,
0.547196149826,
0.514092624187,
0.759854376316,
0.400625348091,
0.571119904518,
0.332613885403,
0.626675128937,
0.499307960272,
0.718515753746,
-0.104251816869,
0.124849691987,
0.0620786622167,
-0.399551570415,
-0.155727490783,
0.126884847879,
-0.165610432625,
0.229270860553,
-0.0320962406695,
-0.183652102947,
-0.411969155073,
-0.148381307721,
-0.640199542046,
-0.202628910542,
-0.540892958641,
-0.360645800829,
-0.386152416468,
-0.579048275948,
-0.370583713055,
-0.475253969431,
-0.577893197536,
-0.239634886384,
-0.417655050755,
-0.161444395781,
-0.164061039686,
-0.0351651608944,
-0.258216381073,
-0.151622235775,
-0.542570710182,
-0.354070276022,
0.468615680933,
0.497235566378,
0.445659995079,
0.698313474655,
-0.0150509262457,
0.0413934662938,
0.214629665017,
0.40167543292,
0.5815346241,
0.466789990664,
0.01795825921,
0.22017249465,
-0.188849881291,
0.28682461381,
0.105325371027,
0.0201748944819,
-0.0014669476077,
0.196655213833,
0.223805546761,
0.209635823965,
-0.216333687305,
-0.0718535631895,
-0.197860255837,
0.150487914681,
-0.303601771593,
-0.00460096728057,
-0.0890437588096,
-0.616848230362,
0.0281643904746,
0.00958164967597,
0.185289561749,
-0.211249902844,
-0.147760823369,
-0.272495687008,
0.100922130048,
-0.176201716065,
-0.152411878109,
-0.0635062903166,
0.259548038244,
-0.0752505809069,
-0.177300438285,
-0.19129358232,
-0.0372988209128,
-0.181527033448,
-0.0454870052636,
0.0923187956214,
-0.0791273713112,
0.0228373110294,
-0.0616993308067,
-0.254261940718,
0.083917953074,
-0.205101177096,
-0.160539910197,
0.324927002192,
-0.125289216638,
-0.21314111352,
-0.192537158728,
-0.269971519709,
0.129699081182,
0.224948123097,
0.0525189228356,
0.123169973493,
-0.00327004119754,
0.0662279948592,
-0.059334911406,
-0.05959386006,
-0.117067120969,
-0.214579105377,
0.00107957562432,
0.245743826032,
0.0814847126603,
0.56297904253,
0.283720552921,
0.225525870919,
0.190753757954,
0.204667970538,
0.308992415667,
0.194270536304,
0.129059910774,
0.0809900835156,
0.198408573866,
0.327353566885,
0.294802039862,
0.239696696401,
0.198775172234,
0.000306933769025,
-0.03874861449,
0.425156831741,
0.180310115218,
0.352380514145,
-0.260690242052,
0.00690071191639,
-0.292575091124,
-0.229979500175,
-0.134309068322,
-0.226490959525,
-0.278707116842,
0.1315715909,
-0.313513725996,
-0.304304748774,
-0.228933796287,
-0.210999131203,
-0.200103595853,
-0.412201225758,
-0.389972567558,
-0.406953722239,
0.0215896889567,
-0.520565807819,
-0.405365020037,
-0.279928177595,
-0.40844219923,
-0.182901278138,
-0.364372193813,
-0.191858455539,
-0.406186133623,
-0.29827272892,
-0.208037644625,
-0.456736683846,
-0.422107487917,
-0.313617706299,
0.0865722298622,
0.0158255957067,
0.180728077888,
0.233780995011,
0.216125324368,
0.37091177702,
0.211038783193,
-0.0752192139626,
0.216200113297,
0.119712345302,
0.0239472296089,
-0.0270545333624,
-0.179787218571,
0.0368729867041,
-0.319863885641,
-0.220630556345,
-0.207657948136,
0.0217024236917,
-0.0515907295048,
-0.0790264680982,
-0.189562514424,
-0.135029524565,
-0.234964206815,
-0.0571422241628,
-0.183093592525,
-0.14025709033,
-0.199787124991,
-0.272678077221,
-0.201238006353,
0.103968501091,
-0.500828921795,
-0.610498249531,
-0.416466444731,
-0.272898942232,
-0.33447599411,
-0.313748329878,
-0.53802639246,
-0.397003918886,
-0.251378238201,
-0.544338285923,
0.127634808421,
0.121204994619,
-0.0736772790551,
0.345389127731,
0.0127787189558,
0.206948280334,
-0.0086825452745,
0.181067720056,
0.116319835186,
0.127363651991,
0.202275797725,
0.104174017906,
-0.126615151763,
-0.0801178663969,
-0.0442881993949,
-0.015997024253,
-0.185617893934,
0.297082513571,
0.104851432145,
-0.0486335605383,
-0.308783978224,
-0.195542559028,
-0.531619608402,
-0.246621400118,
-0.458408385515,
-0.284646034241,
-0.601971626282,
0.0633319765329,
-0.285357147455,
-0.432140439749,
0.368892669678,
0.296608835459,
0.479286313057,
0.280213594437,
0.465825140476,
0.62928968668,
0.475418180227,
0.39722725749,
0.258992046118,
0.473887830973,
-0.303025692701,
-0.245793476701,
-0.383680552244,
-0.482953757048,
-0.108356386423,
-0.335140019655,
-0.368769466877,
-0.330771505833,
-0.513900101185,
-0.545278608799,
-0.0181955564767,
0.0579084642231,
-0.0982420220971,
-0.22335973382,
0.0553214475513,
0.0343678221107,
-0.256351917982,
0.119324833155,
-0.0151013247669,
0.0410102270544,
-0.270064681768,
-0.147936820984,
-0.264087438583,
-0.154351234436,
-0.330660432577,
-0.12308293581,
-0.189470097423,
0.104353241622,
-0.0522853024304,
-0.0717804208398,
-0.213275834918,
-0.0513827316463,
-0.233240544796,
0.208431303501,
-0.0979150161147,
-0.0449526682496,
-0.325816959143,
-0.212613344193,
-0.274968832731,
-0.028974134475,
0.0486565902829,
0.133720129728,
0.443322628736,
0.0360704958439,
0.111442610621,
0.0933011621237,
0.291128247976,
-0.542900979519,
0.237150549889,
0.225231990218,
0.227759972215,
-0.052467469126,
0.154178664088,
0.159083455801,
0.335891216993,
0.0695125311613,
0.0651238113642,
0.101772777736,
0.488106936216,
0.358735591173,
0.166501179338,
-0.0843603312969,
-0.136451929808,
0.16271302104,
-0.257322311401,
-0.0743079781532,
-0.0518842898309,
0.210979193449,
-0.541159808636,
-0.104302883148,
-0.0224969051778,
-0.146265566349,
-0.214984208345,
-0.11291705817,
-0.187250122428,
-0.00134630885441,
0.0461441278458,
0.00725191179663,
0.17927108705,
0.116673484445,
0.316530108452,
0.258964926004,
0.178443625569,
0.115661934018,
0.328629910946,
-0.0233398787677,
0.557040929794,
0.395702898502,
-0.18004322052,
0.22859865427,
0.34083545208,
-0.113477900624,
-0.164280712605,
0.141481757164,
-0.149727538228,
0.107171855867,
0.0965194329619,
0.183592602611,
0.0116405105218,
0.106865376234,
0.169861733913,
0.185079231858,
0.113266482949,
-0.081860229373,
0.165590137243,
0.211801335216,
-0.422120779753,
0.162405699492,
0.115788772702,
0.11250513047,
-0.0184992440045,
-0.15529307723,
-0.218776360154,
-0.333041906357,
-0.292724758387,
-0.287998080254,
-0.112248308957,
0.0286054648459,
-0.430244684219,
-0.364409953356,
-0.00817039515823,
-0.197612732649,
-0.428563296795,
-0.491234213114,
-0.610953092575,
-0.449662595987,
-0.468963623047,
0.393312126398,
-0.781950831413,
-0.100172273815,
-0.207401424646,
0.175711795688,
0.208961516619,
-0.0938716009259,
0.52643430233,
0.254422605038,
0.170081019402,
-0.224274858832,
0.419273644686,
0.139491707087,
0.168790504336,
0.148368418217,
0.266413092613,
0.416580200195,
0.469889968634,
0.213299170136,
0.132376089692,
0.30918982625,
-0.0210873819888,
0.262941628695,
0.0140384538099,
0.622300207615,
0.199481382966,
0.231180891395,
0.131919384003,
0.173989385366,
0.0155054321513,
0.00255184434354,
0.156349033117,
0.0903158411384,
-0.0986882820725,
-0.0967173576355,
0.0125663541257,
-0.0679986774921,
-0.0769647061825,
-0.0143671389669,
-0.0945828035474,
0.134313926101,
0.0441542603076,
0.0889305323362,
-0.0457227602601,
-0.255969762802,
-0.233847156167,
-0.0822974741459,
-0.0698887780309,
0.116924390197,
-0.0313174426556,
0.0511047877371,
-0.306167036295,
-0.469933539629,
0.147702395916,
0.143231838942,
0.318368285894,
0.137625336647,
0.324530601501,
0.231874570251,
0.224126845598,
0.313088029623,
0.0240247715265,
0.0613393858075,
-0.0613689571619,
-0.229709327221,
-0.176897540689,
-0.122593775392,
-0.472051024437,
-0.313216775656,
-0.348274558783,
-0.608797490597,
0.47518786788,
-0.0327698178589,
-0.0891237333417,
0.0449535995722,
-0.258511990309,
0.0158868860453,
-0.348762631416,
0.124871581793,
-0.0601347759366,
0.110726341605,
-0.129219129682,
0.0446767434478,
-1.24349689484,
-0.309728622437,
-0.476172417402,
-0.46970435977,
-0.502035617828,
-0.722960650921,
-0.230593189597,
-1.13508284092,
-0.447693228722,
-0.410874336958,
0.0220524743199,
-0.536039590836,
-0.378408521414,
-0.466527611017,
0.0679035633802,
-0.283967107534,
-0.0874210819602,
-0.591452538967,
0.0196740329266,
-0.459958732128,
-0.0766901150346,
0.0403927117586,
-0.0995139107108,
0.223899498582,
0.461350858212,
0.46059063077,
0.300666570663,
0.017240671441,
-0.205577686429,
0.142573162913,
-0.198443770409,
-0.317122370005,
0.0384545773268,
-0.217324391007,
-0.0430995114148,
-0.18591453135,
-0.151168182492,
0.021661484614,
0.310858666897,
-0.153899744153,
0.137572154403,
-0.0344725586474,
0.239215359092,
0.331019252539,
0.499988615513,
0.281904309988,
0.0824000537395,
-0.185662358999,
0.409620046616,
0.271640747786,
0.497237175703,
0.293821573257,
0.532329201698,
0.457480221987,
-0.049940969795,
0.132451087236,
0.611291825771,
0.376513034105,
0.624680638313,
0.544890165329,
-0.324104994535,
-0.133580520749,
-0.35493350029,
-0.187973663211,
-0.338017225266,
-0.00392277911305,
-0.136811003089,
-0.0592940077186,
-0.164583384991,
-0.168831139803,
0.0818508192897,
-0.180940836668,
0.0867249518633,
-0.184308350086,
-0.0803233683109,
-0.188224688172,
0.0881513208151,
-0.255300670862,
0.116835474968,
-0.1001586169,
-0.448994934559,
-0.275467813015,
-0.439002782106,
-0.40482455492,
-0.150056496263,
-0.397922486067,
-0.129731371999,
-0.396194696426,
-0.395612627268,
-0.238453000784,
0.542550444603,
0.570561408997,
0.314800143242,
0.399732500315,
0.348596334457,
0.307924866676,
0.459336549044,
0.578686654568,
0.30301502347,
0.466023087502,
-0.177330106497,
-0.489631086588,
0.00354679720476,
-0.46917372942,
0.228014573455,
-0.0936863943934,
-0.0458516739309,
0.011041758582,
0.0779520273209,
0.158092617989,
-0.155414998531,
0.178412392735,
0.356739908457,
0.698339939117,
0.105606377125,
0.579175829887,
0.419357597828,
0.285269021988,
0.377328127623,
0.490617036819,
-0.42692309618,
-0.074335411191,
-0.302909553051,
0.0354013964534,
-0.596796154976,
-0.256618112326,
-0.363990008831,
-0.531338274479,
-0.22647228837,
-0.475089669228,
-0.291650861502,
-0.157168924809,
-0.222128659487,
-0.283221334219,
-0.087474398315,
-0.313420027494,
0.0121169574559,
-0.273431301117,
-0.509780168533,
-0.398192822933,
0.0689671114087,
0.583514750004,
0.438085705042,
0.386002540588,
0.529236972332,
0.223263934255,
0.196223810315,
0.17700061202,
0.202851012349,
0.309619754553,
-0.284733474255,
-0.115093924105,
0.255434572697,
0.193402945995,
0.278962045908,
0.287000626326,
0.150850504637,
0.361463367939,
-0.0891875401139,
-0.0346134826541,
-0.0566680878401,
-0.017530316487,
-0.0779244676232,
-0.139606431127,
0.0192268136889,
0.088979549706,
0.0883016809821,
-0.101515449584,
-0.360662847757,
-0.0390742048621,
-0.113529682159,
-0.0543243810534,
-0.208748459816,
-0.345401287079,
-0.0152120124549,
0.0233461894095,
0.252726644278,
-0.0825629085302,
-0.287917256355,
-0.164751783013,
-0.195811629295,
-0.190199494362,
-0.0392070226371,
0.0634828135371,
-0.102206371725,
-0.227003619075,
-0.327346116304,
-0.0911322832108,
-0.158832728863,
-0.194099977612,
0.669865250587,
0.10488974303,
0.160824343562,
0.157094910741,
0.130991071463,
0.0318019390106,
0.106487318873,
0.273325681686,
0.507048726082,
0.380719006062};