weight_t weights1[N_LAYER_IN][N_LAYER_1] = {1.49038684368,
1.62341463566,
0.46184489131,
0.242280453444,
-0.422773063183,
1.28484427929,
0.963574528694,
-0.960054516792,
-0.143141388893,
2.40549397469,
-0.902160286903,
0.710247159004,
1.61878716946,
0.176898255944,
1.23272645473,
0.356357485056,
-0.282257914543,
0.218851283193,
1.45102620125,
-0.29161041975,
1.48612654209,
0.0308330822736,
-0.409782379866,
-1.23595392704,
-0.585044801235,
0.0109015004709,
0.99194920063,
1.48528194427,
1.83038973808,
-1.36446714401,
-0.711898028851,
0.762870371342,
0.546511411667,
1.48031234741,
0.421295374632,
1.75704479218,
1.11011588573,
-0.140654593706,
0.692928731441,
1.52347016335,
1.5383682251,
1.53659188747,
1.57835483551,
0.635087907314,
2.42179894447,
-1.42478132248,
0.0886225029826,
0.466985166073,
0.484737038612,
0.40241008997,
-0.0532477982342,
-0.277189254761,
0.253830939531,
-0.186912432313,
-0.711202919483,
-0.245086014271,
0.509776949883,
1.56471848488,
1.37116158009,
2.02604293823,
0.604643821716,
0.618298232555,
0.853340625763,
1.27865183353,
1.15189158916,
-0.00269588269293,
1.3321095705,
-0.567673742771,
-0.449787735939,
1.36490082741,
0.0595168024302,
-0.3344142735,
-0.447281211615,
-0.345382392406,
0.146775200963,
1.59030377865,
0.439066946507,
0.439030379057,
-1.17520010471,
-0.00807022862136,
0.0784357190132,
0.448657810688,
0.760295629501,
-0.140865087509,
-0.512320041656,
-0.517174005508,
0.432691186666,
0.371641814709,
0.0758289471269,
-0.166520982981,
-0.176911070943,
0.499767422676,
-0.184563368559,
0.139800295234,
-0.208475261927,
-0.0712377429008,
0.0989976525307,
0.683112084866,
1.88647043705,
1.69035589695,
-0.0386620499194,
0.323096364737,
1.61931359768,
2.0664665699,
0.424667298794,
0.500450432301,
-0.522564530373,
1.70728290081,
1.78581678867,
0.150563374162,
0.796358585358,
1.30038940907,
0.114631228149,
2.09658026695,
-0.584697782993,
1.10509967804,
0.970887303352,
1.43127250671,
-0.258822232485,
0.62754291296,
0.882660746574,
0.0644979849458,
0.450610876083,
1.05816423893,
1.80867040157,
-0.230934292078,
1.11824727058,
0.379102259874,
-0.421042948961,
-1.33284068108,
1.86106228828,
1.16023075581,
1.27108025551,
0.745196342468,
0.735655426979,
1.46457874775,
-0.620108246803,
0.614858150482,
1.3061811924,
0.483125060797,
0.99512565136,
0.881456792355,
0.552238166332,
1.5404882431,
-1.03193044662,
0.901463449001,
0.763918459415,
0.400714278221,
0.916946589947,
-0.33482119441,
1.33441984653,
-0.774519503117,
0.752245128155,
-0.31809335947,
0.826628923416,
0.947091042995,
0.205481648445,
-0.978783607483,
0.710007250309,
-0.684995830059,
1.13300049305,
0.144005596638,
0.612818717957,
0.409527510405,
0.515715122223,
-0.0683150365949,
0.285638540983,
0.721637129784,
2.06414484978,
0.0554299280047,
-1.36445641518,
-0.568635046482,
0.8887347579,
0.98092675209,
0.598446309566,
-0.569407641888,
-0.00401234440506,
1.15811169147,
-0.324207305908,
0.765703558922,
-1.11917710304,
0.691457152367,
0.983483433723,
1.1071767807,
-0.495231509209,
0.764586806297,
-1.02837896347,
1.36905884743,
-0.246137470007,
0.600754261017,
2.13728380203,
-0.0526199042797,
0.936705946922,
0.305706441402,
0.429726868868,
0.628915011883,
1.09915542603,
-0.514162838459,
0.286683142185,
0.832735419273,
1.48349928856,
0.0111098680645,
-0.386352419853,
-1.10300707817,
-0.189479082823,
-0.911981463432,
-0.36903706193,
-0.250164121389,
-1.06319415569,
0.905417323112,
0.266409337521,
1.21676766872,
1.76469695568,
0.684160530567,
-0.125124633312,
0.199934735894,
1.70088922977,
-0.487635582685,
0.969410777092,
0.165955871344,
0.173204690218,
0.176650822163,
1.46978330612,
-0.948661565781,
-0.106754116714,
1.20228993893,
-1.36907982826,
1.8958414793,
0.259690910578,
-1.04664683342,
2.18962812424,
0.566823780537,
-1.54636466503,
-0.535345077515,
0.072698391974,
-0.511820316315,
1.44377970695,
0.674617886543,
-1.07092773914,
-0.845711171627,
0.344940274954,
0.0403527766466,
0.163461521268,
0.232335016131,
-0.41395097971,
0.0030733901076,
0.37924721837,
-0.0787482708693,
0.747282624245,
0.498236954212,
0.141223028302,
0.463136583567,
-0.612800061703,
-0.189356535673,
-0.0654549598694,
0.0523987933993,
-0.566238105297,
-0.338912218809,
0.403773188591,
1.74020648003,
1.00705170631,
-0.456167429686,
1.93253576756,
-0.0966029316187,
0.500376522541,
0.0366395898163,
0.035146292299,
0.0829164758325,
0.591493308544,
-0.47034445405,
0.111483022571,
0.99945551157,
0.476201087236,
0.941815912724,
1.02922952175,
-0.168261304498,
1.12843048573,
-0.200097456574,
1.63052070141,
1.46913814545,
1.41030216217,
0.518191874027,
2.1241812706,
1.18890929222,
1.32728171349,
1.28586685658,
1.27534234524,
-1.07995080948,
-0.10338228941,
-0.764705777168,
1.28946733475,
2.227622509,
0.823025286198,
0.75473934412,
-0.132829174399,
1.06607890129,
-0.342743575573,
-0.632733345032,
0.576526165009,
1.57332265377,
-0.0279482156038,
1.19443905354,
-0.0907288938761,
1.11236536503,
1.95987260342,
-0.0830869823694,
0.858658730984,
1.46902191639,
-0.450557589531,
-0.918107569218,
-1.00389516354,
-0.761645257473,
-0.102075248957,
1.13094568253,
0.438621968031,
0.301743835211,
-0.649865031242,
-0.0665559247136,
1.12446320057,
1.05350530148,
0.825943470001,
0.325252443552,
1.66693353653,
0.0443288385868,
0.821314454079,
-0.15407204628,
0.173148170114,
0.645030200481,
-0.514297127724,
-0.203037068248,
-0.281464993954,
1.87322890759,
0.777796268463,
0.654470682144,
-0.317563712597,
-0.766385734081,
1.26683497429,
-0.386762887239,
-0.211243182421,
0.377445161343,
-0.33080932498,
0.50222581625,
0.6551476717,
0.874733388424,
1.91283893585,
0.393724828959,
0.606398284435,
-0.184541404247,
-0.732081353664,
1.41229653358,
0.413633733988,
-1.58528459072,
0.0123883523047,
1.36589825153,
-0.794494867325,
0.382897913456,
0.247082963586,
-0.0546754449606,
-0.36262640357,
0.0831020176411,
1.71130120754,
0.313473582268,
1.65965199471,
1.3284496069,
0.743590772152,
1.6083137989,
-0.075471714139,
0.571760952473,
1.195317626,
0.615412473679,
-0.289359688759,
0.590198218822,
-0.910632789135,
0.048683103174,
-0.209024146199,
0.609234273434,
-0.572048723698,
0.109507367015,
0.747977018356,
0.847646057606,
-1.15479362011,
0.937148094177,
-0.421033024788,
1.31195604801,
0.816685855389,
1.76674962044,
-0.163432091475,
-0.478470683098,
-1.01438033581,
-0.0328728742898,
1.31781864166,
-0.567857980728,
-1.27533352375,
2.02011704445,
-0.643923640251,
-0.269158154726,
-0.407223135233,
0.0285971462727,
1.79610168934,
0.962065041065,
0.0793181881309,
0.454938411713,
0.0278913732618,
0.290791809559,
-1.06965768337,
-0.478207826614,
-1.63833832741,
-0.438450574875,
0.302782535553,
0.313350230455,
0.103611655533,
0.745201647282,
-0.0356318764389,
1.12051475048,
0.428903967142,
0.408402562141,
1.15769422054,
0.689561605453,
0.8508862257,
0.567715227604,
0.528256297112,
0.6887575984,
1.13395607471,
-0.480663627386,
0.433085262775,
-0.151519775391,
0.012784733437,
0.235632538795,
0.386577874422,
-0.691355347633,
0.545931696892,
-1.05634117126,
-0.166286200285,
0.782632887363,
1.57440447807,
-0.31904438138,
1.04674065113,
-0.866955935955,
0.271557509899,
0.370759159327,
0.346796810627,
1.69872665405,
-1.39045906067,
-0.209521949291,
1.03079092503,
-1.40768814087,
1.18558168411,
0.338483810425,
0.505399644375,
0.592907845974,
0.297824144363,
-1.24276125431,
0.267212659121,
-0.179465889931,
-0.22987870872,
0.85055488348,
-0.288308918476,
-0.108316853642,
-0.951429724693,
-0.816856503487,
-0.125157192349,
0.619769096375,
0.968901515007,
1.0598423481,
-0.519198000431,
0.815636396408,
-0.41774392128,
0.247461125255,
-0.846451580524,
0.696825802326,
-0.440820068121,
-0.291118770838,
-1.48409700394,
1.58406412601,
1.35834395885,
1.16125571728,
0.609943211079,
0.532166302204,
0.827363848686,
0.539869844913,
-0.608730316162,
0.0566716529429,
2.05010056496,
-1.09379518032,
0.998843431473,
0.660393059254,
0.0123154101893,
-0.251868575811,
-0.76660400629,
1.33539879322,
-0.156509101391,
1.40270996094,
0.882937848568,
0.848736286163,
-0.706116080284,
0.78915476799,
1.14276850224,
0.418033212423,
0.131568223238,
-0.84276509285,
0.863302469254,
0.464178591967,
0.114083059132,
0.782966315746,
0.966744303703,
0.478412538767,
0.498930990696,
2.00302219391,
0.749958276749,
-0.280367136002,
0.857093036175,
-0.90952450037,
1.78388869762,
-0.132236391306,
-0.600513637066,
2.11844825745,
0.171789556742,
0.596362113953,
-1.56628036499,
1.61646103859,
-0.300382405519,
-0.120231039822,
0.776655852795,
-0.0695599094033,
1.57556462288,
2.09159398079,
-0.082704924047,
1.3644592762,
0.320827811956,
1.61388862133,
0.387695401907,
0.386078506708,
1.37281489372,
1.06063377857,
-0.268241673708,
1.15786111355,
-0.407669275999,
0.299472898245,
0.199706062675,
0.151101917028,
1.87408685684,
-0.527817726135,
1.65596544743,
-0.259364157915,
-0.11728015542,
0.421696156263,
1.37687277794,
0.464799463749,
-0.802813708782,
-0.125480726361,
0.090232744813,
0.562877357006,
1.79337656498,
0.164326801896,
1.17613661289,
-0.0972418487072,
1.70936822891,
-0.421962678432,
-0.0576363131404,
2.06281590462,
1.24505138397,
0.357908308506,
0.577198386192,
-0.776767551899,
0.118299104273,
-0.598478913307,
-1.21705162525,
-0.986035943031,
1.4328328371,
-0.953617751598,
0.371432334185,
-0.932876944542,
0.807880818844,
-0.00735787535086,
0.924807727337,
-0.562379479408,
0.874299049377,
-0.907466173172,
-0.310362964869,
-1.01495289803,
1.33607757092,
-0.21740347147,
-0.863451361656,
-1.08871436119,
0.828581273556,
-0.924179375172,
0.737221479416,
0.067002043128,
-0.664879381657,
-0.344275712967,
0.00631379894912,
2.23375153542,
-0.172719210386,
0.0660307183862,
-0.0090315984562,
-1.1141834259,
-1.07116901875,
-0.355622947216,
-0.243065789342,
-0.512584447861,
1.05449426174,
0.31284570694,
-0.129993498325,
-1.49172973633,
-0.0568031296134,
1.18024933338,
-0.373740434647,
0.857213020325,
0.112916953862,
-0.652228593826,
1.96766579151,
1.46631729603,
1.00455904007,
0.970170617104,
0.36648324132,
0.618692100048,
0.101591520011,
-0.496878802776,
0.966173350811,
-0.463203310966,
0.72057813406,
-1.21303677559,
-1.28790271282,
0.674205183983,
0.641789853573,
1.80360531807,
1.64837110043,
1.84115469456,
0.388990312815,
-1.36022627354,
-0.264731734991,
1.27680540085,
1.84802019596,
0.687445580959,
2.06647562981,
-0.125678613782,
0.401311129332,
1.30593597889,
0.849290966988,
-0.323288351297,
0.125765353441,
-0.0842681974173,
1.11675262451,
1.41457927227,
0.348902225494,
1.232462883,
-0.246482878923,
0.636741101742,
0.125478774309,
0.0939704030752,
-0.692239820957,
0.78935199976,
1.7450248003,
-0.178999707103,
-0.161973401904,
0.0828655958176,
-0.582682311535,
0.102392524481,
1.05361258984,
0.865057826042,
0.259003996849,
0.185591697693,
0.931778073311,
1.07219278812,
0.419329106808,
0.538386046886,
0.00309224799275,
0.80161356926,
-0.871836125851,
-1.22457134724,
0.715704679489,
0.651315152645,
0.588048040867,
0.85633200407,
1.27539277077,
0.857336699963,
-0.849651038647,
1.20525872707,
-0.727453947067,
1.34099721909,
0.0619019269943,
-0.650053203106,
-0.956634819508,
0.192573964596,
1.27962446213,
0.0728825107217,
-0.0611508451402,
-0.175075158477,
1.92733347416,
-0.666874229908,
0.593772292137,
0.763690114021,
1.26022553444,
-0.0610500685871,
1.154951334,
0.945134758949,
-0.162883266807,
0.465124815702,
-0.717768311501,
1.51040315628,
-0.973345398903,
1.9139919281,
0.819905519485,
1.28035891056,
1.06897783279,
-0.172813996673,
-0.542863368988,
0.421985477209,
-0.354996860027,
-0.735748291016,
1.37333273888,
-0.377806454897,
0.165430411696,
0.665346741676,
0.121527493,
0.661538243294,
-0.0680930390954,
0.822061300278,
0.620919525623,
-0.022409375757,
-0.032305072993,
-0.509282827377,
0.200192898512,
0.460099726915,
0.334909260273,
1.05239212513,
0.419403225183,
1.59450626373,
0.405583947897,
-1.18995475769,
1.4669803381,
0.846841514111,
-1.24092924595,
1.10561001301,
0.0401370748878,
1.24795842171,
-0.247835382819,
1.47709691525,
1.85179519653,
-0.303011029959,
1.79915976524,
-0.408489853144,
0.45693603158,
0.0857747718692,
1.3264387846,
1.01482903957,
-0.848157525063,
-0.343661427498,
0.395015060902,
-0.219270393252,
0.266680032015,
1.03722727299,
-1.52302527428,
0.706105113029,
0.111506946385,
-1.13396656513,
0.225548058748,
1.40759241581,
-0.410211950541,
0.165694728494,
0.362155079842,
-0.721792697906,
1.74433624744,
0.891212522984,
1.62240850925,
-0.0797175094485,
1.11168134212,
0.200262948871,
1.67462408543,
0.118559598923,
1.85693991184,
-0.711916923523,
-0.390759438276,
0.303654521704,
0.421231001616,
-0.320736318827,
1.31097841263,
-0.182619035244,
-0.521881520748,
0.307827740908,
-0.193410381675,
-0.365940600634,
0.599395930767,
-1.05566680431,
-0.45528742671,
1.21104025841,
-0.920216500759,
0.510369181633,
-0.844991922379,
0.900524795055,
-0.807711422443,
-0.184283658862,
0.0314103141427,
0.168614670634,
-1.04743468761,
-1.12131285667,
-1.61864340305,
-0.57365000248,
-0.526802361012,
1.0839445591,
0.542787075043,
0.148966744542,
0.348176240921,
0.674554049969,
1.06868672371,
1.49068689346,
-0.382784128189,
0.899911880493,
-0.0811649188399,
1.12787973881,
-0.777189910412,
0.38385400176,
1.92281830311,
-1.07180929184,
1.41713654995,
-1.00590109825,
1.25158882141,
-0.29760453105,
-0.300671547651,
-0.0920890644193,
-1.02553153038,
1.85785090923,
-0.329005092382,
-0.715606629848,
0.93844640255,
-0.597991287708,
-1.37986147404,
1.83684372902,
1.47432172298,
-1.51713418961,
2.14228892326,
0.505610644817,
-1.08029603958,
1.86284697056,
0.591423988342,
-0.562906086445,
-0.648944616318,
-1.07343935966,
-0.775778234005,
1.37311959267,
-0.835714280605,
0.989557802677,
-0.288816213608,
1.07248556614,
0.0638461783528,
0.349176943302,
1.19506716728,
0.823671758175,
0.69135415554,
1.10478115082,
1.66290533543,
0.355007201433,
-0.830280959606,
0.662769377232,
0.338822603226,
0.483064383268,
0.209361702204,
0.0226720497012,
1.98796999454,
1.42839300632,
0.411648988724,
-0.321469604969,
-0.893545925617,
1.15741336346,
0.842592537403,
1.26674580574,
0.727222323418,
-1.29689085484,
-1.16733169556,
-1.30744552612,
0.779663980007,
0.953087627888,
-1.23171854019,
1.4775428772,
-0.11743311584,
0.328009217978,
-1.30603575706,
0.446624577045,
0.283389538527,
-1.18531405926,
1.76851451397,
-0.812797725201,
0.576596915722,
0.510569870472,
-0.206998363137,
0.946434795856,
-0.0708550438285,
-0.446888774633,
-0.406944066286,
2.01280879974,
0.988700866699,
-0.382861942053,
0.680992364883,
1.34499037266,
0.0326911620796,
0.356294035912,
0.28986915946,
0.0712000280619,
1.22406220436,
-0.963071107864,
-0.234379291534,
-0.467227041721,
0.941617548466,
1.46354353428,
0.952040433884,
-0.457828968763,
0.331282407045,
1.95259344578,
1.60718166828,
0.153219893575,
0.813489198685,
0.505037903786,
0.810718178749,
1.29159402847,
-0.843233764172,
-0.0489400923252,
-0.296864151955,
-0.53518474102,
0.449339926243,
1.22547900677,
-1.13644385338,
0.179356217384,
-1.0085644722,
1.00510144234,
0.975686728954,
-1.64355301857,
0.758692860603,
1.32958567142,
-0.20520350337,
0.676636993885,
0.31683665514,
1.97283637524,
1.17469954491,
0.356925994158,
-1.04312837124,
-0.343683451414,
0.362351924181,
-1.17232823372,
1.07350277901,
1.84689879417,
-0.147535502911,
-0.746265292168,
0.651009500027,
0.132246896625,
1.18779814243,
0.833920478821,
-0.588840842247,
0.10722733289,
0.669838428497,
0.693776071072,
1.40097498894,
-0.381855666637,
0.595024287701,
-0.884537875652,
0.0629388839006,
-0.518671512604,
-0.89581412077,
-0.947354435921,
-0.434752553701,
0.235094770789,
-0.276265054941,
1.19544672966,
0.0869120433927,
1.72538566589,
-0.272457957268,
-1.18075096607,
1.13659882545,
-0.297954559326,
0.418977946043,
-0.302953064442,
0.483455896378,
-0.0987294390798,
0.49127715826,
0.340757668018,
1.18033885956,
1.71789300442,
0.143532320857,
0.469249337912,
0.771300196648,
0.836094021797,
0.623208761215,
-1.50618159771,
-0.544800698757,
0.373197168112,
-0.722180128098,
0.0359354354441,
-0.873820245266,
0.691492438316,
0.254723548889,
2.01371693611,
-1.34906506538,
-0.546590983868,
1.29433143139,
-0.157215967774,
0.739764213562,
0.70153015852,
0.439190119505,
0.597147583961,
1.08207368851,
0.743703782558,
0.520410776138,
-0.221023797989,
2.12579202652,
0.667231857777,
-0.200865015388,
-0.743545770645,
0.167645931244,
1.24549651146,
1.41955971718,
0.331158161163,
2.16944408417,
-0.184842512012,
0.223791435361,
-1.73444855213,
-1.08792495728,
0.460765510798,
0.35053935647,
1.08527779579,
-0.924910962582,
0.252548664808,
-0.0938073545694,
-1.07848370075,
0.734846055508,
-0.429527401924,
1.5586129427,
1.52695322037,
0.00543359993026,
1.07960212231,
0.186396896839,
-0.0190891716629,
-0.95802539587,
0.926177382469,
-0.38174071908,
0.736017823219,
-1.33753311634,
-1.50266897678,
0.0870641693473,
0.0845199003816,
0.470176130533,
-0.502391040325,
0.133528992534,
0.613296866417,
0.289863169193,
-1.20637822151,
-0.536685824394,
-0.68297034502,
-0.858602821827,
0.224737584591,
-1.33052015305,
0.426575005054,
-0.678408324718,
1.72366559505,
0.813380122185,
1.71282792091,
0.521445274353,
-0.0513384193182,
-0.146366119385,
1.72250163555,
0.661848425865,
0.727542877197,
-1.49334871769,
-0.852982342243,
0.443746358156,
1.05846703053,
-0.108531057835,
-1.18192517757,
2.37901496887,
1.10984861851,
0.61331641674,
0.84581553936,
1.07440137863,
0.388600707054,
0.0787051171064,
0.41685372591,
0.365870654583,
0.530876159668,
0.6731133461,
-0.220856279135,
2.02514052391,
0.54129576683,
0.128175288439,
-0.294374078512,
-0.390451043844,
0.462235242128,
0.569584190845,
0.521407186985,
-0.746238350868,
0.947874426842,
-0.446085721254,
-0.696698963642,
0.609737455845,
-0.96485722065,
-0.0971856713295,
-0.765808224678,
-0.722571253777,
-1.13188385963,
1.22892010212,
0.0616236068308,
0.0574490763247,
-1.45687174797,
0.0953425392509,
0.238219901919,
0.128413423896,
-0.954912304878,
-0.241011336446,
1.38425755501,
1.60054707527,
1.05588805676,
0.193864941597,
-0.857960343361,
-0.631250321865,
1.31451237202,
-0.513427257538,
-0.236319214106,
0.593533098698,
0.457996755838,
-0.811087965965,
-1.25786566734,
-0.769014239311,
1.32612895966,
-0.251588851213,
-1.20619177818,
-0.0289334468544,
1.41189169884,
1.15141153336,
0.323078513145,
0.79398816824,
0.771857321262,
0.181611821055,
0.580579161644,
-1.63323438168,
0.77705436945,
-0.37059700489,
0.676661849022,
1.76761579514,
-0.398064255714,
-1.43977928162,
0.923679828644,
-0.191734924912,
1.06173729897,
0.0715347081423,
-0.595023274422,
0.000845051603392,
0.229900345206,
0.832769989967,
0.116121843457,
-0.0921308547258,
0.23137947917,
-0.295377910137,
-0.382212758064,
-0.874177575111,
-0.0683440938592,
1.27331495285,
-1.0880535841,
0.196602672338,
1.03096151352,
0.594249010086,
-0.261130928993,
0.201251238585,
-0.520390987396,
1.77712237835,
1.44201755524,
-0.483527749777,
0.425490915775,
1.56642901897,
0.00149940373376,
0.18403878808,
0.96827352047,
-1.18364346027,
0.468088507652,
1.08008742332,
0.237492606044,
1.78211855888,
0.279148995876,
1.2538588047,
-1.19355595112,
-0.0855176746845,
-0.592867910862,
-0.601032912731,
-1.74693512917,
-0.0607459060848,
0.514480948448,
-0.514290332794,
0.635279893875,
1.42321538925,
-0.707911193371,
-0.480462044477,
-0.460956245661,
0.870314359665,
-0.858541965485,
1.75322234631,
1.7621358633,
-0.681230127811,
-0.745018362999,
1.25680327415,
0.025317883119,
-0.908884048462,
-1.27185666561,
-1.03139412403,
1.22609102726,
0.367439925671,
-0.880328059196,
-1.20447921753,
-0.434210211039,
1.17029631138,
0.0186832286417,
-1.17220902443,
-0.500251114368,
-0.94852411747,
-0.678958773613,
-0.316392958164,
0.202483847737,
-0.0849211066961,
-1.46314656734,
0.416050225496,
2.11659264565,
-0.114232264459,
-0.781629860401,
1.86923503876,
1.1197963953,
0.59015583992,
0.388446092606,
0.00799673609436,
0.86383497715,
1.30340719223,
-0.238999694586,
0.334546238184,
-0.966404736042,
1.58596527576,
1.34374761581,
1.50888943672,
-0.223448693752,
0.193720772862,
-0.374388962984,
1.25477528572,
0.973463535309,
0.936983406544,
0.106150574982,
1.24943196774,
-0.298729032278,
0.303777694702,
-0.408840209246,
-1.23301768303,
-0.544762134552,
0.784060299397,
-0.81464022398,
0.699803173542,
-0.737269699574,
-0.284624606371,
-0.0158613361418,
-0.806241154671,
-0.656884670258,
1.64518499374,
0.358641266823,
1.37965738773,
1.11560928822,
0.539926350117,
-1.44482314587,
-0.870654523373,
0.529327511787,
0.564417600632,
0.883438706398,
0.32062998414,
-0.81852388382,
-0.458327770233,
0.741120398045,
-0.683658719063,
-0.476742893457,
0.711134076118,
-0.319350838661,
1.15971541405,
0.284320443869,
0.307469546795,
-0.255356013775,
-1.22571921349,
0.265923559666,
-0.928117990494,
0.777056217194,
1.32566702366,
1.62440609932,
1.21441531181,
-0.239262461662,
-0.445244163275,
1.24012291431,
1.36587250233,
0.110404826701,
-0.393745988607,
0.635396838188,
-0.501170992851,
1.32327258587,
-0.128449440002,
-0.510719776154,
0.539596498013,
0.139307558537,
-0.54877859354,
0.864064872265,
1.60002040863,
-0.266578495502,
-0.252829968929,
0.815304815769,
-0.947773396969,
-1.06854176521,
-0.407953977585,
-1.40828573704,
0.0751078277826,
-1.15189027786,
-0.948849022388,
1.11523199081,
-0.534651398659,
-0.593262314796,
0.980280339718,
-0.270361155272,
0.324598401785,
1.48594927788,
-0.569339752197,
-1.38953733444,
1.57758140564,
0.410030037165,
0.374351203442,
-0.765739321709,
0.676585018635,
-0.817471623421,
0.0511222817004,
-1.2573800087,
-0.0881396904588,
-0.853463292122,
-0.476479381323,
0.588148415089,
0.6940549016,
0.478758066893,
-0.303254932165,
0.245991438627,
0.625012218952,
-0.61120390892,
0.843832492828,
1.64552652836,
0.360054254532,
-0.79997253418,
-1.01704216003,
-0.623163402081,
1.15822792053,
-1.00420343876,
-1.32172060013,
0.757189512253,
-0.220142528415,
1.4903396368,
0.0944555699825,
-0.343238145113,
-1.12622642517,
0.191698521376,
1.32599210739,
-0.628878772259,
-0.119677484035,
0.415421724319,
0.198586806655,
-1.5957685709,
-0.749005436897,
-0.244257390499,
0.894842326641,
-0.0151830818504,
-0.534122169018,
-0.931492269039,
0.0393322706223,
1.10379767418,
-0.95054346323,
0.560854613781,
-1.04380953312,
-0.766005158424,
0.532243728638,
-1.57371366024,
1.31467020512,
-0.412760585546,
0.885543644428,
0.511913001537,
0.518006563187,
-0.328167319298,
0.244479209185,
0.44738894701,
0.660738289356,
-0.374685168266,
0.493016034365,
0.0053752027452,
1.72865247726,
0.132386699319,
0.273618757725,
-0.424209684134,
-0.501115918159,
-1.40131998062,
-0.355518043041,
0.670397400856,
0.175539672375,
2.19963717461,
0.378384262323,
0.77428406477,
-0.415478289127,
-0.192812696099,
1.21552872658,
-0.182727992535,
0.397360593081,
-0.392484128475,
-0.312095105648,
0.0408960282803,
0.482606589794,
0.547358632088,
-0.96083933115,
-0.639356374741,
-0.301398992538,
0.579643070698,
-0.710890412331,
0.66489648819,
0.426933914423,
-0.139323651791,
0.483397871256,
0.563512027264,
0.0280715562403,
-0.579833388329,
-0.89233905077,
-0.118568144739,
-0.449193716049,
0.0161911714822,
0.994792461395,
-0.57114303112,
-0.189664438367,
-1.54739022255,
0.557188153267,
-1.66932201385,
0.101955868304,
0.558871865273,
0.356454372406,
0.800581037998,
1.82961714268,
0.00273544667289,
-0.132217675447,
-1.66399431229,
0.858758628368,
0.572027504444,
0.80552136898,
1.36277604103,
0.531365573406,
0.24577717483,
-0.483964771032,
-1.73929226398,
0.569388151169,
0.524529993534,
-0.648997783661,
1.01168036461,
0.098833091557,
-0.215089783072,
-0.669226706028,
-0.353118479252,
-0.0492732711136,
1.36750435829,
-0.0304916612804,
-0.248368889093,
0.499081015587,
-0.223435029387,
-1.24328100681,
1.36874306202,
-0.712330758572,
0.410854130983,
-0.746038496494,
-0.3205049932,
1.26555752754,
-0.928595542908,
0.638276278973,
-0.626453459263,
-0.276451587677,
-0.341081410646,
1.28501594067,
0.100122176111,
-0.462508738041,
-0.76522064209,
1.0816437006,
0.687178432941,
1.42027974129,
-1.54646945,
1.12936747074,
-0.894563019276,
-0.478610485792,
1.3125731945,
0.283715635538,
-0.0298834573478,
-0.633549332619,
0.317257195711,
0.271732926369,
-0.753765583038,
0.271754860878,
0.391799151897,
0.22089612484,
1.69998562336,
-0.590374171734,
-0.355181962252,
1.15146875381,
-0.0671579614282,
0.878856539726,
-1.34337723255,
1.52752399445,
-0.745701432228,
-0.99678426981,
-0.411156326532,
0.161308854818,
-1.394120574,
1.70905268192,
1.1816059351,
-1.76940989494,
-1.47566485405,
0.345594167709,
1.01736807823,
-0.25640052557,
-0.434588730335,
-0.358287483454,
0.45042899251,
0.975937902927,
-0.412309169769,
-0.229784786701,
1.77337193489,
0.53227442503,
0.56272238493,
-0.745139718056,
1.09910523891,
-0.485389232635,
-1.38776230812,
0.455938518047,
0.0242719780654,
-0.643280923367,
-0.414780557156,
-0.650566518307,
-1.21950984001,
0.0197287593037,
-1.35571157932,
1.32603740692,
-1.50889825821,
-0.295301139355,
-0.435776621103,
0.0279229078442,
-1.07431125641,
0.657040297985,
1.90975415707,
-0.725863933563,
-1.39347290993,
0.446567088366,
0.181219354272,
0.548555493355,
-0.769226968288,
-0.8293222785,
-0.513862133026,
1.40126097202,
0.98965972662,
-1.75724101067,
-0.726426422596,
0.707753002644,
-0.0427873842418,
0.795704960823,
0.129347473383,
0.00988396815956,
-0.541219294071,
-0.375963240862,
0.509835064411,
-0.550670564175,
1.47914707661,
-0.104711875319,
1.10786628723,
0.991832911968,
0.289638221264,
-0.852334022522,
-0.214451164007,
-0.228615418077,
0.645666182041,
-0.802763164043,
-0.663887560368,
0.434197902679,
-0.183249145746,
0.372723400593,
-0.708101809025,
0.0826502069831,
0.749044656754,
0.128155037761,
0.224270120263,
-1.27659630775,
-0.103350996971,
-1.65852630138,
1.28148376942,
0.531955838203,
0.296374768019,
0.0275954026729,
2.11616635323,
0.0251475628465,
-1.0100659132,
0.409533798695,
0.805494606495,
-0.620881438255,
-0.503547549248,
0.104811124504,
-0.697381794453,
0.118507772684,
0.992223203182,
-0.0955853536725,
1.67392933369,
0.613644719124,
-0.500490963459,
1.28542768955,
-1.45129334927,
-1.13237988949,
-0.317047089338,
-0.147332295775,
0.0103734768927,
0.435542315245,
-0.778164625168,
-0.64254540205,
-0.467366248369,
0.823772668839,
0.27061983943,
-0.442536205053,
0.306815624237,
-0.922252178192,
-0.23712515831,
-0.0683442875743,
-0.503914058208,
0.0100816227496,
-0.0450345389545,
-0.765520453453,
1.09278833866,
-0.621596634388,
0.587562263012,
0.326963186264,
0.714754521847,
-1.04336822033,
-0.421168893576,
0.395114779472,
0.404700130224,
0.634339272976,
-0.199711561203,
-0.368167817593,
1.60832512379,
1.01864588261,
1.35164391994,
0.298607707024,
-1.25826466084,
-1.63824605942,
0.654920935631,
1.14537334442,
0.480128645897,
-1.42788207531,
0.822356879711,
0.274554669857,
-0.886422872543,
0.372416585684,
0.163940414786,
-0.674305140972,
-0.489444077015,
-0.107451163232,
-1.05689454079,
0.254812031984,
0.0775215253234,
-0.384420752525,
0.578445196152,
0.691390156746,
-1.10758733749,
0.212905287743,
-0.0353961437941,
0.131084501743,
1.18318295479,
-1.57484662533,
0.847616434097,
-0.101065978408,
-0.661035060883,
-1.14266777039,
0.0293946061283,
-0.883800804615,
0.426719933748,
0.134060174227,
-0.437343835831,
1.14127457142,
1.22420251369,
1.59215188026,
0.516142427921,
-1.15115356445,
-1.26389086246,
-0.388365805149,
1.63348066807,
0.126683205366,
-0.276610136032,
1.65394890308,
1.37856960297,
-0.584543228149,
0.633725047112,
-0.0778507366776,
-0.0813156813383,
1.0907728672,
-0.694742619991,
0.445474892855,
-0.0312114749104,
1.46795189381,
-1.714661479,
1.38108420372,
0.867794334888,
0.679671347141,
-0.24128074944,
1.66366910934,
-0.427866220474,
-0.517203211784,
-0.178676739335,
0.395356208086,
0.0688978508115,
-1.44978225231,
-0.0850341543555,
0.931278645992,
-1.28069710732,
-0.346182823181,
-0.121738031507,
0.964733719826,
-0.89169472456,
0.680196166039,
0.539252638817,
0.0408631823957,
0.462781965733,
0.855207026005,
-0.0606749206781,
-1.73551118374,
1.30795383453,
-0.138841718435,
0.521642565727,
-0.941524744034,
1.01812565327,
0.140468388796,
-1.19389533997,
0.974370121956,
1.93115150928,
-1.28004014492,
1.23317062855,
-0.0845370292664,
0.179428845644,
1.34801113605,
-1.51704323292,
-0.599652051926,
-0.652335166931,
-1.06715750694,
-0.79428935051,
-0.50812715292,
-0.805479884148,
-0.218025282025,
-0.459275305271,
0.0197700113058,
-1.07799398899,
1.24090588093,
0.493914753199,
0.144621327519,
0.727865993977,
0.960783839226,
1.80584800243,
-1.04243135452,
-0.569144189358,
-0.694110155106,
-0.730943381786,
1.84260821342,
-0.775573134422,
0.811165869236,
0.513016521931,
-0.492600113153,
-0.940412819386,
-1.05413281918,
1.67204999924,
-0.450982034206,
0.714868426323,
-0.781214296818,
0.230785056949,
0.439572244883,
1.30524265766,
0.0087170265615,
0.663417518139,
-0.360492110252,
1.5970916748,
1.67638242245,
0.491653263569,
0.519086122513,
1.46982896328,
0.669398963451,
1.06424283981,
0.335094183683,
0.949675261974,
1.99082183838,
-1.76287508011,
0.6972219944,
0.542151868343,
0.5233309865,
-0.253801465034,
1.30570316315,
0.250204056501,
-0.2110658288,
0.568829476833,
-0.106224000454,
-0.0591619797051,
-1.45570003986,
-0.263104647398,
1.83817768097,
0.804470479488,
-1.15129101276,
0.283651053905,
0.183677613735,
-1.33622169495,
-0.669793426991,
1.50554192066,
-0.00872014276683,
0.583573818207,
-0.385497450829,
-0.206330478191,
-0.488852798939,
0.185548216105,
0.562940478325,
-0.271284103394,
0.543963730335,
0.477687239647,
-0.246754020452,
0.869881570339,
-0.22063626349,
0.930809438229,
-0.307948291302,
1.39204061031,
1.05023860931,
0.0807007849216,
-0.756735801697,
-0.132446631789,
0.265620410442,
0.173422500491,
1.13078951836,
0.0504842996597,
-1.11757969856,
-0.671439409256,
-0.421622037888,
0.119890578091,
-1.65414142609,
-1.784968853,
0.50602710247,
0.753551185131,
0.80174767971,
0.281533390284,
-0.315363287926,
-0.297036975622,
0.771313905716,
-0.77063947916,
1.40682327747,
-0.902806937695,
-0.164406388998,
1.71413075924,
0.137495785952,
-1.11935782433,
1.03144705296,
1.05526208878,
-0.433321356773,
-0.483890354633,
1.35101175308,
-0.460782766342,
-0.629532635212,
0.659539580345,
-0.732643842697,
-0.803297579288,
-0.994573056698,
0.58674031496,
-1.49421191216,
-0.42274582386,
2.04990649223,
1.27193546295,
-0.122710049152,
-0.539679765701,
-0.30171468854,
1.3886629343,
0.167953833938,
0.361354500055,
-0.701197385788,
-1.24466454983,
0.621949732304,
1.29981970787,
0.467624276876,
-0.291951596737,
0.943823158741,
0.00267104571685,
0.307418256998,
0.443003177643,
-1.89928245544,
-0.128938913345,
0.486147940159,
0.26419121027,
-0.240407735109,
0.525182545185,
0.0295324735343,
-1.0092010498,
0.782851755619,
-0.219261035323,
0.298878580332,
1.15717625618,
-0.00497589167207,
-0.0250435546041,
-1.10803639889,
1.16562461853,
-0.292571365833,
0.67645829916,
0.166908234358,
-0.14941495657,
-0.0917697250843,
1.34230732918,
0.637215793133,
-0.773855626583,
1.36046504974,
0.287910163403,
-1.14813137054,
1.56326007843,
-0.922958552837,
-0.255839556456,
1.01550602913,
1.00282168388,
0.121991030872,
-0.359571576118,
0.615222990513,
1.20948505402,
-1.73247671127,
-0.206344023347,
-1.21858251095,
-0.139235511422,
0.163714528084,
1.96916568279,
-1.62371790409,
-0.638347268105,
0.0390397906303,
0.389768451452,
0.912626922131,
0.530448138714,
0.907854199409,
0.409599751234,
0.263341873884,
-0.643194377422,
0.864299356937,
-0.0402417182922,
0.252261012793,
1.40975093842,
-1.42719841003,
-0.0595576800406,
0.25160446763,
-0.767679095268,
-0.780123651028,
-1.20139443874,
0.71300381422,
0.109811373055,
-1.5059210062,
0.185865476727,
0.900295972824,
-1.25970029831,
-1.76119112968,
0.200120314956,
0.0447906665504,
-0.806949436665,
0.985736250877,
-0.371638566256,
-0.298108756542,
-0.147090941668,
-0.597897529602,
0.545747697353,
1.65219175816,
-1.11861717701,
0.124366059899,
1.11139440536,
0.601506710052,
1.4845250845,
0.294168114662,
0.235941588879,
0.387495487928,
-0.255498945713,
-0.149825379252,
-0.497594863176,
0.791957139969,
0.131785079837,
0.899165153503,
0.849054157734,
0.749495625496,
-0.716773927212,
-0.0121452771127,
0.978619217873,
0.256640166044,
1.58449339867,
-0.157909244299,
0.15663844347,
0.800004422665,
0.64756077528,
-0.189718052745,
-0.68562155962,
1.72514021397,
0.621612370014,
0.693537890911,
1.76228058338,
1.84431564808,
0.415774226189,
-0.146477401257,
0.972801268101,
0.0923005118966,
-0.0155522376299,
-0.461679041386,
0.337415188551,
1.36355173588,
-0.0670660510659,
-0.561715602875,
0.442154437304,
1.60205745697,
-0.266458898783,
0.740201175213,
-1.12975978851,
1.72016727924,
0.514397203922,
0.972792506218,
0.410459965467,
0.0343828387558,
-1.27596783638,
-1.39286792278,
-0.844188213348,
0.923461258411,
-0.043217562139,
-1.31337869167,
-0.945528328419,
0.109083674848,
0.913025796413,
-0.451140284538,
1.09492170811,
-0.603491306305,
-0.978399574757,
0.343924820423,
-0.125429958105,
-0.0674179047346,
-0.643338978291,
-0.466245770454,
0.0171405319124,
0.019336534664,
-0.0980584397912,
0.884664475918,
-0.368347167969,
-1.31104886532,
0.0219129770994,
1.62955999374,
-0.853326201439,
-1.25799429417,
-0.180114358664,
-0.43868124485,
-0.00651682633907,
0.995395362377,
-0.114068463445,
-1.40073168278,
-0.253990054131,
-0.760415911674,
-0.501628518105,
-0.213163942099,
1.41061925888,
-0.56547665596,
0.372533112764,
-0.876187503338,
-0.429390251637,
-0.216194778681,
-0.924764037132,
0.890995204449,
1.36617302895,
0.461764335632,
-0.215648442507,
-0.388502269983,
0.495737940073,
0.406311422586,
1.97744750977,
-1.44397437572,
-0.373642295599,
1.25446295738,
-0.480781018734,
0.366070300341,
0.43959659338,
-0.445607334375,
1.11987352371,
-0.242774873972,
0.86469489336,
-1.10721457005,
0.259439319372,
-1.70646703243,
-0.411556482315,
1.72320532799,
-0.103969216347,
-0.706473112106,
-0.0515290535986,
-0.632699549198,
-0.757997810841,
1.02545464039,
-0.401070356369,
-0.1660618186,
0.211054772139,
0.483229845762,
-1.23253893852,
-1.49357688427,
1.25408351421,
-1.58920252323,
-0.270149767399,
0.635287761688,
0.421696424484,
-0.159613102674,
1.77494418621,
-0.158323183656,
-0.0659100338817,
0.32297283411,
-0.232517540455,
0.493180006742,
-0.396005630493,
0.241446882486,
0.620616853237,
0.61968678236,
-0.563061773777,
0.261835336685,
1.24115669727,
-0.107559852302,
-0.256506741047,
0.609855055809,
-0.608389317989,
-1.09449422359,
-0.520691752434,
-1.23062372208,
-0.515718102455,
-0.247580885887,
0.580970823765,
-0.933138906956,
1.7355670929,
-0.632469296455,
1.17201662064,
-0.367133289576,
-1.57668125629,
-0.163675010204,
-0.474587976933,
-0.550848722458,
0.00572733255103,
1.8424243927,
1.46089828014,
0.379517883062,
1.08442795277,
1.42436122894,
1.03988909721,
0.382865101099,
-0.477883845568,
-0.0464431792498,
0.88239055872,
1.35365867615,
-0.108859941363,
-0.621883451939,
1.18959987164,
0.713145554066,
-0.762175500393,
1.09174823761,
0.23976534605,
0.00236785062589,
0.54549831152,
0.735860049725,
1.19658684731,
-1.16306006908,
-1.41139793396,
-1.4913572073,
-0.310925632715,
1.29996073246,
0.516988039017,
-0.274802058935,
-1.09597730637,
1.64618885517,
0.202177673578,
0.0865199863911,
-0.983116567135,
-1.07047843933,
0.583958089352,
1.00830054283,
-0.125744789839,
0.196083173156,
0.0995781570673,
0.258404940367,
0.146054625511,
-0.104410648346,
-0.178818821907,
0.164958611131,
0.859663009644,
0.218627884984,
-0.142722696066,
0.818806648254,
-0.0465811416507,
0.574718892574,
0.103341788054,
-0.702223479748,
0.559939861298,
-0.852478921413,
0.564057946205,
0.245705515146,
1.05557239056,
0.249782249331,
0.15355835855,
-1.26471793652,
1.50471389294,
0.842997550964,
0.482231736183,
-1.67222285271,
-0.218948304653,
0.316274315119,
-0.454237192869,
-1.2762696743,
1.38195002079,
1.39714515209,
-0.15933817625,
1.27937924862,
1.09229135513,
0.677013754845,
-0.143809512258,
0.1984795928,
0.506830453873,
-0.412955462933,
0.736543595791,
0.71491920948,
-0.759258925915,
-1.34529662132,
0.622515559196,
0.585164785385,
0.73869562149,
0.734409093857,
-0.502543866634,
1.23105216026,
-0.0738052502275,
-0.518783330917,
-0.717198908329,
0.335611045361,
0.624908685684,
-0.7438788414,
0.907391250134,
1.42385423183,
0.534356176853,
0.261990398169,
-1.05319130421,
0.0844107568264,
1.4768229723,
0.196633920074,
1.25416195393,
0.538552045822,
0.653042733669,
1.35350227356,
1.55633878708,
1.91567063332,
-0.657495737076,
-0.232973098755,
-1.75847637653,
1.22322368622,
-0.700852632523,
0.360659003258,
0.495620340109,
1.43967282772,
1.00762307644,
0.0158246587962,
-0.501875579357,
0.592073917389,
0.517424345016,
0.247776150703,
-1.31319630146,
1.23349475861,
-0.237442716956,
-1.71556258202,
1.79173064232,
-1.18185257912,
-0.902110219002,
1.45542025566,
1.35564184189,
-0.294518113136,
-1.32824349403,
0.14950594306,
-0.158962354064,
0.332139402628,
0.484887421131,
1.11969125271,
-1.22309947014,
0.466702878475,
0.491566300392,
-0.307653427124,
-1.40542638302,
0.0321832634509,
0.0669462010264,
0.321072369814,
0.31168320775,
1.46115982533,
0.235298082232,
-0.000190984806977,
-1.12709212303,
0.145021229982,
-0.288547366858,
-1.07951748371,
0.732489466667,
0.201107576489,
-1.19437885284,
1.06989049911,
0.0394478663802,
0.202742800117,
-0.380442261696,
0.395691454411,
-0.371183186769,
-1.6137598753,
0.153923436999,
0.00435178726912,
1.64240992069,
-0.415314614773,
0.284962117672,
1.32129967213,
0.0692842975259,
0.456982254982,
-0.805538415909,
0.464866906404,
-0.432694524527,
-1.11849319935,
0.503315627575,
-0.178570449352,
1.79146790504,
1.30272018909,
-0.551669836044,
1.65094995499,
1.02061736584,
-0.983667075634,
-0.119459085166,
0.0289534684271,
1.55742764473,
0.00117133709136,
-0.324774771929,
-0.405236780643,
-0.16147147119,
0.223041042686,
0.658787608147,
0.046398460865,
-0.559657394886,
-0.100408501923,
1.00010144711,
-0.4448530972,
-2.08892655373,
1.46838593483,
1.62661480904,
-0.533936321735,
-0.398594081402,
1.0641682148,
0.574100792408,
1.12703835964,
1.20945107937,
-0.632467210293,
-0.724929749966,
-0.635957956314,
-0.838620185852,
0.0614661797881,
-0.84314006567,
0.192490115762,
-1.12708950043,
1.3777756691,
1.64012432098,
0.0753124952316,
1.25823497772,
-0.482838064432,
1.42353653908,
0.306624948978,
-0.395430088043,
1.03928625584,
-0.763930916786,
-0.712539494038,
-0.466685533524,
0.815830469131,
0.251043617725,
0.492765843868,
0.705865561962,
0.270605355501,
0.929621040821,
-0.985579669476,
1.02431321144,
1.59631478786,
-0.325359523296,
-0.645145058632,
0.875340163708,
-0.772239983082,
-1.63703835011,
-0.697844088078,
-0.0536867938936,
-0.821359395981,
0.325045973063,
-0.155434817076,
-0.568863511086,
-0.990998625755,
-1.88560080528,
-1.49328649044,
0.485802948475,
-0.889855563641,
0.0524318031967,
-1.01459908485,
-1.39740943909,
0.628667712212,
0.459466218948,
-0.746510803699,
-0.518743216991,
1.7668646574,
1.13141536713,
0.700303375721,
-0.420155137777,
-0.352096557617,
-0.54262149334,
-0.324585527182,
1.15434229374,
-0.338290214539,
1.12275373936,
1.81573796272,
-1.82435166836,
-1.83223688602,
-0.990687608719,
0.659170091152,
-0.537238478661,
0.843721389771,
-0.742116749287,
-0.00802724435925,
-0.199780717492,
0.544760763645,
0.246973797679,
0.01001106482,
0.310433834791,
0.762891471386,
-0.398565649986,
0.0830622687936,
-0.538058102131,
1.15319228172,
-1.22681212425,
0.0349403992295,
1.37110602856,
-1.1683576107,
1.12075436115,
-0.191967189312,
-0.250497043133,
0.802398085594,
0.818355679512,
1.34063911438,
1.04637777805,
0.473924398422,
-0.609906435013,
-0.513222694397,
0.284271746874,
-1.83009183407,
0.399815529585,
-0.210945010185,
1.02462875843,
-0.448875874281,
0.744003415108,
0.903352379799,
0.714175403118,
0.210308417678,
0.520276606083,
0.303461372852,
-1.73331058025,
-0.584751069546,
0.00669278483838,
-0.883984446526,
-0.281355947256,
0.626542747021,
-1.7791134119,
-0.808108627796,
0.483567029238,
-1.28205370903,
-0.728529036045,
-0.691831350327,
-0.299779564142,
-0.0197170320898,
-0.767466783524,
1.575948596,
-1.76505362988,
-0.0394839569926,
0.0118931587785,
0.0914790034294,
0.98977380991,
0.197150439024,
1.70641899109,
-1.10130548477,
0.391319721937,
1.05308234692,
-1.302952528,
-1.62696909904,
0.96118915081,
-0.654724597931,
1.18589842319,
-1.40043830872,
0.621562600136,
0.10168261826,
0.324059069157,
0.0104040196165,
0.59352606535,
-0.0443157553673,
-0.976458728313,
1.6142989397,
1.41647255421,
-0.247273683548,
1.95990622044,
-0.0728802382946,
-0.716293692589,
1.16254115105,
-0.364800155163,
-0.623834013939,
-0.942201018333,
-0.01302621793,
-0.643323838711,
-0.894530177116,
-0.143260583282,
-1.4444527626,
1.1092633009,
-0.245491594076,
1.12234544754,
0.26491227746,
-0.27843362093,
0.279551357031,
1.3646453619,
0.163520753384,
-0.246817186475,
1.17384684086,
0.00264308624901,
-0.736996471882,
-0.538571178913,
-1.09086084366,
-0.200663015246,
-0.523222327232,
1.37324953079,
-0.758342504501,
-0.48305362463,
-0.531887114048,
0.162106275558,
-0.272293478251,
1.49777162075,
-0.900561034679,
-0.0664218962193,
0.501396119595,
0.228846058249,
0.520893037319,
1.84550356865,
0.518694162369,
-1.53503477573,
-0.663142979145,
-1.08584713936,
0.901233792305,
0.0174753442407,
0.0713655501604,
0.587624430656,
1.3965471983,
-0.946947515011,
-0.573260784149,
0.539162874222,
0.697253227234,
-0.829484939575,
-1.8722615242,
-0.406663656235,
0.497146993876,
0.676607608795,
0.843110918999,
1.77916646004,
-0.11423265934,
1.03731703758,
0.376563549042,
-0.349707752466,
0.145631611347,
0.596866428852,
0.184956684709,
-1.64423024654,
-0.0232450664043,
1.12440705299,
0.114860102534,
1.77811861038,
0.356974691153,
-1.3152974844,
0.461243242025,
0.384804874659,
-0.414348900318,
-0.766857266426,
1.27358055115,
0.662232637405,
0.962006151676,
1.1075720787,
-1.28896450996,
0.179843559861,
0.780211448669,
-0.273615062237,
1.20061719418,
-1.85072803497,
-0.110459931195,
0.777103841305,
0.346407085657,
0.413453966379,
0.879901051521,
0.509223222733,
0.627644300461,
-0.902650475502,
-1.17152917385,
0.256509542465,
0.432000488043,
0.556820809841,
0.592909991741,
0.259399831295,
-0.0574271902442,
0.0253861378878,
-0.371345371008,
1.08740675449,
-0.200323805213,
-0.30326038599,
-0.0926893204451,
0.0880700498819,
0.543227136135,
-0.433849424124,
-0.793338775635,
0.929748237133,
1.31942391396,
-0.0117529407144,
-0.996020197868,
0.493069171906,
0.17739802599,
-0.302628099918,
0.89479881525,
0.321162700653,
-1.52187812328,
0.691423773766,
-0.690201461315,
0.25628298521,
-0.670361459255,
-0.448914259672,
0.365301132202,
-0.24152199924,
-0.842656433582,
1.43460392952,
-0.418315261602,
0.886985242367,
-0.153811767697,
1.37819135189,
1.34728431702,
-0.54447722435,
-0.725518167019,
1.37571895123,
1.12882590294,
1.29481697083,
-0.177214875817,
0.417015701532,
-0.299672842026,
-0.505347371101,
1.77830505371,
0.0240836907178,
0.24348936975,
0.804585933685,
0.875414133072,
1.01448702812,
0.664970695972,
-1.41415584087,
-0.131273314357,
-0.543882191181,
0.111698940396,
0.335458099842,
-0.0388774052262,
-0.271313250065,
0.729223191738,
0.76470708847,
-0.873746335506,
-1.28390443325,
0.425040394068,
0.62635165453,
0.928316771984,
0.138662755489,
0.170429244637,
1.26710617542,
0.230464890599,
-0.348585605621,
-0.164864718914,
-0.36465460062,
-1.34060752392,
-0.825690209866,
-0.385425448418,
-0.624065816402,
0.456736057997,
-0.215463474393,
-0.493180632591,
-0.48234128952,
1.61281049252,
0.634719192982,
0.367357134819,
1.65030896664,
-0.204033076763,
-0.351995885372,
-1.1217097044,
-0.26261305809,
0.575220704079,
-0.238178923726,
1.78985524178,
-0.559967815876,
1.19608294964,
0.181005805731,
-0.0765620470047,
0.464125990868,
0.603763341904,
-1.01813781261,
0.342742472887,
-1.40393018723,
0.018513912335,
-0.164320379496,
-1.91739749908,
-0.992613554001,
0.656827270985,
1.69030821323,
-0.130847811699,
1.01767134666,
-0.315303355455,
-0.550098061562,
0.264297008514,
0.0345939360559,
0.0955647975206,
0.771029055119,
0.989703774452,
0.695776998997,
0.668007075787,
-0.429166197777,
0.340801507235,
-0.355245560408,
-0.451905488968,
-0.557460188866,
0.877066016197,
0.298701226711,
-1.18004739285,
0.703495681286,
0.137349590659,
-1.11674368382,
-0.449026703835,
-0.775207042694,
-0.54195523262,
-0.141355723143,
-1.07928347588,
0.788708209991,
0.330749452114,
-0.871743619442,
1.14092195034,
1.20318603516,
0.676048755646,
-0.641915023327,
0.691113889217,
-1.27151751518,
0.387704402208,
-1.08525061607,
0.281502008438,
1.27125871181,
0.517488598824,
-0.192468941212,
-0.208871304989,
0.19378682971,
0.925558328629,
0.421454638243,
-0.498519361019,
-1.01786136627,
-1.53140091896,
-0.171974927187,
-0.55221670866,
-0.449053704739,
1.68536186218,
1.6730080843,
1.48692536354,
1.0991975069,
0.330510944128,
1.07522940636,
0.225122660398,
1.3729789257,
-1.44484746456,
-0.170069769025,
-0.0666880086064,
0.35401070118,
-0.98096960783,
0.17633664608,
-1.07341003418,
1.03203177452,
-1.68696665764,
-0.493397474289,
-0.881853878498,
0.247741833329,
-0.833957433701,
-0.282561957836,
-0.391088813543,
0.430252730846,
0.335925847292,
-0.0640300288796,
-0.683737576008,
0.88069909811,
-0.488021820784,
0.875026345253,
-0.910450577736,
-0.892738521099,
-0.589835226536,
0.882972836494,
-1.38042247295,
0.0799571499228,
-1.06068277359,
0.810229957104,
-0.165824353695,
-1.32733464241,
-0.801186561584,
0.135489910841,
0.075484149158,
-1.67106688023,
-0.146277189255,
-0.578213334084,
-0.853885293007,
0.731779277325,
0.815598785877,
0.840938150883,
-0.1980330199,
1.8271548748,
-1.3799892664,
1.15377855301,
0.837120473385,
0.0621867217124,
0.0562934242189,
-0.136099487543,
-0.496567636728,
0.166797354817,
0.536187231541,
0.344509363174,
-1.27322971821,
0.577343523502,
0.362247049809,
1.75722491741,
0.520144164562,
-1.35162842274,
0.13904415071,
0.144858121872,
-1.04578506947,
-0.858867704868,
1.19615447521,
-0.00373564730398,
-1.00612342358,
-1.2891715765,
-0.370022207499,
-1.04310953617,
-0.127761110663,
-1.63036632538,
0.0792128294706,
0.272778511047,
-0.69085007906,
-1.49653160572,
0.545139014721,
1.24363088608,
-0.735228121281,
0.498383283615,
0.380940645933,
-1.95168781281,
0.596610546112,
-1.01082384586,
1.27508294582,
-0.591155350208,
0.854986548424,
-0.112434886396,
1.74110245705,
-0.167064651847,
0.637949883938,
-0.0484747700393,
-0.170384183526,
-0.176080033183,
0.186768516898,
-0.530302166939,
-0.101749420166,
-0.412924051285,
0.477472245693,
-0.469748973846,
-1.54549121857,
1.6670088768,
-0.311337292194,
0.172118738294,
1.13694369793,
1.33732390404,
0.462808966637,
0.0652788281441,
-1.51471436024,
1.5497969389,
-1.0870872736,
-1.27846384048,
0.629443109035,
0.0893391892314,
-0.160140827298,
1.91359090805,
-0.960912883282,
-1.62266027927,
-0.722942113876,
-0.162484198809,
-0.153278633952,
-0.359408974648,
0.410655200481,
-0.834208130836,
1.31959831715,
0.776000499725,
0.394007086754,
0.35153695941,
0.345724344254,
-0.868800640106,
0.910836219788,
-0.801802635193,
-0.742910206318,
-0.824376523495,
-0.717503368855,
1.29792439938,
-1.36218440533,
-0.0661690831184,
0.803299248219,
-1.25564098358,
-1.25400066376,
-0.54356110096,
0.573176026344,
-0.225669711828,
0.307284444571,
0.798339784145,
0.583479523659,
-0.168991371989,
1.27080249786,
1.53943037987,
-1.04493761063,
0.967393994331,
0.171558722854,
-0.98130851984,
1.20445084572,
0.86646348238,
0.657607495785,
0.694546759129,
-0.55767005682,
-1.46681320667,
-1.68653786182,
0.190037384629,
0.847273528576,
-0.455455213785,
-0.12960319221,
-0.581112146378,
-0.854887723923,
-1.29659843445,
0.536902487278,
-0.0499473549426,
1.03736507893,
1.22081959248,
0.740635037422,
-1.43885195255,
0.22339604795,
1.26652634144,
0.480555564165,
-0.166003897786,
0.425502598286,
1.00335514545,
-0.917566299438,
0.713802933693,
-1.16768229008,
-0.741058826447,
0.0264255460352,
-0.694978296757,
1.10122108459,
-0.677685797215,
-1.56154954433,
0.214705213904,
-1.27766776085,
1.3890465498,
-0.245736226439,
-1.42398023605,
-0.919417381287,
-0.748368322849,
-0.20436295867,
1.51568126678,
1.27838861942,
-1.37425088882,
0.297460228205,
-0.307210296392,
-1.18185198307,
-0.624353885651,
-0.808193206787,
-0.932119607925,
0.354629546404,
-1.06093025208,
-0.0247184429318,
-0.175420209765,
1.22993671894,
0.96968370676,
1.08586645126,
-0.106259420514,
-0.524309396744,
-1.11846709251,
0.207618579268,
-0.0610494017601,
0.325727164745,
1.22829174995,
0.857594311237,
0.372422009706,
0.0581635758281,
0.67799115181,
-0.769823372364,
-0.0152567531914,
0.650032401085,
1.40973579884,
1.06321203709,
0.186116665602,
0.152811139822,
0.358913749456,
-0.0853153169155,
-0.0414383374155,
-0.475731521845,
-0.26590898633,
-0.78375440836,
0.0178163871169,
0.1203674227,
-0.0514284558594,
-0.0144254388288,
-0.43426835537,
0.292355626822,
0.878865599632,
0.535864651203,
-0.0888874158263,
0.0886458009481,
0.42621421814,
0.579155862331,
-1.49633300304,
0.163669258356,
-1.86779415607,
1.07837963104,
0.945789337158,
0.432678639889,
0.672059893608,
0.369599461555,
0.482000231743,
-0.138400033116,
0.533495247364,
1.36201918125,
0.437432020903,
-0.985123753548,
-0.871426701546,
-0.546975851059,
1.07401716709,
1.33136379719,
1.22486710548,
-1.02424514294,
1.31190264225,
-0.123790174723,
-0.021074578166,
0.777895987034,
0.124429382384,
1.9113638401,
0.395588457584,
1.43026578426,
-0.764881849289,
-1.61107969284,
0.0945266932249,
0.787328660488,
-0.318301379681,
-0.802278935909,
-1.55605006218,
-0.331085771322,
-0.043446008116,
0.666011452675,
0.567648947239,
-0.758230805397,
-0.692074358463,
-0.445739388466,
-0.546093583107,
1.47818398476,
-1.64010107517,
0.726800918579,
-0.896639168262,
-0.275339901447,
-0.590702235699,
-0.358271062374,
-1.34502410889,
-1.33982276917,
0.417261242867,
0.208597093821,
0.366155594587,
-0.139652147889,
-1.69034051895,
0.646075546741,
-0.0411580055952,
0.840151548386,
-0.236274063587,
1.03412902355,
-0.749267578125,
-0.651362776756,
0.218826651573,
-0.415417253971,
1.33284854889,
-0.461706608534,
1.02806305885,
0.751035153866,
-1.60931992531,
0.298923313618,
0.185419142246,
0.708795666695,
-0.261084347963,
-0.774995625019,
-0.431185215712,
0.0605804361403,
0.786294519901,
1.46447849274,
0.93308275938,
1.03598642349,
-0.694097220898,
0.752664327621,
-0.391126662493,
-0.143190816045,
0.771745562553,
-0.636537611485,
1.48316764832,
-0.564598441124,
-0.516915023327,
-0.411387532949,
-0.423505544662,
0.284940123558,
-0.459754496813,
0.384625673294,
0.984761297703,
1.60262918472,
-0.568742990494,
-1.79601371288,
-0.899758338928,
1.23795855045,
0.279432743788,
1.02224636078,
0.768911778927,
0.462092459202,
1.71057903767,
-0.670666515827,
0.874328076839,
0.328972458839,
0.893613100052,
-1.63536190987,
-1.20898497105,
0.713822245598,
-0.720974981785,
0.752320826054,
0.381563216448,
0.685479581356,
-0.60182595253,
1.30874407291,
0.236663728952,
-0.603933393955,
-0.318036794662,
0.435780853033,
-0.656301736832,
-0.389145165682,
1.57143509388,
-1.00950801373,
0.158403456211,
-0.0513838641346,
-1.74442946911,
-0.0264834742993,
0.71645462513,
-0.00208959938027,
0.171886563301,
-0.871477484703,
0.498051941395,
-0.137102380395,
-0.262856513262,
0.924715936184,
-0.815253317356,
-0.0994120687246,
0.00344714103267,
-0.640379488468,
-2.02588176727,
0.168169513345,
-0.729432880878,
-0.832896173,
-0.118075095117,
-0.492509245872,
0.695069253445,
-0.447796911001,
-0.761577486992,
0.474446088076,
0.730846524239,
0.146471083164,
-0.739118814468,
-0.401557058096,
1.25881636143,
0.552953362465,
-1.76807034016,
-1.35103964806,
-1.02786040306,
0.479905754328,
-1.77827847004,
-0.269010484219,
-0.0781354978681,
0.694607496262,
-0.112748384476,
-0.405813455582,
-0.455664366484,
-0.401836723089,
-0.659542679787,
-1.35646641254,
0.0650530904531,
0.288884222507,
1.06103789806,
1.4315841198,
0.0444462560117,
-1.66344213486,
1.03896486759,
-0.0655066892505,
0.041931912303,
-1.1195833683,
0.85184687376,
-1.16543841362,
0.00918986834586,
0.0407262891531,
0.530404031277,
0.103234507143,
-0.207745268941,
1.52446842194,
-1.47666597366,
0.259838104248,
1.59811103344,
-1.1149970293,
0.330197095871,
-0.267155557871,
0.393988758326,
-1.66478514671,
0.0539979338646,
-1.39150822163,
0.664317309856,
-0.524848937988,
-1.6752923727,
-0.79868042469,
0.540522217751,
-0.326331824064,
0.213182896376,
0.761423408985,
-1.03231215477,
1.0587490797,
0.143963620067,
-0.317728310823,
-0.665935635567,
-0.647209048271,
0.602976441383,
-0.339929819107,
0.957264482975,
0.0800028592348,
1.02897143364,
1.40380787849,
-0.353879392147,
-0.836915194988,
-0.000839773798361,
-0.0674359351397,
-0.767373979092,
1.16225266457,
-0.282809108496,
-0.0759680718184,
1.27412748337,
-1.1163957119,
-1.60683226585,
-0.316511303186,
-0.976589262486,
-0.224609062076,
-0.28757289052,
-1.53716778755,
0.320925354958,
0.549539923668,
0.279599070549,
-1.11639308929,
-0.651265084743,
1.54579234123,
1.31408786774,
-0.290023684502,
-0.127832785249,
-1.31409645081,
0.0354550145566,
-1.39024269581,
-1.06341838837,
0.0489053279161,
-1.48190927505,
-1.44478738308,
-0.772353231907,
-0.767716765404,
-0.893428504467,
-0.501102745533,
-0.225276380777,
0.140332788229,
-1.14343845844,
-0.887135505676,
1.45826327801,
0.570727169514,
-0.957947611809,
-0.853140294552,
-0.84662091732,
-0.505133807659,
-0.759931266308,
1.00123393536,
-0.629883885384,
0.919206738472,
-1.03924822807,
-1.92499423027,
0.481878936291,
1.38632106781,
0.344253450632,
0.683278977871,
-0.179004743695,
-1.19648718834,
0.968424320221,
0.914045095444,
0.66808450222,
-0.552304804325,
-2.1180768013,
-2.02778863907,
-0.0705377161503,
-0.424911856651,
-1.15821564198,
-1.18859469891,
-0.218627139926,
0.177282586694,
0.0999646261334,
-1.00846374035,
0.71926009655,
1.02244985104,
-0.193757861853,
0.780128955841,
0.342368930578,
-0.561937868595,
-0.796012639999,
0.76233458519,
0.777605354786,
0.607114851475,
-1.85914206505,
0.328925609589,
0.701738059521,
0.274232178926,
0.152385488153,
1.57303357124,
0.0260301847011,
0.407694160938,
-0.291165739298,
-0.816923320293,
-0.0491093248129,
0.288552284241,
-0.0663502216339,
0.451743841171,
0.99968200922,
0.793908238411,
0.407118707895,
-1.28369748592,
0.161202803254,
0.0871594846249,
0.297360479832,
0.778880536556,
-0.347830861807,
-0.749275684357,
-0.532821536064,
0.47319227457,
-1.20404338837,
-1.65374040604,
-0.568314254284,
0.327748060226,
1.3555150032,
0.109870173037,
-0.382457405329,
1.04757797718,
0.11906132102,
-0.521030008793,
-0.320054471493,
-0.462760359049,
0.685004889965,
0.581966638565,
0.713262975216,
0.631481528282,
-0.144342899323,
-0.833283901215,
1.27428328991,
-0.401646912098,
0.160582020879,
-0.232831776142,
-0.575602650642,
-0.612536370754,
-1.75108921528,
1.28676128387,
0.296869158745,
-0.230947867036,
-0.755576550961,
-0.674561023712,
0.946096301079,
-0.94424533844,
-1.23906314373,
-0.211781159043,
0.798821508884,
0.124430552125,
0.126575440168,
1.68193924427,
-1.33927202225,
0.307542324066,
1.16595637798,
0.988685488701,
-0.00119138951413,
0.657319307327,
0.0726711302996,
-0.253237724304,
0.282998293638,
-0.350500673056,
0.586093068123,
-0.177469834685,
-1.04179632664,
0.729524672031,
-0.188233688474,
1.10414791107,
1.28622114658,
0.338045835495,
0.605560541153,
-1.08167219162,
-0.0979621931911,
-0.300672292709,
-0.241626337171,
-1.02208292484,
0.862979114056,
-0.78361427784,
-0.0452511720359,
1.61670541763,
-0.166607826948,
0.414927482605,
-0.213727250695,
1.64109110832,
-0.284171462059,
1.06906819344,
-0.200580000877,
0.255227863789,
-1.45776331425,
1.03134298325,
0.152738571167,
-1.20828807354,
1.36348521709,
0.102061986923,
1.11610639095,
0.228169947863,
0.389100193977,
-0.219499707222,
-0.705225050449,
-0.279999375343,
-0.120323963463,
-0.133956596255,
0.112005412579,
-0.520116508007,
0.295744031668,
-0.965286970139,
0.854081749916,
0.561181247234,
-0.019780414179,
0.129065006971,
0.302317202091,
1.62990045547,
0.757082343102,
-0.548989772797,
1.73662114143,
-0.657286405563,
0.0336911715567,
-0.941561937332,
-0.509022533894,
0.0898412913084,
-0.0872683152556,
-0.955000340939,
-0.924695670605,
-0.831247329712,
0.918501794338,
-0.0253339856863,
-0.197667106986,
0.488846212626,
-0.243600174785,
0.603675127029,
-0.493314027786,
0.197939783335,
-0.0242963004857,
0.592534720898,
-0.313074707985,
0.256265163422,
0.221210047603,
0.471771150827,
0.469376713037,
0.487431675196,
0.990344464779,
0.100252270699,
-0.414736360312,
-0.630156099796,
-0.437837660313,
0.0509822778404,
-0.973519861698,
0.372360557318,
0.179584309459,
-0.701552987099,
1.47470164299,
0.234777063131,
0.0464599505067,
0.666758596897,
-0.540749132633,
-1.08713030815,
-0.652556180954,
0.512017309666,
-0.501308143139,
0.670417010784,
-1.57809329033,
0.206667736173,
-0.104418195784,
1.40121364594,
-0.684369027615,
1.06766974926,
-0.569862008095,
-0.956046283245,
1.69987642765,
-0.883561313152,
0.583166182041,
-1.1895929575,
0.299437940121,
-1.30680131912,
0.443570405245,
-0.989357709885,
0.283734887838,
-0.69528979063,
1.43565702438,
1.38469970226,
-0.217090830207,
0.121749065816,
-0.290476590395,
0.0208861473948,
0.019077366218,
-1.07551050186,
-0.575254738331,
-0.599417209625,
0.952999055386,
-0.850960552692,
0.491483479738,
-1.9843556881,
-0.809484660625,
1.18037557602,
-0.0128955543041,
1.52880275249,
-0.351413190365,
-1.03929424286,
-0.227867290378,
0.194914266467,
-0.475264340639,
-0.748475372791,
1.45175755024,
-1.62372016907,
-1.20772528648,
0.000816708081402,
-1.32105672359,
0.683830559254,
-0.834965586662,
-0.271783173084,
-0.256645023823,
-0.0497029945254,
-0.910570144653,
-0.414367198944,
1.22708570957,
-1.08923149109,
0.223591998219,
-0.463514685631,
0.413281053305,
0.85588914156,
-0.631351530552,
-1.85388338566,
1.22428619862,
0.390476673841,
-0.0683100372553,
0.0728436037898,
-1.9407377243,
0.0415545515716,
0.757996857166,
0.768382668495,
-0.39774081111,
-0.874744236469,
-0.819527387619,
-0.197648644447,
-0.410956889391,
0.0887578651309,
-1.2891138792,
0.87970739603,
0.238135501742,
0.31884098053,
0.0231234785169,
0.398511737585,
-0.0190848745406,
-1.07936489582,
-0.348360598087,
-1.70576798916,
-0.701180458069,
0.747857034206,
-0.278241723776,
-0.642869353294,
-1.44308793545,
0.833774924278,
-0.302309334278,
0.672746956348,
0.07553101331,
-0.268367946148,
-1.01638960838,
-1.50085353851,
-1.33189892769,
0.5678165555,
-0.794091403484,
0.155760377645,
0.0443297065794,
0.374482989311,
0.877566337585,
-1.80619323254,
-0.464636534452,
1.44389510155,
-0.669138967991,
-0.533537507057,
-1.60312950611,
0.946549832821,
-0.27114713192,
0.595578670502,
-0.376587539911,
0.472242325544,
-0.615702450275,
0.0490581765771,
-0.485690742731,
0.355766445398,
0.674712598324,
-0.785643935204,
-1.77030181885,
0.63715493679,
0.464511573315,
-0.824942350388,
0.185760349035,
0.450378626585,
0.929991900921,
1.36665046215,
0.559573590755,
0.493034988642,
0.35124951601,
0.250092089176,
1.432762146,
0.725392103195,
0.348296254873,
-0.767666101456,
-0.017730448395,
-0.552441060543,
-0.335666954517,
1.04044258595,
1.46047139168,
-0.220996528864,
-0.505836606026,
-0.0668130293489,
0.83143556118,
-1.38178145885,
-0.063845820725,
-1.53208231926,
0.248483657837,
-1.34456837177,
1.47161209583,
-0.21439152956,
0.145482882857,
-0.497383534908,
0.869819998741,
-0.619541108608,
0.295352458954,
1.37300002575,
0.831101059914,
0.739703416824,
0.426678031683,
1.09812378883,
-0.73202508688,
0.948698997498,
1.82759511471,
-0.930348575115,
0.628941297531,
0.356403768063,
0.325966536999,
0.485172539949,
-0.543324053288,
-1.05536985397,
-0.912766814232,
-0.228271588683,
1.41884946823,
0.901309609413,
0.58234500885,
0.635947883129,
-1.82399177551,
1.11700952053,
0.0313759669662,
-1.65537023544,
0.879771053791,
0.599368810654,
0.673880636692,
0.129378885031,
-1.07618296146,
0.596542596817,
-1.82695567608,
1.04765069485,
-2.03227090836,
0.149708211422,
0.551237344742,
-0.319689959288,
0.655971944332,
0.463099986315,
-1.56510829926,
-0.735570907593,
0.573957800865,
-0.0786232203245,
-0.872041165829,
0.403618752956,
0.349708855152,
0.396847546101,
-0.33812224865,
-0.0560502782464,
-1.23238277435,
0.0872628316283,
-0.249710202217,
1.16737449169,
0.0948067978024,
1.17806529999,
0.458103597164,
0.246576711535,
0.415384888649,
1.10096085072,
0.582093775272,
0.123029887676,
-0.0432512536645,
-0.45458227396,
0.302921772003,
-0.238248452544,
0.997641563416,
0.169893980026,
-2.00426888466,
-0.462255060673,
-1.25096333027,
1.6812942028,
-0.997077822685,
0.336145877838,
0.183811962605,
-0.0439786016941,
-0.606103539467,
0.185162991285,
0.0888233929873,
0.342421770096,
0.173666611314,
1.87212538719,
-0.778293848038,
-1.36120080948,
1.89253294468,
-0.76119685173,
-0.632233679295,
-1.49969434738,
1.41394793987,
-0.98347812891,
1.29556941986,
-0.964529812336,
0.947497487068,
-0.482580393553,
1.43154227734,
0.701803505421,
-0.217519715428,
-0.0294969938695,
-1.67355358601,
-0.959238290787,
0.735908567905,
0.48304438591,
-0.1434212327,
-0.309499710798,
-0.0515851192176,
0.20292212069,
-0.861927211285,
0.631136953831,
-0.762911975384,
-0.515290021896,
0.973846256733,
1.75999498367,
-0.889431297779,
1.3707742691,
-0.0501596443355,
-0.800312638283,
-0.709951400757,
0.776276350021,
-0.707535326481,
-0.040041025728,
1.62145614624,
-1.73218464851,
-0.640302240849,
0.364047139883,
-0.559068143368,
0.0113953975961,
0.322455406189,
-1.45517265797,
0.435402244329,
1.24910545349,
-0.746778309345,
-1.94940721989,
-1.00796937943,
1.18494522572,
0.528329133987,
-0.698272109032,
-0.338902175426,
-0.173698529601,
-1.64454555511,
-0.279435753822,
0.617019176483,
0.287853568792,
0.108564056456,
-0.90051651001,
0.151223704219,
0.535979747772,
-0.58441889286,
1.00978553295,
0.149063333869,
-1.4470603466,
-1.04164099693,
-0.860498487949,
0.95693898201,
0.853563904762,
-1.44376778603,
-1.69445383549,
-0.679585635662,
-0.00998042616993,
0.749419629574,
-0.282646209002,
-1.23404061794,
0.752177000046,
0.100238710642,
-0.850457668304,
0.411743581295,
0.524756073952,
1.36662852764,
-0.175089195371,
-0.771827697754,
0.918821573257,
0.00479971664026,
0.7787155509,
0.19912981987,
-2.02316641808,
-0.507983148098,
0.199173077941,
-0.666784107685,
-0.156432181597,
0.363924324512,
0.443400591612,
-0.949573874474,
0.234700992703,
0.352934271097,
-0.671653568745,
0.668817341328,
1.14929139614,
-1.78629219532,
-0.856573283672,
0.804785430431,
-0.809843719006,
-1.32143032551,
-0.668075978756,
0.203483000398,
0.238936185837,
-0.651116728783,
0.0286251176149,
-0.81446814537,
-1.79721283913,
-0.957646429539,
0.577156424522,
0.916119635105,
-0.165841028094,
1.02289521694,
0.607127785683,
0.395525068045,
0.122258871794,
-0.0505177415907,
0.444481760263,
-0.375227242708,
0.186833068728,
0.76424151659,
1.07323348522,
-0.5188190341,
0.760049283504,
-0.992271959782,
-0.918483495712,
-0.402704656124,
0.446625798941,
0.0830213800073,
-1.10485970974,
-0.181883871555,
1.02073907852,
-0.497571378946,
0.0243096128106,
0.678690671921,
0.411151409149,
1.43249869347,
0.36529135704,
0.731570005417,
-1.01718974113,
0.121431045234,
1.11083328724,
-0.0257266797125,
-0.49195560813,
-1.39082288742,
-0.0465202741325,
0.0774180814624,
-0.749651789665,
0.625282347202,
-1.08867049217,
-0.382973283529,
-0.994833827019,
0.0119957961142,
0.439772456884,
-0.756594359875,
0.0804561451077,
0.169144898653,
-0.874109268188,
-0.534189760685,
0.0782414674759,
-1.05797028542,
-0.785262227058,
0.592847585678,
-0.033469285816,
0.940127670765,
-0.217486798763,
0.538440704346,
-0.244658082724,
0.69119566679,
-1.47806942463,
0.718832135201,
-1.02872562408,
-1.49068510532,
0.0892407149076,
-0.125181883574,
0.171676903963,
-0.319142580032,
-0.357197374105,
1.20430982113,
0.589862525463,
-0.0668822973967,
-1.86543154716,
-0.50722026825,
-0.624768853188,
0.0804607346654,
0.158340334892,
-0.188899680972,
-0.515016376972,
-0.625209569931,
1.11208462715,
-0.233046814799,
1.32343530655,
-0.0280522871763,
0.231102719903,
1.19561135769,
-0.51070779562,
-0.559585571289,
0.902414619923,
0.135661408305,
-0.92969173193,
0.00158575957175,
0.307988256216,
-0.783260524273,
0.430569380522,
1.91417992115,
-1.46083903313,
-1.27574872971,
0.843120455742,
1.40554797649,
0.159823775291,
0.802261531353,
0.158694192767,
-1.89136826992,
0.450533568859,
-0.474354624748,
0.155222043395,
1.29621338844,
-0.90342861414,
-0.802681863308,
0.549202859402,
0.168115690351,
-0.233424916863,
0.798354387283,
-0.854331493378,
-0.928806722164,
-0.170788630843,
0.389940351248,
0.667598545551,
-0.597529828548,
0.72900724411,
-0.0841690301895,
0.588601529598,
-0.756034493446,
-0.557789504528,
-0.358211606741,
-0.515525460243,
-0.426835000515,
-1.42738389969,
-1.50607979298,
-0.702609956264,
1.3168939352,
-0.601472318172,
-0.162838578224,
0.486716717482,
-1.51303172112,
1.18869531155,
0.231852039695,
-1.49190402031,
1.25954222679,
-0.431974440813,
0.586907744408,
-1.19450128078,
0.381440132856,
0.261037439108,
-0.360900580883,
0.209798321128,
0.668040513992,
-1.9956908226,
-1.54614543915,
-0.932955980301,
-1.34900021553,
-1.5645236969,
0.0246789306402,
-0.623852431774,
1.5618686676,
-0.71554172039,
0.45368590951,
1.40648436546,
0.711516439915,
-0.689142048359,
0.790901184082,
0.420617908239,
1.04553461075,
-0.122165173292,
0.92714715004,
-1.38092386723,
0.575257718563,
-0.985237717628,
-0.164321959019,
0.411836773157,
-0.730910480022,
0.236416175961,
0.321679711342,
1.27854633331,
-0.419971883297,
1.10609447956,
-0.554648458958,
1.29404115677,
1.01823556423,
0.786371529102,
0.34270131588,
-0.297638237476,
0.99374628067,
0.105411544442,
-1.20201575756,
-1.58533000946,
0.12846750021,
-0.446832537651,
-0.597804248333,
0.412724077702,
0.509567797184,
-0.887783527374,
0.382008254528,
-0.133777454495,
1.13786864281,
-0.726762831211,
-1.17254436016,
0.10520721972,
0.530276417732,
-0.224318504333,
0.181548982859,
1.3355230093,
1.09476935863,
-0.0632054582238,
-0.366476118565,
-1.05842268467,
-0.0658470541239,
-0.466334074736,
0.267189234495,
1.47077274323,
-0.931850552559,
-1.12149095535,
-1.39416718483,
-1.66244840622,
-1.3488420248,
-0.479904979467,
0.139891728759,
0.0833102092147,
-0.285072237253,
0.796114683151,
-0.577438592911,
-0.890151202679,
0.940141797066,
-0.485982894897,
-0.210330948234,
1.15192651749,
-0.908857941628,
-1.14034855366,
0.914637744427,
-1.14455938339,
-0.542755126953,
1.25925731659,
-0.0683053657413,
-0.623907446861,
-0.523486435413,
1.05623424053,
-1.08218359947,
-0.380701929331,
1.74130392075,
1.86258351803,
0.177612528205,
-1.24106371403,
-1.89007103443,
0.223227545619,
-1.17049586773,
1.70835721493,
0.152970567346,
-0.769991993904,
-0.8478525877,
-0.675106465816,
-1.11168909073,
-1.41117060184,
-0.255708605051,
-0.934157311916,
-0.731551766396,
-0.365471065044,
-0.815008282661,
0.220300078392,
0.696345567703,
1.21303284168,
-1.45798611641,
1.10552728176,
0.140371248126,
-1.61153388023,
0.0205581821501,
0.955780982971,
-0.21681958437,
-0.233228638768,
0.95941311121,
-0.189783588052,
-1.87703120708,
-0.441883414984,
0.536578834057,
0.525821566582,
1.41410517693,
-0.810039162636,
0.236984074116,
-1.45110142231,
0.238911047578,
1.4207752943,
-0.624097406864,
-1.14215958118,
-1.92590498924,
-0.0238081794232,
0.0116347055882,
0.209504216909,
0.273253858089,
0.732670962811,
0.902953743935,
-1.09291565418,
1.67615330219,
0.449879795313,
0.413963884115,
1.85479319096,
0.368971198797,
0.313925474882,
-1.57019221783,
0.647803366184,
-0.0909940898418,
-1.27271473408,
0.634733140469,
1.27615571022,
1.53336548805,
-1.64214241505,
0.881883382797,
-1.1267080307,
1.38723909855,
-0.677746772766,
0.389530837536,
0.357785761356,
-1.82298719883,
1.5086928606,
1.13518333435,
-0.734482765198,
0.620375931263,
0.707545995712,
-1.14057266712,
-0.220730051398,
-0.420725613832,
-0.345088154078,
-0.43274050951,
0.427492946386,
1.13661849499,
0.501165926456,
-1.17169415951,
0.809476613998,
0.79818546772,
-0.657959520817,
-0.489257782698,
1.01745796204,
-0.771055519581,
-1.24751877785,
0.109758891165,
1.09474515915,
0.474812537432,
-0.174331694841,
-0.333758026361,
-1.18802165985,
-1.80188548565,
-1.35313904285,
-0.215318918228,
-1.42350625992,
0.483652591705,
0.587623596191,
0.944480419159,
-0.473308771849,
0.360659837723,
0.507157862186,
0.514388442039,
1.86875009537,
-0.963482379913,
-0.873471915722,
-0.0638821795583,
0.242563068867,
-0.666451156139,
-0.974409282207,
-0.7106590271,
0.928667426109,
0.00551685551181,
-1.84988439083,
1.25497031212,
1.7369492054,
-0.981561183929,
-0.0807831063867,
0.357433408499,
-0.73540520668,
1.35653650761,
1.24049210548,
0.375196784735,
-0.810386836529,
0.423696994781,
-1.55937206745,
-1.07247948647,
1.00319325924,
-0.0523732788861,
-1.1797593832,
-0.205924198031,
-1.30357170105,
1.31536865234,
-0.69810295105,
-0.870293438435,
0.573691546917,
-0.228159993887,
-0.453067868948,
-0.290380716324,
-0.0731972977519,
-0.508884489536,
0.45664998889,
-0.964591085911,
-0.0920351594687,
-0.0987708717585,
-0.494250863791,
-0.36605656147,
0.357920914888,
0.0184220727533,
0.969909846783,
0.652424812317,
0.145087331533,
-1.14995181561,
0.0714785456657,
-0.354433894157,
-0.884219050407,
-0.84166675806,
-0.488139182329,
-1.04639148712,
-0.40454095602,
0.236561313272,
0.378250926733,
1.35473740101,
0.392391085625,
0.366654902697,
-0.380575716496,
-0.931309759617,
0.207157641649,
0.648497760296,
0.387198388577,
-0.203646481037,
-1.83019757271,
0.0654940083623,
-1.14929711819,
0.0225666426122,
-0.19448043406,
-0.232599824667,
0.259649097919,
0.210340827703,
1.27411043644,
0.544144868851,
1.14364314079,
0.807366132736,
0.939402699471,
-1.01965582371,
0.850035846233,
-0.12875315547,
0.663935601711,
1.18398523331,
-0.15122461319,
-1.65657484531,
-0.745650291443,
-0.423109382391,
-1.40305173397,
0.843647360802,
0.212974905968,
-0.257377177477,
-1.0504130125,
-1.0782302618,
-1.81684756279,
-0.86462366581,
-0.204792931676,
0.209395602345,
-1.16221356392,
-0.0815726667643,
0.459191739559,
-1.25235950947,
0.537114620209,
-0.746494174004,
0.128089725971,
-0.945805311203,
-0.526816785336,
-0.876892328262,
0.219552874565,
0.846988379955,
0.550349414349,
0.153151571751,
-1.43184936047,
-0.425029695034,
0.424629241228,
-0.12027567625,
-0.128549009562,
-1.71233320236,
0.0661289915442,
-1.66636908054,
-0.983363747597,
-0.598789155483,
0.34014827013,
-0.63173943758,
0.919433653355,
0.641132950783,
0.198832586408,
0.318842053413,
1.16980731487,
0.619490563869,
1.03296387196,
-0.861451208591,
1.44645249844,
-0.967570900917,
-1.21962356567,
0.693133175373,
0.674456655979,
-0.126004651189,
0.65763181448,
-0.61081045866,
-0.653298437595,
0.0465893298388,
0.344604790211,
-1.81827402115,
0.242332369089,
0.826260745525,
-0.455372035503,
-0.596772551537,
1.38126337528,
1.23869752884,
-0.397688984871,
1.53305065632,
0.0240427665412,
-0.283482164145,
-1.15035033226,
1.42734801769,
0.354825586081,
-1.42758440971,
0.270113825798,
-0.916783809662,
-1.35625851154,
1.20602428913,
0.553106725216,
0.406330525875,
-0.142620623112,
-1.61158370972,
-0.972402513027,
-0.611828565598,
-0.458567470312,
0.606853842735,
-1.25126743317,
0.695996642113,
0.790532469749,
0.500611305237,
0.998846113682,
1.69706642628,
-1.20145571232,
0.0977164059877,
0.741182625294,
-0.76767539978,
-0.879609167576,
0.320083141327,
-1.62634658813,
-0.225824803114,
0.920877277851,
0.254627048969,
1.16110002995,
0.993252635002,
1.01781618595,
-0.704005777836,
-0.95819824934,
-0.345392346382,
0.532800853252,
-0.20469379425,
0.57410466671,
1.86045730114,
-0.308129638433,
-0.0167674347758,
-1.47309744358,
-1.52151060104,
-0.760699093342,
0.467949211597,
0.275081664324,
0.191928654909,
0.00610917434096,
-0.300363779068,
0.317165941,
0.973904311657,
0.457826495171,
1.05811548233,
0.480274438858,
-1.66483688354,
-1.50669360161,
0.875788092613,
-0.235180824995,
0.224396303296,
0.0755827724934,
-1.25342524052,
-0.282492429018,
0.991521120071,
-0.456241965294,
1.51568734646,
-1.25620031357,
-1.13627266884,
-0.480567753315,
0.778403699398,
-0.658264756203,
-0.88444674015,
-1.73204016685,
-0.875002861023,
0.328402131796,
-1.39916181564,
-0.0223043467849,
0.805449724197,
-0.0239685103297,
-1.01171040535,
-0.577041685581,
-0.538233041763,
-0.505903482437,
-0.992472708225,
-0.444418847561,
0.694931387901,
1.55867135525,
1.60194420815,
1.03093135357,
-1.10231733322,
1.15210556984,
-0.399115115404,
0.667696475983,
-0.852674007416,
1.25377905369,
0.147861003876,
0.992830038071,
1.42029440403,
-0.812701106071,
-0.0595726929605,
-0.60893446207,
-0.535411953926,
-0.971881568432,
0.143305510283,
0.915512561798,
1.13886713982,
-0.440746039152,
-1.31178176403,
-0.0649738833308,
0.619727194309,
-1.86316895485,
1.6149379015,
0.856535673141,
0.841866075993,
-0.106883443892,
-1.87760484219,
1.12644350529,
1.01990485191,
0.691222548485,
-0.6753256917,
-0.0528722926974,
0.0873707681894,
-1.58926939964,
0.653194665909,
0.268500298262,
-0.072711519897,
-0.850908279419,
0.695537626743,
0.11208807677,
-1.36284732819,
-0.111750476062,
1.2163091898,
-0.64356148243,
1.50478184223,
-0.198718518019,
-1.63461947441,
1.6353250742,
-0.774279177189,
-0.560123503208,
0.858369767666,
-0.979568004608,
0.84178674221,
-0.761737883091,
1.06814682484,
0.0499867759645,
1.46360254288,
0.271377682686,
0.913005828857,
-0.541784703732,
-0.211886078119,
0.829607129097,
0.796349704266,
-0.584880948067,
0.0642610862851,
-1.42600989342,
0.679374933243,
-0.432613164186,
-0.263613283634,
-0.915921509266,
1.44201827049,
-1.10825228691,
-1.7003787756,
-1.31704330444,
1.21069598198,
0.273366063833,
0.182397380471,
0.993749439716,
1.32039546967,
1.41798245907,
0.416513800621,
0.509522795677,
-0.00619081314653,
0.912302017212,
0.34715154767,
1.38801634312,
-1.21658468246,
1.35110294819,
0.982226610184,
-0.40404304862,
0.334244072437,
-1.58639991283,
0.662967741489,
0.161252707243,
1.162987113,
1.20363497734,
-0.174808844924,
-0.9871519804,
-0.337156742811,
1.03982055187,
-0.0148926749825,
-1.28660702705,
0.878816783428,
-1.70996117592,
-0.0987053066492,
1.07000935078,
-0.703860521317,
0.512407302856,
-0.970344305038,
-0.0326799415052,
0.844350159168,
0.847422540188,
-0.664528429508,
-1.19240832329,
-0.450671255589,
-0.347513735294,
-0.229785487056,
-0.787025332451,
0.594550311565,
0.620938420296,
0.522033512592,
-0.27342748642,
0.973167300224,
0.0708212926984,
1.6543738842,
0.950206518173,
0.816287279129,
-0.383933067322,
0.925841033459,
-0.746047377586,
-0.332623362541,
-0.709089159966,
0.145897939801,
-0.587558150291,
0.435742795467,
0.0659515187144,
-0.524832487106,
0.0749072358012,
-0.298881858587,
-0.268518000841,
0.362278401852,
0.705168783665,
-0.200261086226,
-0.152754276991,
0.187751203775,
0.849885344505,
-0.354798555374,
1.05387413502,
1.57616209984,
1.35475325584,
-0.276840180159,
-1.67807507515,
-1.33558797836,
-0.0153846479952,
0.0628459751606,
0.462031126022,
0.893100500107,
-0.768030703068,
-0.0571397021413,
0.381680011749,
-0.609955847263,
-0.0318314358592,
0.373664051294,
0.886193573475,
-0.761856138706,
0.676616728306,
0.21891450882,
-1.85749781132,
0.974963724613,
0.0159867815673,
-0.125841528177,
-1.15506148338,
-0.110813878477,
0.468810141087,
-0.526458263397,
0.208082079887,
0.831343233585,
-0.975173473358,
0.905376017094,
-0.17497061193,
1.30079102516,
-1.03957152367,
-0.24501670897,
0.259134322405,
1.14941751957,
0.0822675675154,
-0.378528863192,
-1.82794606686,
0.543514549732,
0.219668671489,
-0.263596326113,
1.01346170902,
-0.327350109816,
-1.00117826462,
1.18521726131,
0.0483710691333,
1.56583845615,
-1.12767255306,
1.07483971119,
1.25999951363,
1.56724560261,
-1.48769462109,
0.855579733849,
-0.548827528954,
-0.296655863523,
-1.01093149185,
-0.418792366982,
0.68782132864,
-0.274926096201,
-0.415132731199,
0.721450805664,
0.70844399929,
-1.20620810986,
0.203658983111,
0.629678845406,
0.320815891027,
0.303835719824,
-0.376477062702,
-0.028140977025,
-0.142795458436,
-0.958866834641,
-0.573778569698,
1.61362206936,
-0.467364996672,
0.63071346283,
1.03751540184,
0.714651525021,
-0.255075991154,
0.139952227473,
-0.667047560215,
0.17961871624,
-0.608091771603,
1.10760486126,
0.196035221219,
-0.861291050911,
-0.767392575741,
-1.17074882984,
-0.625281453133,
-1.38641881943,
-0.560997247696,
1.3278400898,
0.143057361245,
0.0214006900787,
0.956261456013,
-0.624298632145,
-0.899210870266,
0.0874990746379,
-0.985466063023,
-1.66887044907,
0.971057415009,
-1.52835154533,
-1.44035196304,
1.15907871723,
0.31122469902,
-0.118283078074,
1.388215065,
-0.15560464561,
-1.00816833973,
-0.491026818752,
0.738645792007,
0.0222971532494,
-0.694440245628,
1.70662260056,
1.56878685951,
-0.108740359545,
-0.279578983784,
-0.427036374807,
-0.395973354578,
1.641913414,
0.780219018459,
0.390716224909,
0.103198051453,
-0.530409216881,
1.1264667511,
-0.128955900669,
-1.00339186192,
0.895624279976,
-1.11300587654,
-1.60097396374,
0.643718898296,
-0.95978474617,
-0.0927773192525,
0.58864158392,
-1.4730912447,
1.53296279907,
-1.2951990366,
-0.503888607025,
-0.235687449574,
0.594902634621,
0.666826188564,
-0.43616309762,
1.18911683559,
1.14319419861,
-0.637521326542,
0.881701886654,
1.03313112259,
-0.68164563179,
0.0540635772049,
1.16994738579,
-1.25301253796,
-1.08786821365,
1.17944431305,
0.110322549939,
-0.78811955452,
1.826567173,
0.163842305541,
-1.27473831177,
-1.93308579922,
0.314309090376,
0.02188516967,
-1.69039690495,
-0.981743514538,
-0.331078976393,
-0.188950389624,
-0.914988279343,
-0.274081885815,
-0.881452322006,
0.980757534504,
-1.60388803482,
-0.327685713768,
0.172152340412,
0.118067450821,
-0.383858770132,
-0.0530305169523,
-0.760333299637,
-0.0741455033422,
0.438008099794,
-1.27485656738,
0.038430403918,
0.453878611326,
1.09079158306,
0.795736193657,
-0.127636089921,
0.547727763653,
0.1884675771,
0.0915841385722,
-0.451197117567,
0.456340134144,
1.33631372452,
0.99854195118,
-1.66156899929,
-1.73152732849,
0.519633054733,
0.626926064491,
0.510032534599,
-0.969068109989,
-0.496886372566,
-1.44255185127,
-0.598612129688,
0.92274671793,
1.13064205647,
0.00482904352248,
-0.529157996178,
-0.369436472654,
-1.57516300678,
1.28378105164,
0.826527833939,
0.987934410572,
0.329613029957,
-0.28812995553,
0.219176083803,
0.348790198565,
-0.48685374856,
0.95224070549,
0.675766944885,
-1.9429153204,
-0.355400472879,
0.129622876644,
0.178000822663,
0.337800562382,
-0.26934927702,
0.44396391511,
0.755974948406,
0.448306888342,
1.43939805031,
-0.459094703197,
0.383529692888,
-1.68604779243,
-0.433525413275,
-0.969220399857,
0.230901345611,
-1.39451146126,
-0.11584468931,
-0.110252320766,
0.0687507465482,
-0.425553053617,
0.819615721703,
-0.572186648846,
-1.031701684,
-1.32865607738,
-1.71015286446,
-1.16261875629,
0.53904736042,
1.40605413914,
-0.720318198204,
1.21337127686,
-1.05970680714,
0.325132399797,
-0.713371932507,
0.424628168344,
0.667563140392,
-0.121864669025,
-0.79136043787,
-2.0626642704,
-1.18838465214,
0.091089323163,
0.614538013935,
0.28855702281,
0.762784361839,
0.778859436512,
-1.01686179638,
-0.703399896622,
-0.000277862360235,
0.0247257202864,
0.522400200367,
-0.899546325207,
-0.311765938997,
-0.00482115615159,
1.11705648899,
0.950937271118,
-1.31772172451,
-1.60648405552,
-0.511929035187,
0.363182812929,
1.76143825054,
-1.77487397194,
0.159195318818,
-0.650207221508,
-0.729124009609,
-1.03074002266,
-1.52920842171,
-1.13427519798,
0.303350538015,
-0.796095013618,
-0.240612402558,
-1.27467620373,
-0.760757029057,
-0.539056301117,
0.80753916502,
0.769388973713,
0.68104660511,
-0.288418740034,
0.900534749031,
1.0277146101,
-0.86703389883,
-0.148211434484,
0.278640568256,
-0.703467190266,
-0.0487831570208,
-1.00861108303,
-1.86004030704,
-1.41995620728,
-0.53906494379,
-0.912966966629,
0.439033001661,
0.498852342367,
-1.68617713451,
0.110868059099,
0.802607238293,
1.38418507576,
0.693902730942,
0.294692903757,
1.18824517727,
0.472701638937,
-0.760479032993,
0.0577022172511,
0.60498046875,
-0.878711283207,
0.479232847691,
-1.77440500259,
0.518176078796,
0.170372024179,
0.411932021379,
0.967243373394,
-0.85910230875,
-1.14050686359,
-0.181438684464,
-0.995228827,
-0.297493189573,
1.40998876095,
0.257274448872,
-0.388722658157,
0.652173817158,
0.942696034908,
0.609707057476,
-0.238735675812,
1.52809035778,
-1.73205280304,
0.748392403126,
0.121588997543,
0.521992743015,
-1.54185688496,
-0.156585007906,
0.137686148286,
0.98885768652,
0.574539422989,
-1.38135278225,
-1.7149283886,
-1.32251751423,
-0.148584932089,
0.598108887672,
-0.450829982758,
1.05769312382,
0.86173504591,
0.606380701065,
-1.9411149025,
0.363266944885,
1.60867893696,
-0.855384767056,
-1.14021539688,
-0.364505648613,
-0.640246808529,
0.527661919594,
0.568383395672,
-1.50282025337,
-0.424545973539,
-0.70293700695,
-0.57059776783,
-0.820237696171,
1.42945492268,
0.110685259104,
1.18868792057,
-1.05046951771,
-0.501221299171,
0.668815672398,
0.0837948545814,
-0.64446246624,
-0.439461201429,
0.0371700264513,
-0.906735479832,
0.582244157791,
1.54212474823,
-1.5111219883,
-0.531237244606,
-0.41890078783,
1.10965156555,
0.537220001221,
0.282967984676,
0.78137588501,
-0.123185142875,
0.483806729317,
0.56838196516,
0.20658749342,
0.509021699429,
0.765656471252,
1.23642921448,
-0.463144302368,
1.49835979939,
-0.743238627911,
1.3306581974,
-1.33813095093,
-0.061879593879,
0.982515513897,
0.324280917645,
0.0586405768991,
1.04766011238,
1.88495576382,
-1.56142032146,
-0.754027545452,
1.59810197353,
-0.814791560173,
-0.638676047325,
0.997141361237,
0.595802903175,
0.478278815746,
1.74169993401,
-1.44555389881,
1.57001590729,
-1.4181047678,
1.05341136456,
0.391245901585,
-0.26025724411,
0.38669782877,
-0.378991544247,
-0.0947624444962,
-0.808124303818,
-0.0803522542119,
0.384095788002,
-0.538920462132,
-0.265631496906,
-0.107825823128,
0.333715558052,
-0.401145905256,
0.0819282755256,
0.358647674322,
0.833470702171,
0.000407135114074,
-0.990234732628,
0.956601023674,
0.165628924966,
1.2040681839,
0.044643342495,
-0.911509275436,
1.32787537575,
-1.86737501621,
-0.389381706715,
1.00328779221,
-0.822877109051,
-0.427456349134,
0.19946539402,
0.348216176033,
-0.959598064423,
0.977363228798,
-0.464520871639,
0.787421345711,
-1.16795933247,
-1.88505876064,
-1.29863035679,
0.587932705879,
-1.44040679932,
0.792530119419,
-0.119011357427,
-1.64429521561,
-0.246163412929,
-1.68891334534,
-0.752350509167,
-1.63399457932,
1.43402993679,
1.79718363285,
0.0155045585707,
-0.753104925156,
-0.11374694109,
-0.0936684310436,
-1.64582455158,
-0.00456539634615,
0.716000258923,
-0.909189403057,
-1.25749444962,
0.139597982168,
-0.426757335663,
1.18764233589,
-0.767282605171,
1.07505548,
-0.573487460613,
-0.656341254711,
0.92185908556,
-1.3319054842,
-0.371863633394,
-1.88113749027,
0.947855710983,
1.08789753914,
-1.06712174416,
-1.47537410259,
-0.757924437523,
0.448932409286,
-0.16234600544,
-0.74395275116,
-1.78076481819,
0.113213799894,
-0.169667065144,
-0.717688083649,
1.46763443947,
0.0224862284958,
-0.279718190432,
-0.0287769027054,
0.565209507942,
0.954311966896,
-1.11875247955,
1.54584860802,
-0.269451826811,
0.208697736263,
1.68393778801,
0.819138050079,
-0.41059884429,
-1.25980067253,
-2.27865934372,
1.51971793175,
-0.180401295424,
0.796168088913,
1.73824036121,
1.01064813137,
1.01233255863,
-1.11460757256,
-1.89656972885,
0.43555149436,
-0.998894512653,
-0.662388265133,
-0.157379314303,
-1.12300646305,
0.13185210526,
0.675003170967,
0.692661345005,
-1.4944922924,
-1.34904420376,
0.756262481213,
-0.035802423954,
-0.8178820014,
-1.18216311932,
0.600052297115,
-1.7782753706,
-0.895433664322,
0.627392232418,
0.0843020156026,
-0.173273682594,
1.4734723568,
0.463954359293,
-0.687705993652,
-0.481491804123,
-0.172243073583,
0.801816225052,
-0.456598639488,
0.0440694019198,
-0.230443015695,
1.34606790543,
-1.35349047184,
0.36731928587,
-0.426981240511,
0.0897263139486,
-1.56451618671,
1.61539292336,
-1.44558131695,
-0.989885807037,
-0.224668070674,
1.77226448059,
0.829272449017,
-0.535991311073,
0.715414583683,
-0.843506157398,
-0.781881392002,
0.879430830479,
0.895552277565,
0.28343719244,
0.584453701973,
-1.11446893215,
-0.0666786953807,
-0.299722880125,
0.776366055012,
-1.06520330906,
-0.717558026314,
-0.689211905003,
-0.207977801561,
1.348990798,
1.28907954693,
-0.621074020863,
-1.03998315334,
-1.51428747177,
0.429686278105,
1.194226861,
0.180574208498,
0.198762372136,
0.119526363909,
1.46623146534,
0.128249615431,
1.56136703491,
1.73157203197,
0.0916916057467,
-1.62171077728,
-1.03647756577,
0.221074014902,
1.50634026527,
0.69501632452,
1.38717675209,
-0.980612516403,
1.04335224628,
-0.0751645043492,
-0.0741024389863,
-1.73537826538,
0.755687355995,
1.34514200687,
0.0569205284119,
-0.879641711712,
-0.930892944336,
-0.83199775219,
1.65760469437,
-0.919503509998,
1.28642940521,
0.825198531151,
1.18268370628,
0.436492264271,
-1.79402709007,
-0.0118131758645,
0.257651150227,
0.387188702822,
-0.110875338316,
-1.05482971668,
-0.435980618,
1.00782597065,
0.200024470687,
0.397989571095,
0.0835686028004,
1.56987154484,
-0.0742983222008,
0.844628334045,
-0.947144031525,
-1.61894643307,
0.623154759407,
-0.971337258816,
-0.40911719203,
1.3450448513,
0.258423238993,
-0.856732547283,
-0.813118577003,
1.08333551884,
-1.21141958237,
-0.103650406003,
-0.332500964403,
0.282994061708,
-0.830394566059,
0.624741137028,
0.594371855259,
-0.781463444233,
0.116965785623,
-0.684363901615,
-0.378374904394,
0.107606142759,
-0.865644991398,
0.0621661506593,
0.126802548766,
-0.623765408993,
-1.60460460186,
-0.57904291153,
-0.207265362144,
0.743543803692,
-0.746681213379,
0.0468023307621,
0.374279618263,
1.33663666248,
-0.691051244736,
0.422790020704,
0.422005981207,
1.65129506588,
-1.76881635189,
-1.10368931293,
-0.00647374801338,
1.52284824848,
-1.37613475323,
0.85634547472,
-0.56138843298,
-0.195289701223,
-0.519845664501,
-0.738613545895,
-0.366360664368,
1.40022957325,
-1.16516447067,
1.2432038784,
0.113693520427,
0.655940413475,
0.882329165936,
1.06267619133,
0.544271945953,
-1.2112275362,
-0.397252500057,
-0.144593298435,
-0.325718581676,
0.0803784430027,
0.316769808531,
-0.862282633781,
-0.847956836224,
1.56905376911,
-0.0258642006665,
0.263028770685,
0.0180330779403,
-0.626341700554,
-1.07656598091,
0.155743911862,
0.185636073351,
-0.347766041756,
0.476102888584,
-0.578790187836,
-0.30383297801,
0.20911988616,
0.632092356682,
0.0466472283006,
-0.624292492867,
-0.291766315699,
-1.07215452194,
-0.509796202183,
0.140135318041,
-0.912217378616,
1.35695624352,
-0.52324450016,
-0.0464739017189,
-0.857164204121,
0.341712504625,
-0.257076025009,
-1.31857562065,
-1.35860717297,
0.278618186712,
-0.495837837458,
0.182564482093,
-1.17370951176,
-1.5523545742,
-0.619407951832,
0.232162997127,
1.87518668175,
-1.34900319576,
-1.70556735992,
0.852929055691,
1.81066668034,
0.34117141366,
-1.87580263615,
1.01133048534,
-0.347048252821,
-1.37058913708,
-1.59767055511,
0.834223926067,
-0.384753078222,
-0.017453065142,
-2.02291440964,
-0.637735307217,
0.470247805119,
1.38803124428,
0.363686174154,
-0.901325047016,
-0.521040260792,
-0.600561261177,
-0.289068847895,
1.02119493484,
0.170880749822,
-0.0427808575332,
0.29447978735,
1.37735629082,
1.44117772579,
0.773988962173,
-1.29031050205,
-0.188415288925,
0.305361360312,
-0.36159953475,
-0.155782923102,
0.649205803871,
-0.622750818729,
0.741762876511,
1.00197386742,
-0.668993592262,
0.780979990959,
0.457678884268,
-1.43730390072,
-1.33084654808,
0.24538834393,
-1.06964468956,
0.797721326351,
-0.143640160561,
1.5692936182,
-0.810281515121,
0.00100758415647,
-0.583281517029,
-0.0761229768395,
-0.722867131233,
0.69499784708,
0.774837017059,
0.155338987708,
0.747409760952,
-0.206994250417,
0.103971302509,
-1.94212830067,
0.35525393486,
-0.0298395380378,
0.421001523733,
-1.07699346542,
-0.847472369671,
-0.590654075146,
-0.490186244249,
-1.19909155369,
-1.26465213299,
0.2077049613,
-0.740524411201,
-0.329429417849,
-0.138222545385,
-0.670836210251,
0.258557587862,
0.383863329887,
-0.164580702782,
-1.09133601189,
-0.507651865482,
0.321555733681,
-0.0956566110253,
-0.988889694214,
-1.35414922237,
0.508587121964,
-0.464543521404,
-0.157737970352,
-0.17444254458,
1.39483785629,
0.983111321926,
-0.672134637833,
0.0390298180282,
0.525397479534,
0.720652759075,
-0.357185214758,
-0.123278200626,
-1.09019351006,
-0.606710970402,
1.70832240582,
-0.0126181673259,
-0.253964245319,
-1.44519305229,
-0.863347113132,
-0.483823537827,
0.490932226181,
-0.901622831821,
-0.859615385532,
-1.69509065151,
0.0134323956445,
-0.266289681196,
-0.47190991044,
0.34557312727,
0.350337535143,
0.776278018951,
1.41577267647,
-1.35078668594,
0.216538056731,
0.86907941103,
1.24300646782,
0.196668609977,
-0.235140472651,
1.07051539421,
-0.331387400627,
0.19320486486,
-0.658493578434,
1.4458476305,
1.43413972855,
-0.0124852452427,
0.335721671581,
-1.03927385807,
-0.0895489677787,
1.65887522697,
0.822422683239,
1.51398074627,
0.249839529395,
0.921609640121,
-0.202754706144,
1.12859582901,
0.389827817678,
-1.29434108734,
0.154392927885,
0.201892316341,
0.106691978872,
0.879446029663,
-0.668574690819,
-1.86291503906,
1.17870867252,
0.23919442296,
-0.0562314838171,
-0.268533170223,
-0.580063998699,
1.79390668869,
-1.03215360641,
-0.20002040267,
-0.516815304756,
0.509387254715,
1.96837079525,
-1.12901508808,
-0.947155833244,
-0.341607511044,
-0.303067713976,
0.397798120975,
1.26861512661,
-0.700416684151,
-0.448520243168,
0.781053602695,
-0.338190555573,
1.52434182167,
1.57940340042,
-0.198771044612,
-0.898010015488,
0.484637796879,
-0.563457012177,
0.449449568987,
0.110238462687,
0.254301428795,
-0.362718999386,
0.162972182035,
0.460307240486,
-1.56130325794,
-0.737722575665,
-1.53906464577,
1.07315027714,
0.660084605217,
0.942820906639,
-0.0764469951391,
-0.253784358501,
-0.496206909418,
0.272623986006,
-0.687961280346,
1.03126096725,
-0.253962695599,
-0.355269908905,
-0.662695765495,
1.51790499687,
0.320727944374,
-0.970298349857,
-0.926248788834,
-0.230133682489,
-0.274751186371,
-0.469440937042,
1.22920572758,
0.12997546792,
0.824279725552,
-0.697903335094,
-0.642080247402,
-0.198779881001,
0.0709703117609,
1.25673031807,
-0.680811882019,
-0.0325697958469,
-0.589711666107,
0.674340128899,
0.936583817005,
0.543817281723,
1.33352005482,
0.00758754136041,
-1.65687942505,
-1.16787040234,
0.495308458805,
-0.518890678883,
-1.5189883709,
-0.451600849628,
-0.632182598114,
1.32809817791,
0.133345261216,
1.22388458252,
-0.59682571888,
-0.595174610615,
-1.48912346363,
-0.497125893831,
-0.694513618946,
-0.700114071369,
0.543655097485,
-0.775866270065,
-0.077487975359,
-0.316141754389,
1.5057182312,
-0.287637084723,
-0.443885415792,
0.0794317349792,
-0.527242302895,
0.264704048634,
1.02847313881,
0.568778693676,
1.52579092979,
-1.32158231735,
-0.220241218805,
-0.373838096857,
-0.42744410038,
0.0865809321404,
0.961422502995,
0.84427523613,
-1.74270033836,
0.941168725491,
-0.72254139185,
0.158576592803,
1.33583033085,
-1.89505732059,
1.08140075207,
-0.363038688898,
0.494628399611,
-0.0816377624869,
-1.00025808811,
-0.943038403988,
-0.878505825996,
-0.314881145954,
-0.00813497416675,
-0.466827005148,
-0.252597004175,
1.28065419197,
1.20339083672,
-1.85885906219,
-0.121519900858,
1.6293759346,
1.83788347244,
0.290800541639,
-0.0941792279482,
0.895510852337,
0.649482369423,
0.132739886642,
-0.350793123245,
0.57919895649,
-0.460302501917,
-0.24986217916,
1.42568147182,
0.148889258504,
0.614798486233,
0.65792798996,
0.0045300857164,
0.824332892895,
-1.48395633698,
1.75048685074,
0.509581744671,
-0.393006175756,
-1.23837542534,
-1.17182385921,
-0.685011744499,
1.44253611565,
-0.932074248791,
-1.36554157734,
0.816394984722,
1.17830741405,
-0.084872841835,
-0.877531886101,
0.502863943577,
1.29112684727,
0.352674096823,
2.08273434639,
0.493715524673,
-0.39845892787,
0.0973441302776,
-0.174313142896,
-0.177760735154,
0.837973475456,
-0.52792942524,
1.11161828041,
0.964133322239,
-1.44493150711,
0.598743021488,
-0.184660971165,
2.15271735191,
1.43201589584,
-0.341262549162,
-1.75450134277,
0.760942816734,
-0.853351175785,
0.890217065811,
0.504165172577,
0.61853158474,
0.137496933341,
-0.856771767139,
-0.878014028072,
-1.49559605122,
-0.0107064126059,
-0.693225681782,
1.35928010941,
0.177131980658,
0.274391919374,
-0.396940916777,
-0.12912081182,
0.837029755116,
1.84536600113,
1.70377337933,
-0.198629438877,
1.08667957783,
0.624128937721,
-1.05791819096,
0.470403760672,
0.860340416431,
0.161728873849,
0.671035826206,
0.12201847136,
0.22770498693,
-1.125172019,
-1.96069812775,
1.05871117115,
-0.0245190262794,
0.691974520683,
-0.154270067811,
0.210632026196,
-0.207859441638,
1.13253188133,
0.0620942823589,
0.159757137299,
-1.12692534924,
-0.0222702808678,
-0.0509785339236,
1.35968232155,
-0.916811525822,
0.558979034424,
-0.590151488781,
-0.899696171284,
0.255893945694,
-0.0252413954586,
-0.415237724781,
-0.34081825614,
0.376753509045,
-0.132489472628,
-0.0126679632813,
-1.3824390173,
-0.595426023006,
-1.55711150169,
1.28778767586,
0.520564436913,
0.236203312874,
-0.714900135994,
-1.62151455879,
0.747966110706,
1.76841676235,
1.26783835888,
-0.495809048414,
0.38227596879,
1.7080270052,
1.61681902409,
-0.0403163805604,
-0.386307507753,
0.0927008166909,
-0.148892104626,
-0.228046521544,
1.13721835613,
-0.524711310863,
0.876836121082,
0.826530337334,
-1.16462552547,
-0.46090555191,
1.60818958282,
-0.703114449978,
0.61769849062,
-1.68609154224,
1.16665709019,
1.73854506016,
-0.593903243542,
1.17809665203,
1.47298395634,
0.131653144956,
-0.249394014478,
-1.42568194866,
0.299711674452,
-0.734466850758,
0.155205354095,
-0.119670376182,
-1.25668370724,
-0.715794920921,
0.724283099174,
0.143291547894,
-0.414838761091,
0.302260279655,
-0.86945939064,
1.42561995983,
1.07013428211,
-1.80529284477,
-0.197218954563,
0.0218583010137,
0.0975474193692,
-0.955486357212,
0.136433377862,
-0.467995613813,
-0.919021606445,
0.245123758912,
-0.899074614048,
0.905144691467,
-0.156276777387,
0.477672249079,
0.753225445747,
0.442270964384,
0.497043848038,
0.641209721565,
0.725153148174,
0.598669350147,
0.347356647253,
1.28055465221,
0.204406172037,
0.205045551062,
-1.35115361214,
1.24536776543,
0.0820698142052,
1.2008408308,
-0.396122127771,
0.932494103909,
0.130430817604,
1.0714161396,
0.750324845314,
0.225925132632,
-0.25759473443,
0.373830586672,
-1.17481732368,
1.65543270111,
1.58719801903,
0.762953400612,
-0.770314097404,
-0.985712826252,
0.0795089676976,
-1.37402582169,
0.426372945309,
-0.693541049957,
0.192177847028,
0.249939605594,
0.114754803479,
0.647070884705,
-0.44757938385,
1.37009370327,
-0.41023182869,
1.09398603439,
1.34667026997,
1.24872040749,
-0.330642551184,
0.312311738729,
-0.0913125351071,
-0.209091842175,
-0.571425259113,
0.683497846127,
1.25610721111,
0.628732383251,
1.20844864845,
-0.331730782986,
0.169910877943,
-0.0655497312546,
-0.763073503971,
-0.259306102991,
-0.330331474543,
-1.75437963009,
-0.764840304852,
-0.299864709377,
0.100816123188,
-0.874397695065,
0.233074039221,
0.351955384016,
-0.795775294304,
-0.392180889845,
-0.0992322787642,
1.74037373066,
0.960705578327,
2.07021737099,
-0.19488081336,
0.185675695539,
-0.392627209425,
1.90261900425,
1.21474325657,
-0.278744012117,
-0.486882477999,
-0.51501095295,
-0.734289765358,
-1.21982264519,
-0.723826050758,
0.664713799953,
1.97365987301,
1.17594969273,
1.07499349117,
1.80471682549,
0.561596572399,
0.39379838109,
-0.301845282316,
-0.200795173645,
-0.0853180885315,
1.05162799358,
0.609070003033,
-1.09901154041,
1.17458081245,
-0.256254076958,
-0.807802081108,
0.14385394752,
-0.658229291439,
-0.157787382603,
-0.503206312656,
1.20123958588,
0.37172049284,
-0.0180745478719,
-0.996630847454,
1.00313198566,
0.0605388879776,
-0.984557449818,
1.60389196873,
0.278891414404,
0.783918261528,
0.424814283848,
0.27072507143,
1.4470102787,
0.397556394339,
-1.24230837822,
1.25061202049,
1.48043596745,
0.613858163357,
0.152787208557,
1.51461601257,
0.0650935471058,
1.25892734528,
-0.16283801198,
1.6627907753,
1.62293362617,
0.536066651344,
0.578863561153,
0.576697826385,
1.13403666019,
-0.937159776688,
-0.29330560565,
-1.67185604572,
0.560067355633,
0.599469482899,
0.707284033298,
0.330325752497,
1.41031360626,
1.73045027256,
0.820425987244,
0.196934521198,
-0.440347671509,
0.630883991718,
0.846682906151,
0.12080386281,
1.04750561714,
-0.8358746171,
-0.255801558495,
-1.38507187366,
0.614950299263,
0.629828751087,
1.11378133297,
-0.121243514121,
0.0530912205577,
-1.47569453716,
0.741128265858,
-1.79243099689,
0.417029738426,
-0.4112624228,
-1.59397351742,
-0.64343804121,
0.0257387794554,
-0.292403906584,
-0.00601461762562,
0.931941449642,
0.841132640839,
1.37379646301,
0.54252833128,
1.23378407955,
1.12915420532,
-1.1458221674,
-0.446279615164,
1.25730228424,
-0.12266087532,
-0.34727960825,
-0.982149064541,
-0.183709815145,
-1.02965497971,
-0.655623435974,
0.677089869976,
-0.311599433422,
-0.0472081713378,
0.890004038811,
1.17329418659,
-0.663262248039,
-0.80051612854,
-0.109309874475,
0.7726136446,
-1.56357753277,
-0.488046526909,
-1.02877295017,
0.258082747459,
0.809412896633,
-0.855913102627,
0.198822930455,
-0.513662576675,
-0.681502461433,
0.75630992651,
-0.0714334845543,
-1.08485519886,
-0.84058791399,
0.376048117876,
-0.434867322445,
0.999161839485,
-0.433341413736,
-0.0407990776002,
-0.187190294266,
0.000900518614799,
-1.38253247738,
0.437874376774,
0.507728219032,
-1.6096020937,
1.61043930054,
0.988831698895,
-0.34671035409,
-0.575577735901,
-0.031169468537,
-0.486228406429,
-1.26009714603,
-1.43240833282,
1.33492159843,
1.181671381,
1.23340427876,
-0.301998078823,
-0.45040383935,
0.317664325237,
1.35315084457,
0.58104544878,
-0.977057039738,
0.69104552269,
-0.606952905655,
-0.446011692286,
-1.11977481842,
0.112255968153,
-0.365136474371,
0.192459613085,
-0.105602666736,
-0.602277040482,
-1.59638524055,
0.0247715581208,
1.49440824986,
-0.21592323482,
1.31811344624,
-0.276531547308,
-0.494284689426,
0.87638348341,
0.0843808874488,
-1.42440843582,
-0.508273899555,
0.569473028183,
1.3942258358,
-0.143713578582,
0.68896895647,
0.455854952335,
0.124978981912,
0.29684484005,
0.363648056984,
1.91214203835,
1.3248513937,
0.553960382938,
0.392124831676,
-0.658105015755,
0.556447505951,
-0.197205200791,
0.412796765566,
-0.235370546579,
-0.615062594414,
1.31406438351,
-1.10900914669,
0.775004923344,
-1.36001133919,
-1.04163455963,
0.705106675625,
0.978251755238,
0.403046756983,
-1.07448899746,
-0.401293665171,
-0.310497403145,
-1.54777228832,
0.332463920116,
1.25642180443,
0.00866704713553,
-1.90538835526,
-1.7139840126,
0.302534997463,
-1.19564938545,
-0.663550853729,
0.837686240673,
-0.634022891521,
0.199080109596,
1.34155476093,
0.196266800165,
0.502438902855,
-0.593506217003,
0.475782841444,
-0.375485122204,
-0.0999654307961,
0.452052652836,
-0.858834326267,
-0.488110989332,
-0.168774425983,
-0.444378405809,
-0.998480677605,
0.029042256996,
0.379275560379,
-1.00517594814,
1.91674661636,
0.314057976007,
-1.46481227875,
0.920969724655,
0.932481586933,
1.67376661301,
1.05032479763,
-0.0627703890204,
-0.19845995307,
-0.876672029495,
-0.619484305382,
1.20503735542,
-0.285097450018,
-0.801074922085,
1.54082286358,
0.177006840706,
0.0294861402363,
0.957581579685,
0.0212317351252,
0.0583177544177,
1.01703059673,
-0.112275287509,
-0.822105765343,
-0.654530405998,
-0.0972126275301,
-1.44377684593,
-0.155617460608,
0.0380313321948,
-1.51376128197,
1.93142390251,
1.71268522739,
-0.571756184101,
-1.26747047901,
-1.35150575638,
0.88181167841,
-0.880661308765,
-0.196700930595,
1.6198579073,
-0.805680811405,
-0.326804965734,
1.55459630489,
-0.846863985062,
-0.450907945633,
-0.872222959995,
0.387748628855,
0.641194522381,
0.98770660162,
-0.465754956007,
1.0240932703,
1.5060530901,
-0.346395224333,
-0.943200170994,
-0.0659626126289,
1.35498666763,
0.910446286201,
-0.5545129776,
0.721692919731,
1.34750902653,
-0.311687499285,
0.0047549684532,
0.46151009202,
-0.315506964922,
-0.854567170143,
-0.488709658384,
1.15231978893,
-1.36273908615,
-1.03349661827,
-1.41827309132,
-0.328436076641,
-1.30000126362,
0.26032346487,
-0.335404098034,
0.17857453227,
-0.79291844368,
-0.670045852661,
0.758337318897,
0.35994759202,
0.408423841,
-0.0235388614237,
0.838422238827,
1.03664803505,
0.826918840408,
-0.211155056953,
1.86390948296,
0.751337587833,
-0.0277471095324,
1.19060099125,
0.322129964828,
-0.115002974868,
0.486581683159,
0.275977760553,
-0.425901144743,
-0.543305397034,
-1.63058900833,
-1.04704904556,
-1.21857333183,
0.739780843258,
-0.36447507143,
0.439454674721,
1.33863997459,
-1.1298469305,
-0.0896106287837,
-1.35653102398,
1.61996531487,
-0.645476520061,
-0.305542141199,
-0.36718672514,
0.571964502335,
-1.05471849442,
0.9819008708,
-1.61557757854,
0.222580268979,
-1.34500837326,
-0.991820633411,
0.509406626225,
0.0758223161101,
